{"learner":{"attributes":{"scikit_learn":"{\"_estimator_type\": \"regressor\"}"},"feature_names":["vegetation_index","flood_proximity_score","extreme_wind_count","infrastructure_hazard","urbanization_index","slope_gradient","snowfall_risk","soil_drainage_ratio","crime_risk_index","is_soil_fallback","is_crime_fallback"],"feature_types":["float","int","int","int","float","float","float","float","float","int","int"],"gradient_booster":{"model":{"cats":{"enc":[],"feature_segments":[],"sorted_idx":[]},"gbtree_model_param":{"num_parallel_tree":"1","num_trees":"100"},"iteration_indptr":[0,1,2,3,4,5,6,7,8,9,10,11,12,13,14,15,16,17,18,19,20,21,22,23,24,25,26,27,28,29,30,31,32,33,34,35,36,37,38,39,40,41,42,43,44,45,46,47,48,49,50,51,52,53,54,55,56,57,58,59,60,61,62,63,64,65,66,67,68,69,70,71,72,73,74,75,76,77,78,79,80,81,82,83,84,85,86,87,88,89,90,91,92,93,94,95,96,97,98,99,100],"tree_info":[0,0,0,0,0,0,0,0,0,0,0,0,0,0,0,0,0,0,0,0,0,0,0,0,0,0,0,0,0,0,0,0,0,0,0,0,0,0,0,0,0,0,0,0,0,0,0,0,0,0,0,0,0,0,0,0,0,0,0,0,0,0,0,0,0,0,0,0,0,0,0,0,0,0,0,0,0,0,0,0,0,0,0,0,0,0,0,0,0,0,0,0,0,0,0,0,0,0,0,0],"trees":[{"base_weights":[7.3939466E-1,-7.460869E0,1.7818182E1,-1.6123075E1,3.4545462E0,9.500001E0,1.1583334E0,-1.6733334E1,-2.1999998E-1,8.500001E0,-2.166666E0,5.3800005E-1,8.000002E-2,-9.6624994E-1,-4.6199998E-1,1.8250003E-1,6.0666674E-1,5.000019E-3,-1.3199997E-1],"categories":[],"categories_nodes":[],"categories_segments":[],"categories_sizes":[],"default_left":[0,0,0,0,0,0,0,0,0,0,0,0,0,0,0,0,0,0,0],"id":0,"left_children":[1,3,5,7,9,11,-1,13,-1,15,17,-1,-1,-1,-1,-1,-1,-1,-1],"loss_changes":[4.754608E3,2.2303843E3,2.6930298E2,1.937622E1,3.3039398E2,4.2507996E1,0E0,5.4479736E1,0E0,6.1443268E1,6.701334E0,0E0,0E0,0E0,0E0,0E0,0E0,0E0,0E0],"parents":[2147483647,0,0,1,1,2,2,3,3,4,4,5,5,7,7,9,9,10,10],"right_children":[2,4,6,8,10,12,-1,14,-1,16,18,-1,-1,-1,-1,-1,-1,-1,-1],"split_conditions":[3E0,1E1,1.2E1,9E0,2.5E0,3E0,1.1583334E0,2E0,-2.1999998E-1,2.6E1,2E0,5.3800005E-1,8.000002E-2,-9.6624994E-1,-4.6199998E-1,1.8250003E-1,6.0666674E-1,5.000019E-3,-1.3199997E-1],"split_indices":[1,3,3,3,5,4,0,1,0,3,1,0,0,0,0,0,0,0,0],"split_type":[0,0,0,0,0,0,0,0,0,0,0,0,0,0,0,0,0,0,0],"sum_hessian":[3.2E1,2.2E1,1E1,1.2E1,1E1,5E0,5E0,1.1E1,1E0,5E0,5E0,4E0,1E0,7E0,4E0,3E0,2E0,1E0,4E0],"tree_param":{"num_deleted":"0","num_feature":"11","num_nodes":"19","size_leaf_vector":"1"}},{"base_weights":[2.0276656E0,-1.568697E1,8.323828E0,-9.250482E-1,-1.9459991E-1,1.79866E1,1.7643552E0,1.0673001E0,7.611001E0,-2.265153E0,7.209584E-1,7.799997E-2,4.5540008E-1,-2.2477026E-1,5.4302122E-2],"categories":[],"categories_nodes":[],"categories_segments":[],"categories_sizes":[],"default_left":[0,0,0,0,0,0,0,0,0,0,0,0,0,0,0],"id":1,"left_children":[1,3,5,-1,-1,7,9,-1,11,13,-1,-1,-1,-1,-1],"loss_changes":[3.8112053E3,2.2671265E2,1.5528325E3,0E0,0E0,1.8609375E2,8.485443E2,0E0,2.2024933E1,1.0204435E2,0E0,0E0,0E0,0E0,0E0],"parents":[2147483647,0,0,1,1,2,2,5,5,6,6,8,8,9,9],"right_children":[2,4,6,-1,-1,8,10,-1,12,14,-1,-1,-1,-1,-1],"split_conditions":[2.4E0,2.2E0,1.4E0,-9.250482E-1,-1.9459991E-1,2.6E-1,4.1E0,1.0673001E0,3.1E-1,3.6E0,7.209584E-1,7.799997E-2,4.5540008E-1,-2.2477026E-1,5.4302122E-2],"split_indices":[8,8,5,0,0,0,8,0,0,8,0,0,0,0,0],"split_type":[0,0,0,0,0,0,0,0,0,0,0,0,0,0,0],"sum_hessian":[3.2E1,8E0,2.4E1,6E0,2E0,9E0,1.5E1,6E0,3E0,1.2E1,3E0,1E0,2E0,7E0,5E0],"tree_param":{"num_deleted":"0","num_feature":"11","num_nodes":"15","size_leaf_vector":"1"}},{"base_weights":[-8.482605E-1,-7.1234117E0,1.4631497E1,-1.5490523E1,1.752515E0,6.846161E-2,1.742653E1,-9.2293674E-1,-6.455995E0,-1.7941433E0,5.5338484E-1,9.265733E-1,2.1467629E-1,-3.6420724E-1,-7.858496E-2,1.7710839E-1,-2.1190155E-1],"categories":[],"categories_nodes":[],"categories_segments":[],"categories_sizes":[],"default_left":[0,0,0,0,0,0,0,0,0,0,0,0,0,0,0,0,0],"id":2,"left_children":[1,3,5,7,9,-1,11,-1,13,15,-1,-1,-1,-1,-1,-1,-1],"loss_changes":[3.6983254E3,2.0323259E3,3.8389233E2,2.5625977E2,4.8238577E2,0E0,5.1034668E1,0E0,8.776138E0,1.584666E2,0E0,0E0,0E0,0E0,0E0,0E0,0E0],"parents":[2147483647,0,0,1,1,2,2,3,3,4,4,6,6,8,8,9,9],"right_children":[2,4,6,8,10,-1,12,-1,14,16,-1,-1,-1,-1,-1,-1,-1],"split_conditions":[3E0,3.1E0,2E0,3E0,4.1E0,6.846161E-2,1.8E1,-9.2293674E-1,4E0,2.1E0,5.5338484E-1,9.265733E-1,2.1467629E-1,-3.6420724E-1,-7.858496E-2,1.7710839E-1,-2.1190155E-1],"split_indices":[1,8,2,2,8,0,6,0,2,5,0,0,0,0,0,0,0],"split_type":[0,0,0,0,0,0,0,0,0,0,0,0,0,0,0,0,0],"sum_hessian":[3.6E1,2.6E1,1E1,1.3E1,1.3E1,2E0,8E0,9E0,4E0,1E1,3E0,7E0,1E0,3E0,1E0,3E0,7E0],"tree_param":{"num_deleted":"0","num_feature":"11","num_nodes":"17","size_leaf_vector":"1"}},{"base_weights":[1.2008517E0,-1.0171197E1,8.258347E0,-1.4378637E1,4.993923E0,1.272729E1,-2.2704525E0,-1.6055521E1,-3.5054943E-1,3.840084E-1,-7.6620296E-2,-2.849269E-1,1.4235064E1,2.2497242E-2,-3.2522423E0,-8.8656515E-1,-3.396764E-1,9.3295044E-1,2.9407814E-1,-1.8282127E-1,-3.0783176E-2],"categories":[],"categories_nodes":[],"categories_segments":[],"categories_sizes":[],"default_left":[0,0,0,0,0,0,0,0,0,0,0,0,0,0,0,0,0,0,0,0,0],"id":3,"left_children":[1,3,5,7,9,11,13,15,-1,-1,-1,-1,17,-1,19,-1,-1,-1,-1,-1,-1],"loss_changes":[3.133808E3,1.028901E3,1.1581593E3,3.5691162E1,8.189442E1,5.534126E2,2.2830196E1,1.9231445E1,0E0,0E0,0E0,0E0,4.8154248E2,0E0,4.1428337E0,0E0,0E0,0E0,0E0,0E0,0E0],"parents":[2147483647,0,0,1,1,2,2,3,3,4,4,5,5,6,6,7,7,12,12,14,14],"right_children":[2,4,6,8,10,12,14,16,-1,-1,-1,-1,18,-1,20,-1,-1,-1,-1,-1,-1],"split_conditions":[3.1E0,4E0,3.8E0,3E0,2.9E-1,1.1E-1,2E0,2.5E0,-3.5054943E-1,3.840084E-1,-7.6620296E-2,-2.849269E-1,2.6E-1,2.2497242E-2,1.5E1,-8.8656515E-1,-3.396764E-1,9.3295044E-1,2.9407814E-1,-1.8282127E-1,-3.0783176E-2],"split_indices":[8,2,5,2,0,0,2,8,0,0,0,0,0,0,3,0,0,0,0,0,0],"split_type":[0,0,0,0,0,0,0,0,0,0,0,0,0,0,0,0,0,0,0,0,0],"sum_hessian":[3.7E1,1.4E1,2.3E1,1.1E1,3E0,1.6E1,7E0,8E0,3E0,2E0,1E0,1E0,1.5E1,2E0,5E0,6E0,2E0,9E0,6E0,4E0,1E0],"tree_param":{"num_deleted":"0","num_feature":"11","num_nodes":"21","size_leaf_vector":"1"}},{"base_weights":[6.28362E-1,-1.1044413E1,8.767886E0,-1.4741188E1,3.7120807E-1,1.7622305E1,3.714399E0,-1.6160015E1,-2.5490198E-1,9.4475156E-1,2.4964876E-1,-7.6928633E-1,5.969445E-1,-8.868682E-1,-3.2835388E-1,-3.178775E-1,7.1123675E-2],"categories":[],"categories_nodes":[],"categories_segments":[],"categories_sizes":[],"default_left":[0,0,0,0,0,0,0,0,0,0,0,0,0,0,0,0,0],"id":4,"left_children":[1,3,5,7,-1,9,11,13,-1,-1,-1,15,-1,-1,-1,-1,-1],"loss_changes":[3.2321936E3,1.0652793E3,8.294575E2,8.179883E1,0E0,1.8173096E1,5.2544885E2,3.4831787E1,0E0,0E0,0E0,1.3152477E2,0E0,0E0,0E0,0E0,0E0],"parents":[2147483647,0,0,1,1,2,2,3,3,5,5,6,6,7,7,11,11],"right_children":[2,4,6,8,-1,10,12,14,-1,-1,-1,16,-1,-1,-1,-1,-1],"split_conditions":[3.1E0,4E0,1.4E0,3E0,3.7120807E-1,3.2E-1,4.1E0,2.5E0,-2.5490198E-1,9.4475156E-1,2.4964876E-1,1E1,5.969445E-1,-8.868682E-1,-3.2835388E-1,-3.178775E-1,7.1123675E-2],"split_indices":[8,2,5,2,0,0,8,8,0,0,0,3,0,0,0,0,0],"split_type":[0,0,0,0,0,0,0,0,0,0,0,0,0,0,0,0,0],"sum_hessian":[3.2E1,1.3E1,1.9E1,1.1E1,2E0,6E0,1.3E1,9E0,2E0,5E0,1E0,9E0,4E0,7E0,2E0,2E0,7E0],"tree_param":{"num_deleted":"0","num_feature":"11","num_nodes":"17","size_leaf_vector":"1"}},{"base_weights":[1.3503935E0,-4.806986E0,1.4661913E1,1.7483749E0,-1.048832E1,9.22512E-1,6.425873E0,7.9656644E0,-3.8304982E0,-1.2309968E1,-3.1283697E-1,4.3367673E-2,3.799332E-1,4.4373104E-1,8.5522175E-2,-2.4087302E-1,-4.5436416E-2,-1.7558824E-1,-6.9374645E-1,-8.398495E-2,6.0522176E-2],"categories":[],"categories_nodes":[],"categories_segments":[],"categories_sizes":[],"default_left":[0,0,0,0,0,0,0,0,0,0,0,0,0,0,0,0,0,0,0,0,0],"id":5,"left_children":[1,3,5,7,9,-1,11,13,15,17,19,-1,-1,-1,-1,-1,-1,-1,-1,-1,-1],"loss_changes":[2.857258E3,9.1217413E2,2.2465015E2,4.467381E2,2.3711902E2,0E0,2.6004211E1,1.8934784E1,1.5807976E1,1.0273157E2,8.279523E0,0E0,0E0,0E0,0E0,0E0,0E0,0E0,0E0,0E0,0E0],"parents":[2147483647,0,0,1,1,2,2,3,3,4,4,6,6,7,7,8,8,9,9,10,10],"right_children":[2,4,6,8,10,-1,12,14,16,18,20,-1,-1,-1,-1,-1,-1,-1,-1,-1,-1],"split_conditions":[3E0,2.2E0,2.5E-1,3.8E-1,4E0,9.22512E-1,2E0,3.3E-1,2E0,1.2E-1,3.4E-1,4.3367673E-2,3.799332E-1,4.4373104E-1,8.5522175E-2,-2.4087302E-1,-4.5436416E-2,-1.7558824E-1,-6.9374645E-1,-8.398495E-2,6.0522176E-2],"split_indices":[1,7,0,0,2,0,2,0,7,0,0,0,0,0,0,0,0,0,0,0,0],"split_type":[0,0,0,0,0,0,0,0,0,0,0,0,0,0,0,0,0,0,0,0,0],"sum_hessian":[3.3E1,2.3E1,1E1,1.1E1,1.2E1,6E0,4E0,5E0,6E0,1E1,2E0,1E0,3E0,4E0,1E0,4E0,2E0,2E0,8E0,1E0,1E0],"tree_param":{"num_deleted":"0","num_feature":"11","num_nodes":"21","size_leaf_vector":"1"}},{"base_weights":[-2.695319E-1,-5.9505343E0,1.266634E1,-1.0352175E1,4.696973E0,4.252631E-2,1.5197574E1,-7.597491E-1,-6.6645217E0,2.467659E-1,4.5427442E-1,4.224526E-1,9.453291E-1,-7.3423706E-2,-3.7784418E-1,-2.6269197E-2,8.3384134E-2],"categories":[],"categories_nodes":[],"categories_segments":[],"categories_sizes":[],"default_left":[0,0,0,0,0,0,0,0,0,0,0,0,0,0,0,0,0],"id":6,"left_children":[1,3,5,7,9,-1,11,-1,13,15,-1,-1,-1,-1,-1,-1,-1],"loss_changes":[2.6474768E3,1.2202864E3,3.1606848E2,2.2018726E2,1.5399643E2,0E0,6.553027E1,0E0,4.4543945E1,6.3619766E0,0E0,0E0,0E0,0E0,0E0,0E0,0E0],"parents":[2147483647,0,0,1,1,2,2,3,3,4,4,6,6,8,8,9,9],"right_children":[2,4,6,8,10,-1,12,-1,14,16,-1,-1,-1,-1,-1,-1,-1],"split_conditions":[3E0,1.5E1,2E0,2.2E0,4.1E0,4.252631E-2,1.2E1,-7.597491E-1,4E0,3E0,4.5427442E-1,4.224526E-1,9.453291E-1,-7.3423706E-2,-3.7784418E-1,-2.6269197E-2,8.3384134E-2],"split_indices":[1,3,2,8,8,0,3,0,3,2,0,0,0,0,0,0,0],"split_type":[0,0,0,0,0,0,0,0,0,0,0,0,0,0,0,0,0],"sum_hessian":[3.4E1,2.4E1,1E1,1.7E1,7E0,2E0,8E0,6E0,1.1E1,4E0,3E0,4E0,4E0,2E0,9E0,3E0,1E0],"tree_param":{"num_deleted":"0","num_feature":"11","num_nodes":"17","size_leaf_vector":"1"}},{"base_weights":[-3.2531267E-1,1.3689082E1,-5.1639376E0,1.7036934E-1,7.2741854E-1,-1.2259208E1,2.8743486E0,-7.5781244E-1,-5.8704453E0,6.4488044E0,-2.3706505E0,-2.6414586E-2,-3.416609E-1,4.722324E-1,1.3811843E-1,-3.113556E-3,-1.7546363E-1],"categories":[],"categories_nodes":[],"categories_segments":[],"categories_sizes":[],"default_left":[0,0,0,0,0,0,0,0,0,0,0,0,0,0,0,0,0],"id":7,"left_children":[1,3,5,-1,-1,7,9,-1,11,13,15,-1,-1,-1,-1,-1,-1],"loss_changes":[2.3762432E3,2.9942505E1,1.5181165E3,0E0,0E0,1.7014502E2,2.590121E2,0E0,2.7249725E1,6.2262268E1,1.5551704E1,0E0,0E0,0E0,0E0,0E0,0E0],"parents":[2147483647,0,0,1,1,2,2,5,5,6,6,8,8,9,9,10,10],"right_children":[2,4,6,-1,-1,8,10,-1,12,14,16,-1,-1,-1,-1,-1,-1],"split_conditions":[9E-1,2.2E0,1E1,1.7036934E-1,7.2741854E-1,2.5E0,3.8E0,-7.5781244E-1,4E0,2.6E-1,1.7E0,-2.6414586E-2,-3.416609E-1,4.722324E-1,1.3811843E-1,-3.113556E-3,-1.7546363E-1],"split_indices":[5,8,3,0,0,8,5,0,3,0,7,0,0,0,0,0,0],"split_type":[0,0,0,0,0,0,0,0,0,0,0,0,0,0,0,0,0],"sum_hessian":[3.3E1,8E0,2.5E1,1E0,7E0,1.3E1,1.2E1,8E0,5E0,7E0,5E0,1E0,4E0,3E0,4E0,2E0,3E0],"tree_param":{"num_deleted":"0","num_feature":"11","num_nodes":"17","size_leaf_vector":"1"}},{"base_weights":[9.891902E-2,-5.717442E0,1.3837688E1,-1.1581264E1,1.0372465E0,3.7767317E-2,1.5070388E1,-1.3778265E1,-4.871009E0,-1.1276532E0,4.3147317E-1,7.9165214E-1,2.0516253E-1,-7.569484E-1,-2.7784833E-1,-2.7388588E-1,-6.1104394E-2,1.4685845E-1,-1.509554E-1],"categories":[],"categories_nodes":[],"categories_segments":[],"categories_sizes":[],"default_left":[0,0,0,0,0,0,0,0,0,0,0,0,0,0,0,0,0,0,0],"id":8,"left_children":[1,3,5,7,9,-1,11,13,15,17,-1,-1,-1,-1,-1,-1,-1,-1,-1],"loss_changes":[2.9558633E3,1.0418281E3,1.6600928E2,1.392799E2,2.234041E2,0E0,1.8674316E1,2.7740967E1,4.3749084E0,9.344032E1,0E0,0E0,0E0,0E0,0E0,0E0,0E0,0E0,0E0],"parents":[2147483647,0,0,1,1,2,2,3,3,4,4,6,6,7,7,8,8,9,9],"right_children":[2,4,6,8,10,-1,12,14,16,18,-1,-1,-1,-1,-1,-1,-1,-1,-1],"split_conditions":[3E0,3.1E0,2E0,3E0,4.1E0,3.7767317E-2,3.2E-1,2.5E0,4E0,2.1E0,4.3147317E-1,7.9165214E-1,2.0516253E-1,-7.569484E-1,-2.7784833E-1,-2.7388588E-1,-6.1104394E-2,1.4685845E-1,-1.509554E-1],"split_indices":[1,8,2,2,8,0,0,8,2,5,0,0,0,0,0,0,0,0,0],"split_type":[0,0,0,0,0,0,0,0,0,0,0,0,0,0,0,0,0,0,0],"sum_hessian":[3.5E1,2.5E1,1E1,1.3E1,1.2E1,1E0,9E0,9E0,4E0,1E1,2E0,8E0,1E0,7E0,2E0,3E0,1E0,3E0,7E0],"tree_param":{"num_deleted":"0","num_feature":"11","num_nodes":"19","size_leaf_vector":"1"}},{"base_weights":[7.647594E-1,-4.684097E0,1.258365E1,-1.030193E1,2.8916998E0,3.7599817E-2,7.564675E-1,-1.2592822E1,-3.6597602E0,6.725655E0,-1.4242058E0,-7.1474856E-1,-3.2329282E-1,-5.4371454E-2,-2.5060856E-1,3.836193E-1,4.9800016E-2,-1.651947E-1,-1.9374466E-2],"categories":[],"categories_nodes":[],"categories_segments":[],"categories_sizes":[],"default_left":[0,0,0,0,0,0,0,0,0,0,0,0,0,0,0,0,0,0,0],"id":9,"left_children":[1,3,5,7,9,-1,-1,11,13,15,17,-1,-1,-1,-1,-1,-1,-1,-1],"loss_changes":[2.2485237E3,1.0512195E3,3.1994116E2,1.6694434E2,1.9159561E2,0E0,0E0,1.1860962E1,1.1943871E1,2.4904938E1,1.0412E1,0E0,0E0,0E0,0E0,0E0,0E0,0E0,0E0],"parents":[2147483647,0,0,1,1,2,2,3,3,4,4,7,7,8,8,9,9,10,10],"right_children":[2,4,6,8,10,-1,-1,12,14,16,18,-1,-1,-1,-1,-1,-1,-1,-1],"split_conditions":[3E0,1E1,2E0,3E0,2.5E0,3.7599817E-2,7.564675E-1,2.5E0,4E0,3.3E-1,8E-2,-7.1474856E-1,-3.2329282E-1,-5.4371454E-2,-2.5060856E-1,3.836193E-1,4.9800016E-2,-1.651947E-1,-1.9374466E-2],"split_indices":[1,3,2,2,5,0,0,8,3,0,0,0,0,0,0,0,0,0,0],"split_type":[0,0,0,0,0,0,0,0,0,0,0,0,0,0,0,0,0,0,0],"sum_hessian":[3.3E1,2.3E1,1E1,1.3E1,1E1,2E0,8E0,9E0,4E0,5E0,5E0,6E0,3E0,2E0,2E0,4E0,1E0,1E0,4E0],"tree_param":{"num_deleted":"0","num_feature":"11","num_nodes":"19","size_leaf_vector":"1"}},{"base_weights":[-4.2442553E-2,-9.956515E0,6.899531E0,-1.1514126E1,2.573103E-1,1.1592525E1,-1.589025E0,-2.742618E-1,-6.387135E-1,7.4508303E-1,3.317575E0,-5.66803E-2,-3.1071997E0,3.588314E-2,1.8940687E-1,2.5868097E-2,-3.0591456E-2,-1.9329523E-1,-2.077713E-2],"categories":[],"categories_nodes":[],"categories_segments":[],"categories_sizes":[],"default_left":[0,0,0,0,0,0,0,0,0,0,0,0,0,0,0,0,0,0,0],"id":10,"left_children":[1,3,5,7,-1,9,11,-1,-1,-1,13,15,17,-1,-1,-1,-1,-1,-1],"loss_changes":[2.339862E3,3.8859216E2,8.1515546E2,2.8694702E1,0E0,3.0654065E2,1.8434818E1,0E0,0E0,0E0,3.3984947E0,1.9099314E0,6.5622444E0,0E0,0E0,0E0,0E0,0E0,0E0],"parents":[2147483647,0,0,1,1,2,2,3,3,5,5,6,6,10,10,11,11,12,12],"right_children":[2,4,6,8,-1,10,12,-1,-1,-1,14,16,18,-1,-1,-1,-1,-1,-1],"split_conditions":[9E0,4E0,3.8E0,2.3E0,2.573103E-1,2.6E-1,9.4E0,-2.742618E-1,-6.387135E-1,7.4508303E-1,3.1E-1,2E0,1.5E1,3.588314E-2,1.8940687E-1,2.5868097E-2,-3.0591456E-2,-1.9329523E-1,-2.077713E-2],"split_indices":[3,2,5,7,0,0,5,0,0,0,0,2,3,0,0,0,0,0,0],"split_type":[0,0,0,0,0,0,0,0,0,0,0,0,0,0,0,0,0,0,0],"sum_hessian":[3.2E1,1.3E1,1.9E1,1.2E1,1E0,1.2E1,7E0,3E0,9E0,8E0,4E0,4E0,3E0,1E0,3E0,2E0,2E0,2E0,1E0],"tree_param":{"num_deleted":"0","num_feature":"11","num_nodes":"19","size_leaf_vector":"1"}},{"base_weights":[2.1357593E-1,-4.00152E0,1.07299595E1,-6.8189955E0,4.2175574E0,1.3383677E1,7.6725006E-2,-1.0180561E1,-9.2427254E-1,3.035612E-1,-2.777392E-1,7.143854E-1,1.7638664E-1,1.9518947E-2,-1.3764572E-2,-5.693653E-1,-2.4601217E-1,4.036522E-2,-1.4288378E-1,-6.465025E-2,4.381981E-2],"categories":[],"categories_nodes":[],"categories_segments":[],"categories_sizes":[],"default_left":[0,0,0,0,0,0,0,0,0,0,0,0,0,0,0,0,0,0,0,0,0],"id":11,"left_children":[1,3,5,7,9,11,13,15,17,-1,19,-1,-1,-1,-1,-1,-1,-1,-1,-1,-1],"loss_changes":[1.5500734E3,6.076856E2,2.8167993E2,3.6708496E2,6.0015686E1,2.087732E1,4.3870202E-1,2.0145996E1,2.90897E1,0E0,4.648447E0,0E0,0E0,0E0,0E0,0E0,0E0,0E0,0E0,0E0,0E0],"parents":[2147483647,0,0,1,1,2,2,3,3,4,4,5,5,6,6,7,7,8,8,10,10],"right_children":[2,4,6,8,10,12,14,16,18,-1,20,-1,-1,-1,-1,-1,-1,-1,-1,-1,-1],"split_conditions":[3.8E0,4E0,3.8E0,3.1E0,3.3E-1,2.6E-1,1.2E-1,3E0,1.7E0,3.035612E-1,3.4E-1,7.143854E-1,1.7638664E-1,1.9518947E-2,-1.3764572E-2,-5.693653E-1,-2.4601217E-1,4.036522E-2,-1.4288378E-1,-6.465025E-2,4.381981E-2],"split_indices":[8,2,5,8,0,0,0,2,7,0,0,0,0,0,0,0,0,0,0,0,0],"split_type":[0,0,0,0,0,0,0,0,0,0,0,0,0,0,0,0,0,0,0,0,0],"sum_hessian":[3.3E1,2.4E1,9E0,1.8E1,6E0,7E0,2E0,1.1E1,7E0,4E0,2E0,6E0,1E0,1E0,1E0,8E0,3E0,4E0,3E0,1E0,1E0],"tree_param":{"num_deleted":"0","num_feature":"11","num_nodes":"21","size_leaf_vector":"1"}},{"base_weights":[-2.4671088E-1,-7.183029E0,6.3375225E0,-8.972592E0,2.377826E-1,9.151665E0,-1.2850628E0,-3.101594E0,-1.0088854E1,1.2224027E1,3.0178444E0,-1.5008211E-1,-3.4141845E-1,-1.3420487E-2,-1.9782595E-1,-5.707337E-1,-2.1260452E-1,6.554496E-1,1.2860747E-1,3.397694E-2,1.674799E-1,1.9030953E-2,-3.085413E-2],"categories":[],"categories_nodes":[],"categories_segments":[],"categories_sizes":[],"default_left":[0,0,0,0,0,0,0,0,0,0,0,0,0,0,0,0,0,0,0,0,0,0,0],"id":12,"left_children":[1,3,5,7,-1,9,11,13,15,17,19,-1,21,-1,-1,-1,-1,-1,-1,-1,-1,-1,-1],"loss_changes":[1.6896548E3,4.2724097E2,4.1933032E2,7.356543E1,0E0,2.2694409E2,8.694226E0,8.626671E0,5.206433E1,4.3156006E1,2.3782616E0,0E0,1.2300726E0,0E0,0E0,0E0,0E0,0E0,0E0,0E0,0E0,0E0,0E0],"parents":[2147483647,0,0,1,1,2,2,3,3,5,5,6,6,7,7,8,8,9,9,10,10,12,12],"right_children":[2,4,6,8,-1,10,12,14,16,18,20,-1,22,-1,-1,-1,-1,-1,-1,-1,-1,-1,-1],"split_conditions":[1E1,3E0,3.8E0,2.2E0,2.377826E-1,2.6E-1,8E-2,2E0,2E0,4.02E1,3.1E-1,-1.5008211E-1,1.2E-1,-1.3420487E-2,-1.9782595E-1,-5.707337E-1,-2.1260452E-1,6.554496E-1,1.2860747E-1,3.397694E-2,1.674799E-1,1.9030953E-2,-3.085413E-2],"split_indices":[3,1,5,7,0,0,0,1,1,6,0,0,0,0,0,0,0,0,0,0,0,0,0],"split_type":[0,0,0,0,0,0,0,0,0,0,0,0,0,0,0,0,0,0,0,0,0,0,0],"sum_hessian":[3.5E1,1.7E1,1.8E1,1.5E1,2E0,1.3E1,5E0,3E0,1.2E1,8E0,5E0,1E0,4E0,1E0,2E0,9E0,3E0,7E0,1E0,1E0,4E0,1E0,3E0],"tree_param":{"num_deleted":"0","num_feature":"11","num_nodes":"23","size_leaf_vector":"1"}},{"base_weights":[9.384431E-1,-8.864195E0,5.214066E0,-6.2118435E-1,-2.1080673E0,1.0153046E0,1.0465644E1,-1.8547463E-1,1.0744085E-1,-8.1787395E-1,3.1305072E-1,3.3919718E-2,6.2826055E-1,4.9751583E-2,-1.3983092E-1],"categories":[],"categories_nodes":[],"categories_segments":[],"categories_sizes":[],"default_left":[0,0,0,0,0,0,0,0,0,0,0,0,0,0,0],"id":13,"left_children":[1,3,5,-1,7,9,11,-1,-1,13,-1,-1,-1,-1,-1],"loss_changes":[1.513152E3,2.3834216E2,5.4062726E2,0E0,4.205644E1,1.4936554E2,2.1751465E2,0E0,0E0,4.583004E1,0E0,0E0,0E0,0E0,0E0],"parents":[2147483647,0,0,1,1,2,2,4,4,5,5,6,6,9,9],"right_children":[2,4,6,-1,8,10,12,-1,-1,14,-1,-1,-1,-1,-1],"split_conditions":[2.5E0,3E0,3E0,-6.2118435E-1,3E0,4.1E0,2E0,-1.8547463E-1,1.0744085E-1,2.5E0,3.1305072E-1,3.3919718E-2,6.2826055E-1,4.9751583E-2,-1.3983092E-1],"split_indices":[8,2,1,0,1,8,2,0,0,7,0,0,0,0,0],"split_type":[0,0,0,0,0,0,0,0,0,0,0,0,0,0,0],"sum_hessian":[3.4E1,1E1,2.4E1,6E0,4E0,1.4E1,1E1,3E0,1E0,1.1E1,3E0,2E0,8E0,6E0,5E0],"tree_param":{"num_deleted":"0","num_feature":"11","num_nodes":"15","size_leaf_vector":"1"}},{"base_weights":[1.1223804E0,7.4961977E0,-6.118313E0,8.403784E0,-1.9831924E-1,-8.571905E0,3.3854418E0,1.0139617E1,4.4755054E0,-9.109291E0,-5.308199E-2,3.30822E-1,1.02962494E-1,3.227949E-2,5.5122304E-1,2.4863997E-1,3.729353E-2,-1.5344964E-1,-5.0052255E-1,2.2050953E-2,-1.4328766E-2],"categories":[],"categories_nodes":[],"categories_segments":[],"categories_sizes":[],"default_left":[0,0,0,0,0,0,0,0,0,0,0,0,0,0,0,0,0,0,0,0,0],"id":14,"left_children":[1,3,5,7,-1,9,11,13,15,17,-1,-1,19,-1,-1,-1,-1,-1,-1,-1,-1],"loss_changes":[1.5688423E3,2.2059167E2,4.0211322E2,7.0540405E1,0E0,4.279602E1,4.1741493E1,8.529089E1,9.274002E0,3.459729E1,0E0,0E0,5.214426E-1,0E0,0E0,0E0,0E0,0E0,0E0,0E0,0E0],"parents":[2147483647,0,0,1,1,2,2,3,3,5,5,6,6,7,7,8,8,9,9,12,12],"right_children":[2,4,6,8,-1,10,12,14,16,18,-1,-1,20,-1,-1,-1,-1,-1,-1,-1,-1],"split_conditions":[3.1E0,4.8E0,3.3E0,1.4E0,-1.9831924E-1,4E0,3.8E0,2E0,5E0,2E0,-5.308199E-2,3.30822E-1,2E0,3.227949E-2,5.5122304E-1,2.4863997E-1,3.729353E-2,-1.5344964E-1,-5.0052255E-1,2.2050953E-2,-1.4328766E-2],"split_indices":[5,7,8,5,0,2,5,2,2,7,0,0,2,0,0,0,0,0,0,0,0],"split_type":[0,0,0,0,0,0,0,0,0,0,0,0,0,0,0,0,0,0,0,0,0],"sum_hessian":[3.2E1,1.7E1,1.5E1,1.6E1,1E0,1.2E1,3E0,1E1,6E0,1.1E1,1E0,1E0,2E0,1E0,9E0,5E0,1E0,2E0,9E0,1E0,1E0],"tree_param":{"num_deleted":"0","num_feature":"11","num_nodes":"21","size_leaf_vector":"1"}},{"base_weights":[-1.0462661E0,-6.730334E0,6.1242104E0,-5.2985E-1,-3.2694733E0,1.1226285E1,2.784514E0,-4.322541E0,2.0785685E-1,6.1825603E-1,1.383028E-1,-5.1968604E-1,3.4267458E-1,-2.9393956E-1,-1.02293395E-1,-1.9336128E-1,3.4138743E-2],"categories":[],"categories_nodes":[],"categories_segments":[],"categories_sizes":[],"default_left":[0,0,0,0,0,0,0,0,0,0,0,0,0,0,0,0,0],"id":15,"left_children":[1,3,5,-1,7,9,11,13,-1,-1,-1,15,-1,-1,-1,-1,-1],"loss_changes":[1.4677295E3,2.3299329E2,2.4137042E2,0E0,1.1181807E2,2.360614E1,1.5145352E2,2.6946564E1,0E0,0E0,0E0,3.0817444E1,0E0,0E0,0E0,0E0,0E0],"parents":[2147483647,0,0,1,1,2,2,4,4,5,5,6,6,7,7,11,11],"right_children":[2,4,6,-1,8,10,12,14,-1,-1,-1,16,-1,-1,-1,-1,-1],"split_conditions":[3.5E0,2.2E0,9E-1,-5.2985E-1,3E0,2.6E-1,4.1E0,1.54E1,2.0785685E-1,6.1825603E-1,1.383028E-1,1.1E-1,3.4267458E-1,-2.9393956E-1,-1.02293395E-1,-1.9336128E-1,3.4138743E-2],"split_indices":[8,8,5,0,1,0,8,6,0,0,0,0,0,0,0,0,0],"split_type":[0,0,0,0,0,0,0,0,0,0,0,0,0,0,0,0,0],"sum_hessian":[3.4E1,1.9E1,1.5E1,8E0,1.1E1,5E0,1E1,1E1,1E0,4E0,1E0,6E0,4E0,5E0,5E0,1E0,5E0],"tree_param":{"num_deleted":"0","num_feature":"11","num_nodes":"17","size_leaf_vector":"1"}},{"base_weights":[3.1688577E-1,-3.7931683E0,9.195596E0,-8.20106E0,2.032794E0,3.649543E0,6.317849E-1,-5.3768915E-1,-5.3043804E0,4.3527822E0,-1.0126578E0,2.5065657E-1,3.074557E-2,-4.268106E-2,-3.22704E-1,3.5507776E-2,2.4207638E-1,-1.1570359E-2,-1.2297278E-1],"categories":[],"categories_nodes":[],"categories_segments":[],"categories_sizes":[],"default_left":[0,0,0,0,0,0,0,0,0,0,0,0,0,0,0,0,0,0,0],"id":16,"left_children":[1,3,5,7,9,11,-1,-1,13,15,17,-1,-1,-1,-1,-1,-1,-1,-1],"loss_changes":[1.3850836E3,6.8435645E2,1.828335E2,5.3874207E1,8.9192825E1,2.1745293E1,0E0,0E0,4.0543976E1,9.023972E0,6.2127333E0,0E0,0E0,0E0,0E0,0E0,0E0,0E0,0E0],"parents":[2147483647,0,0,1,1,2,2,3,3,4,4,5,5,8,8,9,9,10,10],"right_children":[2,4,6,8,10,12,-1,-1,14,16,18,-1,-1,-1,-1,-1,-1,-1,-1],"split_conditions":[3E0,1E1,1.2E1,3E0,2.5E0,8E0,6.317849E-1,-5.3768915E-1,4E0,2E0,3.5E0,2.5065657E-1,3.074557E-2,-4.268106E-2,-3.22704E-1,3.5507776E-2,2.4207638E-1,-1.1570359E-2,-1.2297278E-1],"split_indices":[1,3,3,3,5,3,0,0,3,1,7,0,0,0,0,0,0,0,0],"split_type":[0,0,0,0,0,0,0,0,0,0,0,0,0,0,0,0,0,0,0],"sum_hessian":[3.6E1,2.5E1,1.1E1,1.4E1,1.1E1,5E0,6E0,6E0,8E0,6E0,5E0,3E0,2E0,2E0,6E0,1E0,5E0,4E0,1E0],"tree_param":{"num_deleted":"0","num_feature":"11","num_nodes":"19","size_leaf_vector":"1"}},{"base_weights":[2.5155106E-1,-4.2380223E0,9.209736E0,-6.941847E0,3.320101E0,5.7821846E-1,3.6003747E0,-4.9054003E-1,-4.224259E0,2.6283225E-1,5.5353165E-1,2.9850388E-2,2.1009822E-1,-2.851342E-1,-6.548058E-2,5.550251E-2,-2.79006E-2],"categories":[],"categories_nodes":[],"categories_segments":[],"categories_sizes":[],"default_left":[0,0,0,0,0,0,0,0,0,0,0,0,0,0,0,0,0],"id":17,"left_children":[1,3,5,7,9,-1,11,-1,13,-1,15,-1,-1,-1,-1,-1,-1],"loss_changes":[1.446676E3,5.135078E2,1.168598E2,9.889606E1,3.459336E1,0E0,6.5253677E0,0E0,3.9931686E1,0E0,3.0938E0,0E0,0E0,0E0,0E0,0E0,0E0],"parents":[2147483647,0,0,1,1,2,2,3,3,4,4,6,6,8,8,10,10],"right_children":[2,4,6,8,10,-1,12,-1,14,-1,16,-1,-1,-1,-1,-1,-1],"split_conditions":[3E0,3.6E0,2.6E-1,2.1E0,2.6E-1,5.7821846E-1,2E0,-4.9054003E-1,1.54E1,2.6283225E-1,3.8E-1,2.9850388E-2,2.1009822E-1,-2.851342E-1,-6.548058E-2,5.550251E-2,-2.79006E-2],"split_indices":[1,8,0,8,0,0,2,0,6,0,0,0,0,0,0,0,0],"split_type":[0,0,0,0,0,0,0,0,0,0,0,0,0,0,0,0,0],"sum_hessian":[3.4E1,2.3E1,1.1E1,1.7E1,6E0,7E0,4E0,7E0,1E1,3E0,3E0,1E0,3E0,6E0,4E0,2E0,1E0],"tree_param":{"num_deleted":"0","num_feature":"11","num_nodes":"17","size_leaf_vector":"1"}},{"base_weights":[4.7056353E-1,-6.9264255E0,5.2550783E0,-7.812633E0,9.270163E-2,5.7816684E-1,1.7255865E0,-4.4205594E-1,-1.7726909E-1,1.0779075E-1,4.6160607E0,9.891823E-2,-7.34493E-2,2.9104138E-2,2.7395174E-1],"categories":[],"categories_nodes":[],"categories_segments":[],"categories_sizes":[],"default_left":[0,0,0,0,0,0,0,0,0,0,0,0,0,0,0],"id":18,"left_children":[1,3,5,7,-1,-1,9,-1,-1,11,13,-1,-1,-1,-1],"loss_changes":[1.168911E3,1.1564191E2,4.2534534E2,2.1320618E1,0E0,0E0,6.4969185E1,0E0,0E0,3.2400963E1,1.4216835E1,0E0,0E0,0E0,0E0],"parents":[2147483647,0,0,1,1,2,2,3,3,6,6,9,9,10,10],"right_children":[2,4,6,8,-1,-1,10,-1,-1,12,14,-1,-1,-1,-1],"split_conditions":[3.1E0,3E0,2E-1,3E0,9.270163E-2,5.7816684E-1,3E0,-4.4205594E-1,-1.7726909E-1,1.9E0,2E0,9.891823E-2,-7.34493E-2,2.9104138E-2,2.7395174E-1],"split_indices":[8,1,0,2,0,0,1,0,0,7,2,0,0,0,0],"split_type":[0,0,0,0,0,0,0,0,0,0,0,0,0,0,0],"sum_hessian":[3.1E1,1.2E1,1.9E1,1.1E1,1E0,6E0,1.3E1,8E0,3E0,9E0,4E0,4E0,5E0,1E0,3E0],"tree_param":{"num_deleted":"0","num_feature":"11","num_nodes":"15","size_leaf_vector":"1"}},{"base_weights":[1.7783682E-1,-3.8698676E0,8.258426E0,-7.159857E0,1.4521027E0,5.3446364E-1,2.7173858E0,-7.639209E0,-1.1223221E-2,3.418085E0,-1.1974968E0,1.9869322E-1,2.7755609E-2,-4.7176477E-1,-2.2476117E-1,2.1643548E-1,5.322787E-2,-1.08338356E-1,-2.0674372E-2],"categories":[],"categories_nodes":[],"categories_segments":[],"categories_sizes":[],"default_left":[0,0,0,0,0,0,0,0,0,0,0,0,0,0,0,0,0,0,0],"id":19,"left_children":[1,3,5,7,9,-1,11,13,-1,15,17,-1,-1,-1,-1,-1,-1,-1,-1],"loss_changes":[1.1767333E3,4.3061816E2,1.3258618E2,4.815265E1,5.61838E1,0E0,1.1378311E1,3.6642456E1,0E0,8.250923E0,2.9036536E0,0E0,0E0,0E0,0E0,0E0,0E0,0E0,0E0],"parents":[2147483647,0,0,1,1,2,2,3,3,4,4,6,6,7,7,9,9,10,10],"right_children":[2,4,6,8,10,-1,12,14,-1,16,18,-1,-1,-1,-1,-1,-1,-1,-1],"split_conditions":[3E0,9E0,2.6E-1,3.6E0,2.1E0,5.3446364E-1,3E0,2E0,-1.1223221E-2,3.3E-1,8E-2,1.9869322E-1,2.7755609E-2,-4.7176477E-1,-2.2476117E-1,2.1643548E-1,5.322787E-2,-1.08338356E-1,-2.0674372E-2],"split_indices":[1,3,0,8,5,0,4,1,0,0,0,0,0,0,0,0,0,0,0],"split_type":[0,0,0,0,0,0,0,0,0,0,0,0,0,0,0,0,0,0,0],"sum_hessian":[3.4E1,2.3E1,1.1E1,1.4E1,9E0,7E0,4E0,1.3E1,1E0,5E0,4E0,2E0,2E0,7E0,6E0,3E0,2E0,1E0,3E0],"tree_param":{"num_deleted":"0","num_feature":"11","num_nodes":"19","size_leaf_vector":"1"}},{"base_weights":[-2.741258E-1,-5.0376244E0,5.399661E0,-6.5202622E0,2.1523342E0,2.4239218E0,9.95524E0,-8.588673E0,-2.6339238E0,-3.6442757E-2,1.6778412E-1,3.9393191E0,-1.8241882E-1,3.3738043E-2,5.838192E-1,-4.586864E-1,-8.3079435E-2,-1.7752156E-1,-1.142184E-2,4.741675E-2,2.473023E-1,8.660189E-3,-2.3861758E-2],"categories":[],"categories_nodes":[],"categories_segments":[],"categories_sizes":[],"default_left":[0,0,0,0,0,0,0,0,0,0,0,0,0,0,0,0,0,0,0,0,0,0,0],"id":20,"left_children":[1,3,5,7,9,11,13,15,17,-1,-1,19,21,-1,-1,-1,-1,-1,-1,-1,-1,-1,-1],"loss_changes":[9.46122E2,2.165758E2,1.927688E2,1.0599475E2,1.6314098E1,4.4164658E1,8.795941E1,2.5284302E1,1.4621475E1,0E0,0E0,1.6387215E1,6.068757E-1,0E0,0E0,0E0,0E0,0E0,0E0,0E0,0E0,0E0,0E0],"parents":[2147483647,0,0,1,1,2,2,3,3,4,4,5,5,6,6,7,7,8,8,11,11,12,12],"right_children":[2,4,6,8,10,12,14,16,18,-1,-1,20,22,-1,-1,-1,-1,-1,-1,-1,-1,-1,-1],"split_conditions":[3.4E0,4E0,4E0,2.5E0,3E0,3.8E0,2E0,3E0,1.54E1,-3.6442757E-2,1.6778412E-1,3.7E0,2E0,3.3738043E-2,5.838192E-1,-4.586864E-1,-8.3079435E-2,-1.7752156E-1,-1.142184E-2,4.741675E-2,2.473023E-1,8.660189E-3,-2.3861758E-2],"split_indices":[8,2,2,8,1,5,1,2,6,0,0,8,2,0,0,0,0,0,0,0,0,0,0],"split_type":[0,0,0,0,0,0,0,0,0,0,0,0,0,0,0,0,0,0,0,0,0,0,0],"sum_hessian":[3.3E1,1.8E1,1.5E1,1.5E1,3E0,1E1,5E0,9E0,6E0,1E0,2E0,6E0,4E0,1E0,4E0,8E0,1E0,4E0,2E0,2E0,4E0,2E0,2E0],"tree_param":{"num_deleted":"0","num_feature":"11","num_nodes":"23","size_leaf_vector":"1"}},{"base_weights":[-5.0785655E-1,-7.3016005E0,2.763406E0,-4.313445E-1,-3.9858742E0,-1.413386E-1,7.2976017E0,-3.553171E-2,-2.3135129E-1,-2.7529001E0,2.4878902E0,3.6171136E0,4.7592852E-1,-1.749516E-1,-1.715018E-2,2.410904E-2,2.1865273E-1,2.1989636E-1,1.2346459E-2],"categories":[],"categories_nodes":[],"categories_segments":[],"categories_sizes":[],"default_left":[0,0,0,0,0,0,0,0,0,0,0,0,0,0,0,0,0,0,0],"id":21,"left_children":[1,3,5,-1,7,9,11,-1,-1,13,15,17,-1,-1,-1,-1,-1,-1,-1],"loss_changes":[7.5357324E2,1.395166E1,3.039571E2,0E0,7.2115097E0,1.098448E2,3.913849E1,0E0,0E0,1.3184612E1,2.814013E1,1.2071457E1,0E0,0E0,0E0,0E0,0E0,0E0,0E0],"parents":[2147483647,0,0,1,1,2,2,4,4,5,5,6,6,9,9,10,10,11,11],"right_children":[2,4,6,-1,8,10,12,-1,-1,14,16,18,-1,-1,-1,-1,-1,-1,-1],"split_conditions":[2.5E0,2E0,3E0,-4.313445E-1,2E0,1.6E1,1.2E1,-3.553171E-2,-2.3135129E-1,1E1,4.1E0,3E0,4.7592852E-1,-1.749516E-1,-1.715018E-2,2.410904E-2,2.1865273E-1,2.1989636E-1,1.2346459E-2],"split_indices":[8,1,1,0,4,3,3,0,0,3,8,4,0,0,0,0,0,0,0],"split_type":[0,0,0,0,0,0,0,0,0,0,0,0,0,0,0,0,0,0,0],"sum_hessian":[3.2E1,1E1,2.2E1,6E0,4E0,1.4E1,8E0,1E0,3E0,7E0,7E0,4E0,4E0,5E0,2E0,4E0,3E0,3E0,1E0],"tree_param":{"num_deleted":"0","num_feature":"11","num_nodes":"19","size_leaf_vector":"1"}},{"base_weights":[2.7824998E-1,-2.7381403E0,6.8341694E0,-5.7154055E0,2.0015717E0,5.440022E-1,2.96795E0,-3.8306713E-1,-3.0550427E0,3.45696E0,-1.4520875E-1,2.0869713E-1,-3.1354267E-2,-1.7009027E-1,-1.5692616E-2,4.522858E-2,2.2535057E-1,7.763926E-3,-1.9864654E-2,-3.464346E-2,3.229189E-2],"categories":[],"categories_nodes":[],"categories_segments":[],"categories_sizes":[],"default_left":[0,0,0,0,0,0,0,0,0,0,0,0,0,0,0,0,0,0,0,0,0],"id":22,"left_children":[1,3,5,7,9,-1,11,-1,13,15,17,-1,19,-1,-1,-1,-1,-1,-1,-1,-1],"loss_changes":[6.9107007E2,3.501129E2,1.3977313E2,5.4247772E1,3.174598E1,0E0,2.5450848E1,0E0,6.5366745E0,1.20039215E1,4.404318E-1,0E0,1.791399E0,0E0,0E0,0E0,0E0,0E0,0E0,0E0,0E0],"parents":[2147483647,0,0,1,1,2,2,3,3,4,4,6,6,8,8,9,9,10,10,12,12],"right_children":[2,4,6,8,10,-1,12,-1,14,16,18,-1,20,-1,-1,-1,-1,-1,-1,-1,-1],"split_conditions":[4E0,3.5E0,2E-1,2.2E0,3.1E0,5.440022E-1,3.3E-1,-3.8306713E-1,1.5E1,3.7E0,2E0,2.0869713E-1,3.4E-1,-1.7009027E-1,-1.5692616E-2,4.522858E-2,2.2535057E-1,7.763926E-3,-1.9864654E-2,-3.464346E-2,3.229189E-2],"split_indices":[2,8,0,8,5,0,0,0,3,8,2,0,0,0,0,0,0,0,0,0,0],"split_type":[0,0,0,0,0,0,0,0,0,0,0,0,0,0,0,0,0,0,0,0,0],"sum_hessian":[3.3E1,2.3E1,1E1,1.4E1,9E0,4E0,6E0,7E0,7E0,5E0,4E0,4E0,2E0,6E0,1E0,2E0,3E0,2E0,2E0,1E0,1E0],"tree_param":{"num_deleted":"0","num_feature":"11","num_nodes":"21","size_leaf_vector":"1"}},{"base_weights":[3.6478573E-1,-3.2116263E0,6.8911424E0,-5.435384E0,2.3300514E0,4.8364875E-1,2.4971473E0,-3.663079E-1,-3.1507635E0,1.9801961E-1,1.1719799E-1,1.6883527E-1,2.4601048E-2,-1.734054E-1,-1.5300274E-2,4.0523626E-2,-1.920255E-2],"categories":[],"categories_nodes":[],"categories_segments":[],"categories_sizes":[],"default_left":[0,0,0,0,0,0,0,0,0,0,0,0,0,0,0,0,0],"id":23,"left_children":[1,3,5,7,9,-1,11,-1,13,-1,15,-1,-1,-1,-1,-1,-1],"loss_changes":[7.9238275E2,2.8377832E2,1.2252545E2,4.6032257E1,2.4789787E1,0E0,8.920338E0,0E0,7.0636444E0,0E0,1.7012753E0,0E0,0E0,0E0,0E0,0E0,0E0],"parents":[2147483647,0,0,1,1,2,2,3,3,4,4,6,6,8,8,10,10],"right_children":[2,4,6,8,10,-1,12,-1,14,-1,16,-1,-1,-1,-1,-1,-1],"split_conditions":[3E0,3.6E0,2.6E-1,2.2E0,2.6E-1,4.8364875E-1,3E0,-3.663079E-1,1.5E1,1.9801961E-1,3.8E-1,1.6883527E-1,2.4601048E-2,-1.734054E-1,-1.5300274E-2,4.0523626E-2,-1.920255E-2],"split_indices":[1,8,0,8,0,0,4,0,3,0,0,0,0,0,0,0,0],"split_type":[0,0,0,0,0,0,0,0,0,0,0,0,0,0,0,0,0],"sum_hessian":[3.2E1,2.1E1,1.1E1,1.5E1,6E0,6E0,5E0,7E0,8E0,3E0,3E0,3E0,2E0,7E0,1E0,1E0,2E0],"tree_param":{"num_deleted":"0","num_feature":"11","num_nodes":"17","size_leaf_vector":"1"}},{"base_weights":[-7.354649E-1,-3.112211E0,7.080893E0,6.471001E-1,-5.140499E0,5.162141E-1,3.0700035E0,3.8122933E0,-2.0984108E0,-5.828644E0,1.37240095E-2,2.4442865E-2,1.796538E-1,2.1851306E-1,3.9510537E-2,-1.19937554E-1,-1.49177555E-2,-2.2829309E-1,-4.0799147E-1,-2.9442215E-2,3.0471517E-2],"categories":[],"categories_nodes":[],"categories_segments":[],"categories_sizes":[],"default_left":[0,0,0,0,0,0,0,0,0,0,0,0,0,0,0,0,0,0,0,0,0],"id":24,"left_children":[1,3,5,7,9,-1,11,13,15,17,19,-1,-1,-1,-1,-1,-1,-1,-1,-1,-1],"loss_changes":[6.3509467E2,2.0157553E2,7.23754E1,9.490048E1,6.0376465E1,0E0,4.994129E0,4.9776917E0,2.5280972E0,6.9000244E0,1.4357208E0,0E0,0E0,0E0,0E0,0E0,0E0,0E0,0E0,0E0,0E0],"parents":[2147483647,0,0,1,1,2,2,3,3,4,4,6,6,7,7,8,8,9,9,10,10],"right_children":[2,4,6,8,10,-1,12,14,16,18,20,-1,-1,-1,-1,-1,-1,-1,-1,-1,-1],"split_conditions":[3E0,2.2E0,1.9E-1,3.8E-1,4E0,5.162141E-1,2E0,3.3E-1,1.65E1,4.7E0,3.4E-1,2.4442865E-2,1.796538E-1,2.1851306E-1,3.9510537E-2,-1.19937554E-1,-1.49177555E-2,-2.2829309E-1,-4.0799147E-1,-2.9442215E-2,3.0471517E-2],"split_indices":[1,7,0,0,2,0,2,0,5,7,0,0,0,0,0,0,0,0,0,0,0],"split_type":[0,0,0,0,0,0,0,0,0,0,0,0,0,0,0,0,0,0,0,0,0],"sum_hessian":[3.2E1,2.5E1,7E0,9E0,1.6E1,3E0,4E0,4E0,5E0,1.4E1,2E0,1E0,3E0,3E0,1E0,4E0,1E0,1.1E1,3E0,1E0,1E0],"tree_param":{"num_deleted":"0","num_feature":"11","num_nodes":"21","size_leaf_vector":"1"}},{"base_weights":[-1.4113483E-1,6.7773232E0,-2.5305574E0,1.7852043E-1,4.3143868E-1,-5.817435E0,1.7889191E0,-6.8856673E0,-2.3038368E0,3.6957147E0,-7.3382884E-1,-3.8487017E-1,-1.7703891E-1,-1.2963672E-1,-2.8706169E-2,2.383175E-2,2.0763944E-1,-8.646841E-2,-9.442368E-3],"categories":[],"categories_nodes":[],"categories_segments":[],"categories_sizes":[],"default_left":[0,0,0,0,0,0,0,0,0,0,0,0,0,0,0,0,0,0,0],"id":25,"left_children":[1,3,5,-1,-1,7,9,11,13,15,17,-1,-1,-1,-1,-1,-1,-1,-1],"loss_changes":[5.7920856E2,2.2628693E1,3.7954425E2,0E0,0E0,4.0436646E1,6.0436394E1,2.6120605E0,1.0100002E0,8.320145E0,2.9287164E0,0E0,0E0,0E0,0E0,0E0,0E0,0E0,0E0],"parents":[2147483647,0,0,1,1,2,2,5,5,6,6,7,7,8,8,9,9,10,10],"right_children":[2,4,6,-1,-1,8,10,12,14,16,18,-1,-1,-1,-1,-1,-1,-1,-1],"split_conditions":[9E-1,1.2E1,1E1,1.7852043E-1,4.3143868E-1,3E0,3.8E0,2.5E0,4E0,2E0,8E-2,-3.8487017E-1,-1.7703891E-1,-1.2963672E-1,-2.8706169E-2,2.383175E-2,2.0763944E-1,-8.646841E-2,-9.442368E-3],"split_indices":[5,3,3,0,0,2,5,8,2,2,0,0,0,0,0,0,0,0,0],"split_type":[0,0,0,0,0,0,0,0,0,0,0,0,0,0,0,0,0,0,0],"sum_hessian":[3.3E1,8E0,2.5E1,4E0,4E0,1.4E1,1.1E1,1E1,4E0,6E0,5E0,7E0,3E0,3E0,1E0,1E0,5E0,1E0,4E0],"tree_param":{"num_deleted":"0","num_feature":"11","num_nodes":"19","size_leaf_vector":"1"}},{"base_weights":[2.2982231E-1,-2.2763982E0,6.3605614E0,-5.3002214E0,9.100252E-1,2.2726377E-2,3.8112554E-1,-3.325696E-1,-2.3900955E0,2.895485E0,-9.4100523E-1,-1.3221031E-1,-2.7988529E-2,2.4518777E-2,1.6073036E-1,-6.736524E-2,9.263102E-3],"categories":[],"categories_nodes":[],"categories_segments":[],"categories_sizes":[],"default_left":[0,0,0,0,0,0,0,0,0,0,0,0,0,0,0,0,0],"id":26,"left_children":[1,3,5,7,9,-1,-1,-1,11,13,15,-1,-1,-1,-1,-1,-1],"loss_changes":[5.829836E2,2.6497327E2,7.8519684E1,3.915158E1,5.4176712E1,0E0,0E0,0E0,1.3104858E0,3.7963066E0,3.910419E0,0E0,0E0,0E0,0E0,0E0,0E0],"parents":[2147483647,0,0,1,1,2,2,3,3,4,4,8,8,9,9,10,10],"right_children":[2,4,6,8,10,-1,-1,-1,12,14,16,-1,-1,-1,-1,-1,-1],"split_conditions":[3E0,3.1E0,2E0,2.2E0,2.5E0,2.2726377E-2,3.8112554E-1,-3.325696E-1,4E0,2E0,2.7E0,-1.3221031E-1,-2.7988529E-2,2.4518777E-2,1.6073036E-1,-6.736524E-2,9.263102E-3],"split_indices":[1,8,2,8,5,0,0,0,2,1,7,0,0,0,0,0,0],"split_type":[0,0,0,0,0,0,0,0,0,0,0,0,0,0,0,0,0],"sum_hessian":[3.6E1,2.6E1,1E1,1.3E1,1.3E1,2E0,8E0,8E0,5E0,6E0,7E0,4E0,1E0,1E0,5E0,5E0,2E0],"tree_param":{"num_deleted":"0","num_feature":"11","num_nodes":"17","size_leaf_vector":"1"}},{"base_weights":[-6.179152E-3,-2.4539478E0,5.705968E0,-4.5739655E0,1.5628262E0,2.1968778E-2,7.1479406E0,-2.7947327E-1,-1.6281723E0,3.2905662E0,-9.875555E-1,4.430333E-1,1.8241148E-1,-1.6240692E-2,-1.1944033E-1,1.9370747E-1,2.390585E-2,-8.1001475E-2,-1.1836052E-2],"categories":[],"categories_nodes":[],"categories_segments":[],"categories_sizes":[],"default_left":[0,0,0,0,0,0,0,0,0,0,0,0,0,0,0,0,0,0,0],"id":27,"left_children":[1,3,5,7,9,-1,11,-1,13,15,17,-1,-1,-1,-1,-1,-1,-1,-1],"loss_changes":[4.194806E2,1.8597656E2,6.520792E1,3.2779694E1,3.8500786E1,0E0,9.632568E0,0E0,4.180978E0,6.3541946E0,1.516038E0,0E0,0E0,0E0,0E0,0E0,0E0,0E0,0E0],"parents":[2147483647,0,0,1,1,2,2,3,3,4,4,6,6,8,8,9,9,10,10],"right_children":[2,4,6,8,10,-1,12,-1,14,16,18,-1,-1,-1,-1,-1,-1,-1,-1],"split_conditions":[3E0,1E1,2E0,3E0,2.5E0,2.1968778E-2,2E-1,-2.7947327E-1,4E0,3.3E-1,8E-2,4.430333E-1,1.8241148E-1,-1.6240692E-2,-1.1944033E-1,1.9370747E-1,2.390585E-2,-8.1001475E-2,-1.1836052E-2],"split_indices":[1,3,2,2,5,0,0,0,3,0,0,0,0,0,0,0,0,0,0],"split_type":[0,0,0,0,0,0,0,0,0,0,0,0,0,0,0,0,0,0,0],"sum_hessian":[2.8E1,2E1,8E0,1.3E1,7E0,2E0,6E0,9E0,4E0,4E0,3E0,3E0,3E0,2E0,2E0,3E0,1E0,1E0,2E0],"tree_param":{"num_deleted":"0","num_feature":"11","num_nodes":"19","size_leaf_vector":"1"}},{"base_weights":[2.536395E-1,-3.5920067E0,4.905236E0,-5.9573774E0,-8.2752395E-1,7.0244327E0,9.0890056E-1,-3.3713958E-1,-1.0694758E-1,1.6444426E0,-2.337581E0,4.7130586E-4,3.950065E-1,6.1632585E-2,8.713278E-3,1.3552094E-2,1.00594774E-1,-1.3532338E-1,-1.2328721E-2],"categories":[],"categories_nodes":[],"categories_segments":[],"categories_sizes":[],"default_left":[0,0,0,0,0,0,0,0,0,0,0,0,0,0,0,0,0,0,0],"id":28,"left_children":[1,3,5,7,9,11,13,-1,-1,15,17,-1,-1,-1,-1,-1,-1,-1,-1],"loss_changes":[5.542714E2,1.062336E2,1.1218179E2,1.2568909E1,3.7439312E1,5.521277E1,1.212225E0,0E0,0E0,1.4733324E0,3.9607162E0,0E0,0E0,0E0,0E0,0E0,0E0,0E0,0E0],"parents":[2147483647,0,0,1,1,2,2,3,3,4,4,5,5,6,6,9,9,10,10],"right_children":[2,4,6,8,10,12,14,-1,-1,16,18,-1,-1,-1,-1,-1,-1,-1,-1],"split_conditions":[3.5E0,2E0,2.6E-1,9E0,3.3E-1,1.2E-1,4.4E-1,-3.3713958E-1,-1.0694758E-1,2.2E-1,1.5E1,4.7130586E-4,3.950065E-1,6.1632585E-2,8.713278E-3,1.3552094E-2,1.00594774E-1,-1.3532338E-1,-1.2328721E-2],"split_indices":[8,1,0,3,0,0,0,0,0,0,3,0,0,0,0,0,0,0,0],"split_type":[0,0,0,0,0,0,0,0,0,0,0,0,0,0,0,0,0,0,0],"sum_hessian":[2.9E1,1.6E1,1.3E1,8E0,8E0,8E0,5E0,6E0,2E0,3E0,5E0,1E0,7E0,3E0,2E0,1E0,2E0,4E0,1E0],"tree_param":{"num_deleted":"0","num_feature":"11","num_nodes":"19","size_leaf_vector":"1"}},{"base_weights":[-4.7277656E-1,-2.6158729E0,4.4408765E0,6.601795E-1,-4.499913E0,6.2789063E0,1.8627001E0,2.7230027E0,-1.9472443E0,-6.4742565E0,-3.013916E0,3.660039E-1,1.3988547E-1,1.2465449E-1,2.0064037E-2,1.7531085E-1,3.8552474E-2,-1.1569252E-1,-1.2020493E-2,-3.6615607E-1,-5.574837E-2,-6.0723525E-2,-2.1555212E-1],"categories":[],"categories_nodes":[],"categories_segments":[],"categories_sizes":[],"default_left":[0,0,0,0,0,0,0,0,0,0,0,0,0,0,0,0,0,0,0,0,0,0,0],"id":29,"left_children":[1,3,5,7,9,11,13,15,17,19,21,-1,-1,-1,-1,-1,-1,-1,-1,-1,-1,-1,-1],"loss_changes":[3.8018185E2,1.5727615E2,4.0430695E1,5.9088898E1,2.7429016E1,1.2677155E0,4.527151E0,6.4693184E0,2.5724068E0,1.9130814E1,2.0439552E1,0E0,0E0,0E0,0E0,0E0,0E0,0E0,0E0,0E0,0E0,0E0,0E0],"parents":[2147483647,0,0,1,1,2,2,3,3,4,4,5,5,6,6,7,7,8,8,9,9,10,10],"right_children":[2,4,6,8,10,12,14,16,18,20,22,-1,-1,-1,-1,-1,-1,-1,-1,-1,-1,-1,-1],"split_conditions":[3E0,2.2E0,2.6E-1,3.8E-1,6.2E0,1.8E0,3E0,4.02E1,1.65E1,4.5E-1,3.6E-1,3.660039E-1,1.3988547E-1,1.2465449E-1,2.0064037E-2,1.7531085E-1,3.8552474E-2,-1.1569252E-1,-1.2020493E-2,-3.6615607E-1,-5.574837E-2,-6.0723525E-2,-2.1555212E-1],"split_indices":[1,7,0,0,6,7,4,6,5,0,0,0,0,0,0,0,0,0,0,0,0,0,0],"split_type":[0,0,0,0,0,0,0,0,0,0,0,0,0,0,0,0,0,0,0,0,0,0,0],"sum_hessian":[3.4E1,2.4E1,1E1,9E0,1.5E1,5E0,5E0,5E0,4E0,5E0,1E1,3E0,2E0,3E0,2E0,3E0,2E0,3E0,1E0,4E0,1E0,5E0,5E0],"tree_param":{"num_deleted":"0","num_feature":"11","num_nodes":"23","size_leaf_vector":"1"}},{"base_weights":[1.0799953E0,-1.6690012E0,5.5716567E0,-3.8392608E0,8.8518447E-1,4.3517104E-1,2.9178467E0,-2.7441525E-1,-2.1129062E0,1.853399E0,-1.0304871E0,1.641579E-1,9.016705E-3,6.0082437E-3,-1.2525563E-1,3.531623E-2,1.268562E-1,-1.8668048E-2,-7.5046636E-2],"categories":[],"categories_nodes":[],"categories_segments":[],"categories_sizes":[],"default_left":[0,0,0,0,0,0,0,0,0,0,0,0,0,0,0,0,0,0,0],"id":30,"left_children":[1,3,5,7,9,-1,11,-1,13,15,17,-1,-1,-1,-1,-1,-1,-1,-1],"loss_changes":[3.920735E2,1.14263374E2,7.433804E1,1.9718903E1,2.0457712E1,0E0,7.408287E0,0E0,6.431795E0,3.6979485E0,6.7617893E-1,0E0,0E0,0E0,0E0,0E0,0E0,0E0,0E0],"parents":[2147483647,0,0,1,1,2,2,3,3,4,4,6,6,8,8,9,9,10,10],"right_children":[2,4,6,8,10,-1,12,-1,14,16,18,-1,-1,-1,-1,-1,-1,-1,-1],"split_conditions":[3E0,1E1,2E-1,3E0,3.8E-1,4.3517104E-1,4.4E-1,-2.7441525E-1,4E0,4E0,4E-1,1.641579E-1,9.016705E-3,6.0082437E-3,-1.2525563E-1,3.531623E-2,1.268562E-1,-1.8668048E-2,-7.5046636E-2],"split_indices":[1,3,0,3,0,0,0,0,3,2,0,0,0,0,0,0,0,0,0],"split_type":[0,0,0,0,0,0,0,0,0,0,0,0,0,0,0,0,0,0,0],"sum_hessian":[3E1,1.9E1,1.1E1,1E1,9E0,4E0,7E0,4E0,6E0,6E0,3E0,6E0,1E0,1E0,5E0,3E0,3E0,2E0,1E0],"tree_param":{"num_deleted":"0","num_feature":"11","num_nodes":"19","size_leaf_vector":"1"}},{"base_weights":[2.741303E-1,-3.0229971E0,3.7490811E0,-5.416796E0,6.4635134E-1,6.511152E0,1.6505741E0,-3.10034E-1,-1.2474151E-1,1.3503914E-1,-1.1264641E0,1.5319214E0,4.09823E-1,2.0283105E0,-3.282674E-2,5.85804E-3,-7.3333025E-2,8.730507E-3,1.061636E-1,1.5972137E-2,1.10099435E-1,-1.1253262E-2,8.791256E-3],"categories":[],"categories_nodes":[],"categories_segments":[],"categories_sizes":[],"default_left":[0,0,0,0,0,0,0,0,0,0,0,0,0,0,0,0,0,0,0,0,0,0,0],"id":31,"left_children":[1,3,5,7,9,11,13,-1,-1,-1,15,17,-1,19,21,-1,-1,-1,-1,-1,-1,-1,-1],"loss_changes":[4.0088354E2,1.6160747E2,8.778868E1,9.725616E0,3.217936E1,4.618445E1,7.061283E0,0E0,0E0,0E0,2.2872186E0,2.0371947E0,0E0,1.9677277E0,1.5990487E-1,0E0,0E0,0E0,0E0,0E0,0E0,0E0,0E0],"parents":[2147483647,0,0,1,1,2,2,3,3,4,4,5,5,6,6,10,10,11,11,13,13,14,14],"right_children":[2,4,6,8,10,12,14,-1,-1,-1,16,18,-1,20,22,-1,-1,-1,-1,-1,-1,-1,-1],"split_conditions":[9E0,3E0,2E-1,1.25E1,3.2E-1,3E0,3.1E0,-3.10034E-1,-1.2474151E-1,1.3503914E-1,2E0,1.2E-1,4.09823E-1,2E0,3.9E-1,5.85804E-3,-7.3333025E-2,8.730507E-3,1.061636E-1,1.5972137E-2,1.10099435E-1,-1.1253262E-2,8.791256E-3],"split_indices":[3,2,0,5,0,2,5,0,0,0,1,0,0,2,0,0,0,0,0,0,0,0,0],"split_type":[0,0,0,0,0,0,0,0,0,0,0,0,0,0,0,0,0,0,0,0,0,0,0],"sum_hessian":[3.3E1,1.7E1,1.6E1,1E1,7E0,6E0,1E1,7E0,3E0,3E0,4E0,2E0,4E0,8E0,2E0,1E0,3E0,1E0,1E0,1E0,7E0,1E0,1E0],"tree_param":{"num_deleted":"0","num_feature":"11","num_nodes":"23","size_leaf_vector":"1"}},{"base_weights":[-3.957494E-2,-2.944008E0,5.24481E0,1.4262285E0,-3.799122E0,4.044079E-1,2.4645894E0,1.275404E-1,2.010994E-1,-2.783716E0,-3.2016316E-1,1.5572834E-2,2.7715352E0,2.6054382E-2,-1.0971928E-2,-1.525634E-1,1.7361451E-2,1.4972664E-1,4.141369E-2],"categories":[],"categories_nodes":[],"categories_segments":[],"categories_sizes":[],"default_left":[0,0,0,0,0,0,0,0,0,0,0,0,0,0,0,0,0,0,0],"id":32,"left_children":[1,3,5,7,9,-1,11,-1,13,15,-1,-1,17,-1,-1,-1,-1,-1,-1],"loss_changes":[4.7588504E2,8.0159424E1,6.702252E1,4.9980545E0,2.7127563E1,0E0,3.763054E0,0E0,5.180483E-1,1.278714E1,0E0,0E0,1.1976242E-1,0E0,0E0,0E0,0E0,0E0,0E0],"parents":[2147483647,0,0,1,1,2,2,3,3,4,4,6,6,8,8,9,9,12,12],"right_children":[2,4,6,8,10,-1,12,-1,14,16,-1,-1,18,-1,-1,-1,-1,-1,-1],"split_conditions":[3E0,1.7E0,2E-1,1.5E-1,4.7E0,4.044079E-1,2E0,1.275404E-1,2.6E-1,4E0,-3.2016316E-1,1.5572834E-2,1.8E1,2.6054382E-2,-1.0971928E-2,-1.525634E-1,1.7361451E-2,1.4972664E-1,4.141369E-2],"split_indices":[1,7,0,0,7,0,2,0,0,2,0,0,6,0,0,0,0,0,0],"split_type":[0,0,0,0,0,0,0,0,0,0,0,0,0,0,0,0,0,0,0],"sum_hessian":[2.9E1,1.9E1,1E1,3E0,1.6E1,4E0,6E0,1E0,2E0,1.3E1,3E0,1E0,5E0,1E0,1E0,1.2E1,1E0,4E0,1E0],"tree_param":{"num_deleted":"0","num_feature":"11","num_nodes":"19","size_leaf_vector":"1"}},{"base_weights":[-3.0479431E-2,-1.6752433E0,5.318813E0,-3.8066533E0,1.5772843E0,3.7633657E-1,2.4887154E0,-2.9766092E-1,-2.2897406E0,2.3768005E0,1.4250489E-1,1.47081E-1,1.6927434E-2,-1.4953162E-1,-6.0361262E-2,5.271349E-2,1.5525655E-1,-1.222105E-2,1.501708E-2],"categories":[],"categories_nodes":[],"categories_segments":[],"categories_sizes":[],"default_left":[0,0,0,0,0,0,0,0,0,0,0,0,0,0,0,0,0,0,0],"id":33,"left_children":[1,3,5,7,9,-1,11,-1,13,15,17,-1,-1,-1,-1,-1,-1,-1,-1],"loss_changes":[2.992549E2,1.8624838E2,3.1257095E1,3.8467087E1,1.2279715E1,0E0,3.8732185E0,0E0,4.735626E0,3.4690323E0,3.7876537E-1,0E0,0E0,0E0,0E0,0E0,0E0,0E0,0E0],"parents":[2147483647,0,0,1,1,2,2,3,3,4,4,6,6,8,8,9,9,10,10],"right_children":[2,4,6,8,10,-1,12,-1,14,16,18,-1,-1,-1,-1,-1,-1,-1,-1],"split_conditions":[4E0,3.6E0,1.6E-1,3E0,3.1E0,3.7633657E-1,3.3E-1,-2.9766092E-1,7.2E0,2.9E1,4.2E0,1.47081E-1,1.6927434E-2,-1.4953162E-1,-6.0361262E-2,5.271349E-2,1.5525655E-1,-1.222105E-2,1.501708E-2],"split_indices":[2,8,0,3,5,0,0,0,5,3,5,0,0,0,0,0,0,0,0],"split_type":[0,0,0,0,0,0,0,0,0,0,0,0,0,0,0,0,0,0,0],"sum_hessian":[3.2E1,2.5E1,7E0,1.5E1,1E1,3E0,4E0,5E0,1E1,6E0,4E0,3E0,1E0,5E0,5E0,3E0,3E0,1E0,3E0],"tree_param":{"num_deleted":"0","num_feature":"11","num_nodes":"19","size_leaf_vector":"1"}},{"base_weights":[9.078167E-2,-2.568809E0,3.5272648E0,2.4039764E0,-3.4805107E0,3.333646E-1,1.2084053E0,3.6701392E-2,1.357975E-1,-2.6515165E-1,-2.231421E0,6.083772E-1,1.3028437E-1,-1.781187E-1,-7.379488E-2,4.3947827E-2,2.5207044E-3],"categories":[],"categories_nodes":[],"categories_segments":[],"categories_sizes":[],"default_left":[0,0,0,0,0,0,0,0,0,0,0,0,0,0,0,0,0],"id":34,"left_children":[1,3,5,7,9,-1,11,-1,-1,-1,13,15,-1,-1,-1,-1,-1],"loss_changes":[3.5636713E2,1.081084E2,1.15725006E2,9.033394E-2,3.142009E1,0E0,7.637253E0,0E0,0E0,0E0,7.8146667E0,1.3144474E0,0E0,0E0,0E0,0E0,0E0],"parents":[2147483647,0,0,1,1,2,2,3,3,4,4,6,6,10,10,11,11],"right_children":[2,4,6,8,10,-1,12,-1,-1,-1,14,16,-1,-1,-1,-1,-1],"split_conditions":[3.5E0,6E-1,2E-1,1.4E0,3E0,3.333646E-1,2.9E1,3.6701392E-2,1.357975E-1,-2.6515165E-1,4.5E0,2.1E0,1.3028437E-1,-1.781187E-1,-7.379488E-2,4.3947827E-2,2.5207044E-3],"split_indices":[8,5,0,7,3,0,3,0,0,0,5,5,0,0,0,0,0],"split_type":[0,0,0,0,0,0,0,0,0,0,0,0,0,0,0,0,0],"sum_hessian":[3.7E1,2.1E1,1.6E1,3E0,1.8E1,6E0,1E1,1E0,2E0,6E0,1.2E1,8E0,2E0,3E0,9E0,5E0,3E0],"tree_param":{"num_deleted":"0","num_feature":"11","num_nodes":"17","size_leaf_vector":"1"}},{"base_weights":[2.890913E-1,-2.8023186E0,2.7144628E0,-2.4989831E-1,-2.5638103E-1,9.392589E-1,5.6234894E0,8.512847E-2,-1.1931261E0,-6.3453675E-3,1.5342274E-1,7.0785384E0,1.3239111E0,-6.815783E-3,-8.437262E-2,-7.1109295E-2,1.5449545E-2,3.8910398E-1,1.06609344E-1,8.388777E-2,1.540556E-2],"categories":[],"categories_nodes":[],"categories_segments":[],"categories_sizes":[],"default_left":[0,0,0,0,0,0,0,0,0,0,0,0,0,0,0,0,0,0,0,0,0],"id":35,"left_children":[1,3,5,-1,7,9,11,-1,13,15,-1,17,19,-1,-1,-1,-1,-1,-1,-1,-1],"loss_changes":[2.5503476E2,8.256835E1,9.283627E1,0E0,1.6711676E1,2.619337E1,3.4421326E1,0E0,2.9044285E0,4.9041014E0,0E0,8.0696106E-1,5.613699E-1,0E0,0E0,0E0,0E0,0E0,0E0,0E0,0E0],"parents":[2147483647,0,0,1,1,2,2,4,4,5,5,6,6,8,8,9,9,11,11,12,12],"right_children":[2,4,6,-1,8,10,12,-1,14,16,-1,18,20,-1,-1,-1,-1,-1,-1,-1,-1],"split_conditions":[1E1,3E0,4E0,-2.4989831E-1,4E-1,4.3E0,2E-1,8.512847E-2,4E0,8E-2,1.5342274E-1,2.2E1,3.3E-1,-6.815783E-3,-8.437262E-2,-7.1109295E-2,1.5449545E-2,3.8910398E-1,1.06609344E-1,8.388777E-2,1.540556E-2],"split_indices":[3,2,2,0,5,8,0,0,3,0,0,3,0,0,0,0,0,0,0,0,0],"split_type":[0,0,0,0,0,0,0,0,0,0,0,0,0,0,0,0,0,0,0,0,0],"sum_hessian":[3.2E1,1.4E1,1.8E1,7E0,7E0,1.2E1,6E0,2E0,5E0,9E0,3E0,4E0,2E0,2E0,3E0,1E0,8E0,3E0,1E0,1E0,1E0],"tree_param":{"num_deleted":"0","num_feature":"11","num_nodes":"21","size_leaf_vector":"1"}},{"base_weights":[4.4665214E-1,-1.4137379E0,4.8669233E0,-3.4472516E0,9.070466E-1,2.109115E0,6.353943E0,-2.0879474E-1,-7.638302E-1,1.9124304E0,-4.1707548E-1,1.2380696E-2,1.2562934E-1,1.3604431E-1,3.745125E-1,9.2576025E-3,-5.7093747E-2,1.5020466E-2,1.0655161E-1,-4.335165E-2,1.6094653E-2],"categories":[],"categories_nodes":[],"categories_segments":[],"categories_sizes":[],"default_left":[0,0,0,0,0,0,0,0,0,0,0,0,0,0,0,0,0,0,0,0,0],"id":36,"left_children":[1,3,5,7,9,11,13,-1,15,17,19,-1,-1,-1,-1,-1,-1,-1,-1,-1,-1],"loss_changes":[2.782537E2,1.1639116E2,2.760794E1,2.2228653E1,1.6772636E1,3.1331635E0,4.389496E0,0E0,1.6464515E0,1.8265572E0,2.2741184E0,0E0,0E0,0E0,0E0,0E0,0E0,0E0,0E0,0E0,0E0],"parents":[2147483647,0,0,1,1,2,2,3,3,4,4,5,5,6,6,8,8,9,9,10,10],"right_children":[2,4,6,8,10,12,14,-1,16,18,20,-1,-1,-1,-1,-1,-1,-1,-1,-1,-1],"split_conditions":[3E0,9E0,1.2E1,3E0,2.5E0,2E0,3E0,-2.0879474E-1,2E0,2E0,2.1E0,1.2380696E-2,1.2562934E-1,1.3604431E-1,3.745125E-1,9.2576025E-3,-5.7093747E-2,1.5020466E-2,1.0655161E-1,-4.335165E-2,1.6094653E-2],"split_indices":[1,3,3,2,5,2,2,0,1,1,7,0,0,0,0,0,0,0,0,0,0],"split_type":[0,0,0,0,0,0,0,0,0,0,0,0,0,0,0,0,0,0,0,0,0],"sum_hessian":[3.2E1,2.3E1,9E0,1.2E1,1.1E1,4E0,5E0,9E0,3E0,6E0,5E0,1E0,3E0,2E0,3E0,1E0,2E0,1E0,5E0,3E0,2E0],"tree_param":{"num_deleted":"0","num_feature":"11","num_nodes":"21","size_leaf_vector":"1"}},{"base_weights":[3.3708155E-1,-1.2363032E0,3.7648196E0,-2.7643116E0,5.430062E-1,2.945497E-1,1.3655376E0,-2.0825015E-1,-1.8346362E0,-1.8027666E-1,1.2659264E-1,1.2745984E-2,9.285583E-2,-9.877002E-2,-1.771307E-2,-3.8381115E-2,6.251443E-2],"categories":[],"categories_nodes":[],"categories_segments":[],"categories_sizes":[],"default_left":[0,0,0,0,0,0,0,0,0,0,0,0,0,0,0,0,0],"id":37,"left_children":[1,3,5,7,9,-1,11,-1,13,15,-1,-1,-1,-1,-1,-1,-1],"loss_changes":[1.7184213E2,6.131463E1,4.296855E1,7.984993E0,1.6279919E1,0E0,2.8023224E0,0E0,1.1756439E0,8.521876E0,0E0,0E0,0E0,0E0,0E0,0E0,0E0],"parents":[2147483647,0,0,1,1,2,2,3,3,4,4,6,6,8,8,9,9],"right_children":[2,4,6,8,10,-1,12,-1,14,16,-1,-1,-1,-1,-1,-1,-1],"split_conditions":[3E0,3.1E0,2.6E-1,1.8E0,4.1E0,2.945497E-1,2E0,-2.0825015E-1,4E0,4E0,1.2659264E-1,1.2745984E-2,9.285583E-2,-9.877002E-2,-1.771307E-2,-3.8381115E-2,6.251443E-2],"split_indices":[1,8,0,8,8,0,2,0,2,2,0,0,0,0,0,0,0],"split_type":[0,0,0,0,0,0,0,0,0,0,0,0,0,0,0,0,0],"sum_hessian":[3E1,2.1E1,9E0,1.1E1,1E1,4E0,5E0,3E0,8E0,8E0,2E0,2E0,3E0,7E0,1E0,6E0,2E0],"tree_param":{"num_deleted":"0","num_feature":"11","num_nodes":"17","size_leaf_vector":"1"}},{"base_weights":[3.0346417E-1,-4.535375E0,1.4609957E0,-2.8454682E-1,-1.1229854E-1,4.231436E0,-2.1983778E-1,3.1878433E-1,2.095337E0,-1.741754E0,8.130929E-1,1.1831049E-1,1.175251E-2,-4.8564277E-3,-1.1368872E-1,9.840511E-2,-1.4653561E-2],"categories":[],"categories_nodes":[],"categories_segments":[],"categories_sizes":[],"default_left":[0,0,0,0,0,0,0,0,0,0,0,0,0,0,0,0,0],"id":38,"left_children":[1,3,5,-1,-1,7,9,-1,11,13,15,-1,-1,-1,-1,-1,-1],"loss_changes":[2.0266498E2,5.737137E0,1.3597302E2,0E0,0E0,3.7024445E1,3.1284853E1,0E0,2.9711266E0,6.778946E0,1.5908352E1,0E0,0E0,0E0,0E0,0E0,0E0],"parents":[2147483647,0,0,1,1,2,2,5,5,6,6,8,8,9,9,10,10],"right_children":[2,4,6,-1,-1,8,10,-1,12,14,16,-1,-1,-1,-1,-1,-1],"split_conditions":[3E0,1.25E1,1.4E0,-2.8454682E-1,-1.1229854E-1,2E-1,1E1,3.1878433E-1,8E-1,4E0,3.8E0,1.1831049E-1,1.175251E-2,-4.8564277E-3,-1.1368872E-1,9.840511E-2,-1.4653561E-2],"split_indices":[3,5,5,0,0,0,3,0,5,3,5,0,0,0,0,0,0],"split_type":[0,0,0,0,0,0,0,0,0,0,0,0,0,0,0,0,0],"sum_hessian":[3.4E1,6E0,2.8E1,3E0,3E0,1E1,1.8E1,4E0,6E0,7E0,1.1E1,5E0,1E0,2E0,5E0,5E0,6E0],"tree_param":{"num_deleted":"0","num_feature":"11","num_nodes":"17","size_leaf_vector":"1"}},{"base_weights":[2.8999895E-1,-3.0261915E0,2.3290691E0,-4.445889E0,-6.2889606E-1,5.0183535E0,6.259733E-1,-4.801685E0,-4.888296E-2,-1.3652236E0,7.6318555E-2,9.326757E-2,2.8792313E-1,-1.509441E-1,1.3030015E-1,-6.0169697E-2,-2.600417E-1,-7.6752044E-2,-1.7148877E-2,-8.173714E-2,3.0491162E-2],"categories":[],"categories_nodes":[],"categories_segments":[],"categories_sizes":[],"default_left":[0,0,0,0,0,0,0,0,0,0,0,0,0,0,0,0,0,0,0,0,0],"id":39,"left_children":[1,3,5,7,9,11,13,15,-1,17,-1,-1,-1,19,-1,-1,-1,-1,-1,-1,-1],"loss_changes":[2.301924E2,4.144864E1,9.304094E1,5.1774445E0,1.1605734E1,7.9269714E0,2.1929832E1,3.7951508E0,0E0,3.4149075E-1,0E0,0E0,0E0,1.3413984E1,0E0,0E0,0E0,0E0,0E0,0E0,0E0],"parents":[2147483647,0,0,1,1,2,2,3,3,4,4,5,5,6,6,7,7,9,9,13,13],"right_children":[2,4,6,8,10,12,14,16,-1,18,-1,-1,-1,20,-1,-1,-1,-1,-1,-1,-1],"split_conditions":[3.1E0,3E0,1.4E0,1.25E1,5E0,4E0,2.9E1,1.8E0,-4.888296E-2,4E0,7.6318555E-2,9.326757E-2,2.8792313E-1,1.54E1,1.3030015E-1,-6.0169697E-2,-2.600417E-1,-7.6752044E-2,-1.7148877E-2,-8.173714E-2,3.0491162E-2],"split_indices":[8,2,5,5,2,2,3,7,0,2,0,0,0,6,0,0,0,0,0,0,0],"split_type":[0,0,0,0,0,0,0,0,0,0,0,0,0,0,0,0,0,0,0,0,0],"sum_hessian":[3.2E1,1.2E1,2E1,7E0,5E0,7E0,1.3E1,6E0,1E0,4E0,1E0,2E0,5E0,1E1,3E0,1E0,5E0,3E0,1E0,3E0,7E0],"tree_param":{"num_deleted":"0","num_feature":"11","num_nodes":"21","size_leaf_vector":"1"}},{"base_weights":[1.9847277E-1,-2.5478616E0,2.5229335E0,-3.9669764E0,4.61562E-2,1.251915E0,4.704551E0,-2.4442112E-1,-1.8835571E0,-7.3598176E-1,6.67167E-2,3.652225E-1,2.3733013E0,1.699544E0,3.2667103E-1,-1.0625434E-1,-2.2935962E-2,-5.0671246E-2,9.344769E-3,3.318325E-2,-3.132248E-4,1.3549233E-2,1.3697837E-1,1.2665368E-2,1.0485935E-1],"categories":[],"categories_nodes":[],"categories_segments":[],"categories_sizes":[],"default_left":[0,0,0,0,0,0,0,0,0,0,0,0,0,0,0,0,0,0,0,0,0,0,0,0,0],"id":40,"left_children":[1,3,5,7,9,11,13,-1,15,17,-1,19,21,23,-1,-1,-1,-1,-1,-1,-1,-1,-1,-1,-1],"loss_changes":[2.3624295E2,6.276365E1,4.9567833E1,1.1909714E1,8.034776E0,1.3053766E1,2.7366531E1,0E0,7.4588585E-1,1.4696343E0,0E0,1.001965E0,3.8776665E0,1.7691107E0,0E0,0E0,0E0,0E0,0E0,0E0,0E0,0E0,0E0,0E0,0E0],"parents":[2147483647,0,0,1,1,2,2,3,3,4,4,5,5,6,6,8,8,9,9,11,11,12,12,13,13],"right_children":[2,4,6,8,10,12,14,-1,16,18,-1,20,22,24,-1,-1,-1,-1,-1,-1,-1,-1,-1,-1,-1],"split_conditions":[1E1,3E0,4E0,1.25E1,3E0,4.1E0,3E0,-2.4442112E-1,2E0,9.54E1,6.67167E-2,1.4E1,2.9E1,2E0,3.2667103E-1,-1.0625434E-1,-2.2935962E-2,-5.0671246E-2,9.344769E-3,3.318325E-2,-3.132248E-4,1.3549233E-2,1.3697837E-1,1.2665368E-2,1.0485935E-1],"split_indices":[3,2,2,5,1,8,1,0,1,6,0,3,3,1,0,0,0,0,0,0,0,0,0,0,0],"split_type":[0,0,0,0,0,0,0,0,0,0,0,0,0,0,0,0,0,0,0,0,0,0,0,0,0],"sum_hessian":[3.5E1,1.6E1,1.9E1,1E1,6E0,1.3E1,6E0,6E0,4E0,4E0,2E0,8E0,5E0,3E0,3E0,3E0,1E0,3E0,1E0,4E0,4E0,1E0,4E0,1E0,2E0],"tree_param":{"num_deleted":"0","num_feature":"11","num_nodes":"25","size_leaf_vector":"1"}},{"base_weights":[1.0648484E-1,-1.5065407E0,3.458081E0,-3.3472826E0,4.500891E-1,2.967781E-1,1.477395E0,-2.2996743E-1,-1.6170338E0,1.5373465E0,-7.014667E-1,1.1071142E-2,9.295743E-2,-1.5453435E-2,-8.917583E-2,9.6623346E-2,1.8318176E-2,5.2188397E-3,-6.659718E-2],"categories":[],"categories_nodes":[],"categories_segments":[],"categories_sizes":[],"default_left":[0,0,0,0,0,0,0,0,0,0,0,0,0,0,0,0,0,0,0],"id":41,"left_children":[1,3,5,7,9,-1,11,-1,13,15,17,-1,-1,-1,-1,-1,-1,-1,-1],"loss_changes":[1.9983331E2,9.154784E1,5.0116165E1,2.0725708E1,1.7354885E1,0E0,3.424118E0,0E0,9.7304726E-1,2.5307693E0,3.6954832E0,0E0,0E0,0E0,0E0,0E0,0E0,0E0,0E0],"parents":[2147483647,0,0,1,1,2,2,3,3,4,4,6,6,8,8,9,9,10,10],"right_children":[2,4,6,8,10,-1,12,-1,14,16,18,-1,-1,-1,-1,-1,-1,-1,-1],"split_conditions":[3E0,9E0,2E-1,2E0,2.5E0,2.967781E-1,2E0,-2.2996743E-1,3.4E-1,3.3E-1,9.4E0,1.1071142E-2,9.295743E-2,-1.5453435E-2,-8.917583E-2,9.6623346E-2,1.8318176E-2,5.2188397E-3,-6.659718E-2],"split_indices":[1,3,0,1,5,0,2,0,0,0,5,0,0,0,0,0,0,0,0],"split_type":[0,0,0,0,0,0,0,0,0,0,0,0,0,0,0,0,0,0,0],"sum_hessian":[3.5E1,2.4E1,1.1E1,1.2E1,1.2E1,4E0,7E0,6E0,6E0,6E0,6E0,2E0,5E0,1E0,5E0,4E0,2E0,3E0,3E0],"tree_param":{"num_deleted":"0","num_feature":"11","num_nodes":"19","size_leaf_vector":"1"}},{"base_weights":[1.6028151E-1,-1.4956965E0,3.3325255E0,-2.7961411E0,4.1360924E-1,1.3491876E0,4.839788E0,-1.8883829E0,-2.4101901E-1,1.8551667E0,-6.7516166E-1,1.8862916E-2,9.9191E-2,2.660459E-1,4.8825264E-2,-1.0570458E-1,1.4860344E-2,1.105505E-1,1.07948305E-2,5.0231456E-3,-6.409979E-2],"categories":[],"categories_nodes":[],"categories_segments":[],"categories_sizes":[],"default_left":[0,0,0,0,0,0,0,0,0,0,0,0,0,0,0,0,0,0,0,0,0],"id":42,"left_children":[1,3,5,7,9,11,13,15,-1,17,19,-1,-1,-1,-1,-1,-1,-1,-1,-1,-1],"loss_changes":[1.9935161E2,6.323017E1,3.2332565E1,1.8460068E1,1.851732E1,3.569313E0,7.815277E0,6.5480003E0,0E0,2.439268E0,3.4235215E0,0E0,0E0,0E0,0E0,0E0,0E0,0E0,0E0,0E0,0E0],"parents":[2147483647,0,0,1,1,2,2,3,3,4,4,5,5,6,6,7,7,9,9,10,10],"right_children":[2,4,6,8,10,12,14,16,-1,18,20,-1,-1,-1,-1,-1,-1,-1,-1,-1,-1],"split_conditions":[3E0,1E1,1.2E1,3.9E0,2.5E0,1.7E0,3E0,3.5E0,-2.4101901E-1,4.02E1,9.4E0,1.8862916E-2,9.9191E-2,2.660459E-1,4.8825264E-2,-1.0570458E-1,1.4860344E-2,1.105505E-1,1.07948305E-2,5.0231456E-3,-6.409979E-2],"split_indices":[1,3,3,7,5,7,6,8,0,6,5,0,0,0,0,0,0,0,0,0,0],"split_type":[0,0,0,0,0,0,0,0,0,0,0,0,0,0,0,0,0,0,0,0,0],"sum_hessian":[3.6E1,2.4E1,1.2E1,1.4E1,1E1,6E0,6E0,1.1E1,3E0,4E0,6E0,3E0,3E0,5E0,1E0,1E1,1E0,3E0,1E0,3E0,3E0],"tree_param":{"num_deleted":"0","num_feature":"11","num_nodes":"21","size_leaf_vector":"1"}},{"base_weights":[3.0048278E-1,-8.829449E-1,3.110661E0,-1.812454E0,1.20263E0,5.402645E0,1.3565756E0,-2.1774821E0,-5.008904E-1,1.7472633E0,2.2118092E-1,3.1007856E-1,7.5146675E-2,1.9255852E0,-4.3965656E-2,-2.599044E-2,-1.3114016E-1,3.8648926E-2,-8.038979E-2,6.4821244E-4,1.0887986E-1,1.6617076E-2,-2.807522E-3,1.0974856E-1,2.1201039E-2,-1.2424469E-2,9.127045E-3],"categories":[],"categories_nodes":[],"categories_segments":[],"categories_sizes":[],"default_left":[0,0,0,0,0,0,0,0,0,0,0,0,0,0,0,0,0,0,0,0,0,0,0,0,0,0,0],"id":43,"left_children":[1,3,5,7,9,11,13,15,17,19,21,-1,-1,23,25,-1,-1,-1,-1,-1,-1,-1,-1,-1,-1,-1,-1],"loss_changes":[1.1249275E2,4.8705166E1,3.2874268E1,7.0482025E0,3.8897781E0,3.141777E0,5.663108E0,8.2332E0,8.293053E0,3.7034063E0,1.4197442E-1,0E0,0E0,1.0917892E0,1.8433738E-1,0E0,0E0,0E0,0E0,0E0,0E0,0E0,0E0,0E0,0E0,0E0,0E0],"parents":[2147483647,0,0,1,1,2,2,3,3,4,4,5,5,6,6,7,7,8,8,9,9,10,10,13,13,14,14],"right_children":[2,4,6,8,10,12,14,16,18,20,22,-1,-1,24,26,-1,-1,-1,-1,-1,-1,-1,-1,-1,-1,-1,-1],"split_conditions":[4E0,1.5E1,1.6E-1,1E1,2.5E-1,2.2E1,3.3E-1,2.2E0,1.4E1,1.2E-1,3.8E-1,3.1007856E-1,7.5146675E-2,3.82E1,3.4E-1,-2.599044E-2,-1.3114016E-1,3.8648926E-2,-8.038979E-2,6.4821244E-4,1.0887986E-1,1.6617076E-2,-2.807522E-3,1.0974856E-1,2.1201039E-2,-1.2424469E-2,9.127045E-3],"split_indices":[2,3,0,3,0,3,0,7,3,0,0,0,0,6,0,0,0,0,0,0,0,0,0,0,0,0,0],"split_type":[0,0,0,0,0,0,0,0,0,0,0,0,0,0,0,0,0,0,0,0,0,0,0,0,0,0,0],"sum_hessian":[3.2E1,2.3E1,9E0,1.6E1,7E0,3E0,6E0,1.2E1,4E0,4E0,3E0,2E0,1E0,4E0,2E0,3E0,9E0,2E0,2E0,1E0,3E0,2E0,1E0,3E0,1E0,1E0,1E0],"tree_param":{"num_deleted":"0","num_feature":"11","num_nodes":"27","size_leaf_vector":"1"}},{"base_weights":[-8.8700645E-2,-1.3528341E0,3.1371574E0,-2.687244E0,3.935805E-1,1.0209484E0,4.730507E0,-3.4862573E0,-7.74512E-1,1.3626224E0,-6.3168716E-1,8.784994E-3,1.3996477E0,2.658774E-1,4.4882584E-2,-1.972981E-1,-8.47642E-2,-5.2526128E-2,1.5138531E-2,8.5745655E-2,1.6063182E-2,4.378605E-3,-5.9651233E-2,2.0670986E-2,7.952919E-2],"categories":[],"categories_nodes":[],"categories_segments":[],"categories_sizes":[],"default_left":[0,0,0,0,0,0,0,0,0,0,0,0,0,0,0,0,0,0,0,0,0,0,0,0,0],"id":44,"left_children":[1,3,5,7,9,11,13,15,17,19,21,-1,23,-1,-1,-1,-1,-1,-1,-1,-1,-1,-1,-1,-1],"loss_changes":[1.5920483E2,6.630977E1,3.2260864E1,2.1752625E1,1.3776606E1,1.6746526E0,8.726944E0,2.3669891E0,2.1021166E0,2.017089E0,2.9307058E0,0E0,9.5647335E-2,0E0,0E0,0E0,0E0,0E0,0E0,0E0,0E0,0E0,0E0,0E0,0E0],"parents":[2147483647,0,0,1,1,2,2,3,3,4,4,5,5,6,6,7,7,8,8,9,9,10,10,12,12],"right_children":[2,4,6,8,10,12,14,16,18,20,22,-1,24,-1,-1,-1,-1,-1,-1,-1,-1,-1,-1,-1,-1],"split_conditions":[3E0,1E1,1.2E1,3E0,2.5E0,2E0,3E0,1.25E1,9.54E1,4.02E1,9.4E0,8.784994E-3,6E0,2.658774E-1,4.4882584E-2,-1.972981E-1,-8.47642E-2,-5.2526128E-2,1.5138531E-2,8.5745655E-2,1.6063182E-2,4.378605E-3,-5.9651233E-2,2.0670986E-2,7.952919E-2],"split_indices":[1,3,3,2,5,2,6,5,6,6,5,0,3,0,0,0,0,0,0,0,0,0,0,0,0],"split_type":[0,0,0,0,0,0,0,0,0,0,0,0,0,0,0,0,0,0,0,0,0,0,0,0,0],"sum_hessian":[3.7E1,2.7E1,1E1,1.5E1,1.2E1,5E0,5E0,1E1,5E0,6E0,6E0,2E0,3E0,4E0,1E0,7E0,3E0,4E0,1E0,4E0,2E0,3E0,3E0,1E0,2E0],"tree_param":{"num_deleted":"0","num_feature":"11","num_nodes":"25","size_leaf_vector":"1"}},{"base_weights":[1.2653963E-1,-8.0818367E-1,3.148573E0,-1.3200073E0,1.6054771E0,2.7704468E-1,2.0152566E0,-1.9451294E0,2.9741558E-1,1.9392948E0,6.7551616E-3,1.1432063E-1,9.708024E-3,-7.0548534E-2,-1.8947469E-1,9.022904E-4,3.3194672E-2,1.158502E-1,2.0154191E-2],"categories":[],"categories_nodes":[],"categories_segments":[],"categories_sizes":[],"default_left":[0,0,0,0,0,0,0,0,0,0,0,0,0,0,0,0,0,0,0],"id":45,"left_children":[1,3,5,7,9,-1,11,13,15,17,-1,-1,-1,-1,-1,-1,-1,-1,-1],"loss_changes":[9.576186E1,3.4238827E1,1.0523727E1,2.2822422E1,2.1921797E0,0E0,3.0126781E0,1.0416069E1,7.046993E-1,1.3870153E0,0E0,0E0,0E0,0E0,0E0,0E0,0E0,0E0,0E0],"parents":[2147483647,0,0,1,1,2,2,3,3,4,4,6,6,7,7,8,8,9,9],"right_children":[2,4,6,8,10,-1,12,14,16,18,-1,-1,-1,-1,-1,-1,-1,-1,-1],"split_conditions":[4.1E0,4E0,3E-1,3.6E0,3.3E-1,2.7704468E-1,4.02E1,4.7E0,3E0,3.82E1,6.7551616E-3,1.1432063E-1,9.708024E-3,-7.0548534E-2,-1.8947469E-1,9.022904E-4,3.3194672E-2,1.158502E-1,2.0154191E-2],"split_indices":[8,2,5,8,0,0,6,7,2,6,0,0,0,0,0,0,0,0,0],"split_type":[0,0,0,0,0,0,0,0,0,0,0,0,0,0,0,0,0,0,0],"sum_hessian":[3.2E1,2.5E1,7E0,2.1E1,4E0,1E0,6E0,1.5E1,6E0,3E0,1E0,5E0,1E0,1.3E1,2E0,4E0,2E0,2E0,1E0],"tree_param":{"num_deleted":"0","num_feature":"11","num_nodes":"19","size_leaf_vector":"1"}},{"base_weights":[2.603697E-1,-9.310658E-1,3.2129216E0,-1.4242135E-1,-1.7566621E-1,2.8433165E-1,1.8836646E0,-5.061329E-1,8.777669E-2,1.0582297E-1,6.35252E-3,-8.8973425E-2,-1.088618E-2],"categories":[],"categories_nodes":[],"categories_segments":[],"categories_sizes":[],"default_left":[0,0,0,0,0,0,0,0,0,0,0,0,0],"id":46,"left_children":[1,3,5,-1,7,-1,9,11,-1,-1,-1,-1,-1],"loss_changes":[1.225958E2,3.570897E1,2.2170258E1,0E0,1.3014282E1,0E0,3.0025501E0,5.85568E0,0E0,0E0,0E0,0E0,0E0],"parents":[2147483647,0,0,1,1,2,2,4,4,6,6,7,7],"right_children":[2,4,6,-1,8,-1,10,12,-1,-1,-1,-1,-1],"split_conditions":[3E0,2.1E0,1.6E-1,-1.4242135E-1,4.3E0,2.8433165E-1,4.4E-1,1.1E-1,8.777669E-2,1.0582297E-1,6.35252E-3,-8.8973425E-2,-1.088618E-2],"split_indices":[1,8,0,0,8,0,0,0,0,0,0,0,0],"split_type":[0,0,0,0,0,0,0,0,0,0,0,0,0],"sum_hessian":[3.3E1,2.4E1,9E0,6E0,1.8E1,2E0,7E0,1.6E1,2E0,6E0,1E0,2E0,1.4E1],"tree_param":{"num_deleted":"0","num_feature":"11","num_nodes":"13","size_leaf_vector":"1"}},{"base_weights":[4.6732908E-1,-7.28499E-1,3.6974401E0,-2.2731736E-1,-1.1939678E-1,2.4120858E-1,6.8233304E-2,-4.1549915E-1,8.485082E-2,-4.9539637E-2,2.0334418E-3],"categories":[],"categories_nodes":[],"categories_segments":[],"categories_sizes":[],"default_left":[0,0,0,0,0,0,0,0,0,0,0],"id":47,"left_children":[1,3,5,-1,7,-1,-1,9,-1,-1,-1],"loss_changes":[1.1471065E2,5.06173E1,1.4443886E1,0E0,1.1461995E1,0E0,0E0,4.764044E0,0E0,0E0,0E0],"parents":[2147483647,0,0,1,1,2,2,4,4,7,7],"right_children":[2,4,6,-1,8,-1,-1,10,-1,-1,-1],"split_conditions":[3E0,2E0,2E-1,-2.2731736E-1,4.3E0,2.4120858E-1,6.8233304E-2,3.1E0,8.485082E-2,-4.9539637E-2,2.0334418E-3],"split_indices":[1,3,0,0,8,0,0,8,0,0,0],"split_type":[0,0,0,0,0,0,0,0,0,0,0],"sum_hessian":[2.8E1,2.1E1,7E0,2E0,1.9E1,4E0,3E0,1.7E1,2E0,7E0,1E1],"tree_param":{"num_deleted":"0","num_feature":"11","num_nodes":"11","size_leaf_vector":"1"}},{"base_weights":[-1.5021275E-1,-1.3484203E0,2.5866418E0,-2.20561E0,7.4880934E-1,3.274942E0,5.633812E-1,-3.0651708E0,-1.0054749E0,1.7818896E-1,8.2022354E-2,2.5697994E-1,2.274334E0,3.4566816E-2,4.487896E-3,-1.945406E-1,-7.306835E-2,-6.80885E-2,8.051936E-3,-6.7233406E-3,1.8406678E-2,4.8393585E-2,1.5061064E-1],"categories":[],"categories_nodes":[],"categories_segments":[],"categories_sizes":[],"default_left":[0,0,0,0,0,0,0,0,0,0,0,0,0,0,0,0,0,0,0,0,0,0,0],"id":48,"left_children":[1,3,5,7,9,11,13,15,17,19,-1,-1,21,-1,-1,-1,-1,-1,-1,-1,-1,-1,-1],"loss_changes":[1.1826407E2,4.6594677E1,1.3473671E1,1.5486649E1,3.7779837E0,3.2371597E0,1.8035722E-1,7.5557632E0,3.9599066E0,4.0582538E-1,0E0,0E0,3.8326378E0,0E0,0E0,0E0,0E0,0E0,0E0,0E0,0E0,0E0,0E0],"parents":[2147483647,0,0,1,1,2,2,3,3,4,4,5,5,6,6,7,7,8,8,9,9,12,12],"right_children":[2,4,6,8,10,12,14,16,18,20,-1,-1,22,-1,-1,-1,-1,-1,-1,-1,-1,-1,-1],"split_conditions":[3E0,3.6E0,1E0,2E0,4.3E0,1.1E0,3.1E0,6.2E0,2.4E0,4.1E1,8.2022354E-2,2.5697994E-1,3.9E0,3.4566816E-2,4.487896E-3,-1.945406E-1,-7.306835E-2,-6.80885E-2,8.051936E-3,-6.7233406E-3,1.8406678E-2,4.8393585E-2,1.5061064E-1],"split_indices":[1,8,6,1,8,7,5,6,7,6,0,0,7,0,0,0,0,0,0,0,0,0,0],"split_type":[0,0,0,0,0,0,0,0,0,0,0,0,0,0,0,0,0,0,0,0,0,0,0],"sum_hessian":[3.4E1,2.4E1,1E1,1.7E1,7E0,7E0,3E0,9E0,8E0,5E0,2E0,1E0,6E0,2E0,1E0,5E0,4E0,6E0,2E0,2E0,3E0,3E0,3E0],"tree_param":{"num_deleted":"0","num_feature":"11","num_nodes":"23","size_leaf_vector":"1"}},{"base_weights":[-7.394551E-2,-2.0559368E0,1.7033069E0,-3.4479916E0,-1.1885811E0,2.7446222E0,-4.7389385E-1,-2.0545521E-1,-7.085889E-2,-3.962991E-1,-1.9148134E0,3.9072309E0,1.1899245E0,3.3427683E-1,-8.640175E-1,1.4434814E-2,-2.7929053E-2,-1.11280896E-1,-9.019757E-3,2.4340753E-1,9.847517E-2,8.0052614E-2,2.4065781E-2,2.069502E-2,4.375744E-3,-6.653678E-2,-5.464681E-3],"categories":[],"categories_nodes":[],"categories_segments":[],"categories_sizes":[],"default_left":[0,0,0,0,0,0,0,0,0,0,0,0,0,0,0,0,0,0,0,0,0,0,0,0,0,0,0],"id":49,"left_children":[1,3,5,7,9,11,13,-1,-1,15,17,19,21,23,25,-1,-1,-1,-1,-1,-1,-1,-1,-1,-1,-1,-1],"loss_changes":[1.2678934E2,1.6427689E1,4.437656E1,2.2322464E0,6.145731E0,1.8848259E1,2.4958262E0,0E0,0E0,9.393971E-1,2.832901E0,3.446167E0,1.2686892E0,2.2721767E-2,1.6157753E0,0E0,0E0,0E0,0E0,0E0,0E0,0E0,0E0,0E0,0E0,0E0,0E0],"parents":[2147483647,0,0,1,1,2,2,3,3,4,4,5,5,6,6,9,9,10,10,11,11,12,12,13,13,14,14],"right_children":[2,4,6,8,10,12,14,-1,-1,16,18,20,22,24,26,-1,-1,-1,-1,-1,-1,-1,-1,-1,-1,-1,-1],"split_conditions":[1E1,3E0,3.8E0,6.2E-1,2.5E0,2E-1,1.4E1,-2.0545521E-1,-7.085889E-2,2.9E-1,4.5E-1,2.2E1,3.3E-1,2.2E-1,1.5E1,1.4434814E-2,-2.7929053E-2,-1.11280896E-1,-9.019757E-3,2.4340753E-1,9.847517E-2,8.0052614E-2,2.4065781E-2,2.069502E-2,4.375744E-3,-6.653678E-2,-5.464681E-3],"split_indices":[3,3,5,0,4,0,3,0,0,0,0,3,0,0,3,0,0,0,0,0,0,0,0,0,0,0,0],"split_type":[0,0,0,0,0,0,0,0,0,0,0,0,0,0,0,0,0,0,0,0,0,0,0,0,0,0,0],"sum_hessian":[3.4E1,1.6E1,1.8E1,5E0,1.1E1,1.2E1,6E0,3E0,2E0,6E0,5E0,6E0,6E0,2E0,4E0,1E0,5E0,4E0,1E0,3E0,3E0,3E0,3E0,1E0,1E0,2E0,2E0],"tree_param":{"num_deleted":"0","num_feature":"11","num_nodes":"27","size_leaf_vector":"1"}},{"base_weights":[1.3431874E-1,-9.6476394E-1,2.8685937E0,-2.2480793E0,6.128343E-1,3.5601826E0,6.815847E-2,-2.985182E0,-7.677453E-1,1.5047963E-1,7.499619E-2,4.223981E0,9.201946E-2,1.4073945E-2,-8.962059E-3,-4.971644E-2,-1.7059752E-1,-5.7141623E-3,-5.329528E-2,-1.4658356E-2,2.105821E-2,5.9438135E-2,2.3427974E-1],"categories":[],"categories_nodes":[],"categories_segments":[],"categories_sizes":[],"default_left":[0,0,0,0,0,0,0,0,0,0,0,0,0,0,0,0,0,0,0,0,0,0,0],"id":50,"left_children":[1,3,5,7,9,11,13,15,17,19,-1,21,-1,-1,-1,-1,-1,-1,-1,-1,-1,-1,-1],"loss_changes":[1.04944115E2,5.19916E1,1.9124847E1,1.298436E1,4.696091E0,1.3589935E0,2.087788E-1,4.254097E0,1.0472035E0,1.2042663E0,0E0,1.4354324E0,0E0,0E0,0E0,0E0,0E0,0E0,0E0,0E0,0E0,0E0,0E0],"parents":[2147483647,0,0,1,1,2,2,3,3,4,4,5,5,6,6,7,7,8,8,9,9,11,11],"right_children":[2,4,6,8,10,12,14,16,18,20,-1,22,-1,-1,-1,-1,-1,-1,-1,-1,-1,-1,-1],"split_conditions":[4E0,3.3E0,4.02E1,1.25E1,4.1E0,2E-1,2.9E-1,2.3E0,1.9E0,2E0,7.499619E-2,3E0,9.201946E-2,1.4073945E-2,-8.962059E-3,-4.971644E-2,-1.7059752E-1,-5.7141623E-3,-5.329528E-2,-1.4658356E-2,2.105821E-2,5.9438135E-2,2.3427974E-1],"split_indices":[2,8,6,5,8,0,0,7,7,1,0,1,0,0,0,0,0,0,0,0,0,0,0],"split_type":[0,0,0,0,0,0,0,0,0,0,0,0,0,0,0,0,0,0,0,0,0,0,0],"sum_hessian":[3.3E1,2.4E1,9E0,1.3E1,1.1E1,7E0,2E0,8E0,5E0,8E0,3E0,4E0,3E0,1E0,1E0,2E0,6E0,2E0,3E0,3E0,5E0,1E0,3E0],"tree_param":{"num_deleted":"0","num_feature":"11","num_nodes":"23","size_leaf_vector":"1"}},{"base_weights":[1.879161E-2,-9.8070186E-1,2.815494E0,-1.9521798E0,6.98144E-1,3.8116455E0,1.0570138E0,-1.3615081E0,-1.8395768E-1,2.4155371E-1,1.1977417E0,8.050575E-2,2.254941E-1,1.1863772E-2,7.6220706E-2,-7.332662E-2,2.7207376E-3,-5.692005E-3,2.6827956E-2,5.350113E-3,7.21838E-2],"categories":[],"categories_nodes":[],"categories_segments":[],"categories_sizes":[],"default_left":[0,0,0,0,0,0,0,0,0,0,0,0,0,0,0,0,0,0,0,0,0],"id":51,"left_children":[1,3,5,7,9,11,13,15,-1,17,19,-1,-1,-1,-1,-1,-1,-1,-1,-1,-1],"loss_changes":[1.0618674E2,4.702984E1,1.3488159E1,1.3352135E1,2.2199068E0,1.9617081E0,1.5540233E0,2.3103905E0,0E0,7.949836E-1,1.1867747E0,0E0,0E0,0E0,0E0,0E0,0E0,0E0,0E0,0E0,0E0],"parents":[2147483647,0,0,1,1,2,2,3,3,4,4,5,5,6,6,7,7,9,9,10,10],"right_children":[2,4,6,8,10,12,14,16,-1,18,20,-1,-1,-1,-1,-1,-1,-1,-1,-1,-1],"split_conditions":[4E0,3.6E0,1E0,4.7E0,4.1E0,8E0,3E0,1.5E1,-1.8395768E-1,3E0,2.9E1,8.050575E-2,2.254941E-1,1.1863772E-2,7.6220706E-2,-7.332662E-2,2.7207376E-3,-5.692005E-3,2.6827956E-2,5.350113E-3,7.21838E-2],"split_indices":[2,8,6,7,8,3,4,3,0,2,3,0,0,0,0,0,0,0,0,0,0],"split_type":[0,0,0,0,0,0,0,0,0,0,0,0,0,0,0,0,0,0,0,0,0],"sum_hessian":[3.6E1,2.7E1,9E0,1.7E1,1E1,5E0,4E0,1.4E1,3E0,6E0,4E0,2E0,3E0,2E0,2E0,1.3E1,1E0,3E0,3E0,1E0,3E0],"tree_param":{"num_deleted":"0","num_feature":"11","num_nodes":"21","size_leaf_vector":"1"}},{"base_weights":[1.0782392E-1,-1.6501098E0,1.6644415E0,-1.7629491E-1,-9.460126E-1,3.6067593E0,6.39953E-1,5.7817334E-1,-1.2756985E0,2.1703807E-1,7.129186E-2,9.578906E-1,2.3059355E-1,4.8991777E-2,-5.6287767E-3,1.3425541E-2,-7.284853E-2,5.4138154E-2,5.216408E-3,-2.2280216E-3,2.2404958E-2],"categories":[],"categories_nodes":[],"categories_segments":[],"categories_sizes":[],"default_left":[0,0,0,0,0,0,0,0,0,0,0,0,0,0,0,0,0,0,0,0,0],"id":52,"left_children":[1,3,5,-1,7,9,11,13,15,-1,-1,17,19,-1,-1,-1,-1,-1,-1,-1,-1],"loss_changes":[9.304871E1,1.779625E1,3.350973E1,0E0,7.270111E0,3.4155807E0,1.471077E0,9.4264865E-1,3.470354E0,0E0,0E0,6.331415E-1,4.3890023E-1,0E0,0E0,0E0,0E0,0E0,0E0,0E0,0E0],"parents":[2147483647,0,0,1,1,2,2,4,4,5,5,6,6,7,7,8,8,11,11,12,12],"right_children":[2,4,6,-1,8,10,12,14,16,-1,-1,18,20,-1,-1,-1,-1,-1,-1,-1,-1],"split_conditions":[3.1E0,2E0,2E-1,-1.7629491E-1,1E0,2.2E1,3.3E-1,2.5E-1,1.4E0,2.1703807E-1,7.129186E-2,1E0,4E-1,4.8991777E-2,-5.6287767E-3,1.3425541E-2,-7.284853E-2,5.4138154E-2,5.216408E-3,-2.2280216E-3,2.2404958E-2],"split_indices":[8,3,0,0,6,3,0,0,7,0,0,9,0,0,0,0,0,0,0,0,0],"split_type":[0,0,0,0,0,0,0,0,0,0,0,0,0,0,0,0,0,0,0,0,0],"sum_hessian":[3.2E1,1.5E1,1.7E1,3E0,1.2E1,5E0,1.2E1,2E0,1E1,3E0,2E0,6E0,6E0,1E0,1E0,1E0,9E0,5E0,1E0,3E0,3E0],"tree_param":{"num_deleted":"0","num_feature":"11","num_nodes":"21","size_leaf_vector":"1"}},{"base_weights":[1.4820711E-1,-2.9909267E0,8.1558555E-1,-1.8051973E-1,-5.8399707E-2,4.550018E-2,2.4362657E0,-7.895576E-1,6.6800183E-1,3.7765E0,6.0877836E-1,-1.8886402E-2,-7.436536E-2,9.96604E-3,6.421455E-2,2.0889902E-1,5.4264452E-2,4.8545836E-3,6.638813E-2],"categories":[],"categories_nodes":[],"categories_segments":[],"categories_sizes":[],"default_left":[0,0,0,0,0,0,0,0,0,0,0,0,0,0,0,0,0,0,0],"id":53,"left_children":[1,3,5,-1,-1,7,9,11,13,15,17,-1,-1,-1,-1,-1,-1,-1,-1],"loss_changes":[7.1574036E1,2.558567E0,3.483489E1,0E0,0E0,1.0923922E1,1.97443E1,2.0243874E0,3.2101307E0,8.6802673E-1,1.7105585E0,0E0,0E0,0E0,0E0,0E0,0E0,0E0,0E0],"parents":[2147483647,0,0,1,1,2,2,5,5,6,6,7,7,8,8,9,9,10,10],"right_children":[2,4,6,-1,-1,8,10,12,14,16,18,-1,-1,-1,-1,-1,-1,-1,-1],"split_conditions":[3E0,6.2E-1,4E0,-1.8051973E-1,-5.8399707E-2,3.6E0,2E-1,3.4E0,4.1E0,2.2E1,3.1E0,-1.8886402E-2,-7.436536E-2,9.96604E-3,6.421455E-2,2.0889902E-1,5.4264452E-2,4.8545836E-3,6.638813E-2],"split_indices":[3,0,2,0,0,8,0,8,8,3,7,0,0,0,0,0,0,0,0],"split_type":[0,0,0,0,0,0,0,0,0,0,0,0,0,0,0,0,0,0,0],"sum_hessian":[3.2E1,5E0,2.7E1,3E0,2E0,1.9E1,8E0,8E0,1.1E1,4E0,4E0,6E0,2E0,7E0,4E0,3E0,1E0,3E0,1E0],"tree_param":{"num_deleted":"0","num_feature":"11","num_nodes":"19","size_leaf_vector":"1"}},{"base_weights":[1.9778693E-1,7.4344647E-1,-1.6992235E-1,1.8695831E0,-5.265042E-1,2.2232723E-1,1.3293134E0,-5.6443073E-2,-2.3291092E-1,2.5556883E-2,8.8839054E-2,8.5195545E-3,-1.7751766E-2],"categories":[],"categories_nodes":[],"categories_segments":[],"categories_sizes":[],"default_left":[0,0,0,0,0,0,0,0,0,0,0,0,0],"id":54,"left_children":[1,3,-1,5,7,-1,9,-1,11,-1,-1,-1,-1],"loss_changes":[5.9433826E1,3.8167934E1,0E0,1.3580704E1,2.0361006E0,0E0,3.8512135E0,0E0,5.530249E-1,0E0,0E0,0E0,0E0],"parents":[2147483647,0,0,1,1,3,3,4,4,6,6,8,8],"right_children":[2,4,-1,6,8,-1,10,-1,12,-1,-1,-1,-1],"split_conditions":[4.2E0,3.8E0,-1.6992235E-1,3E-1,2.2E0,2.2232723E-1,1.7E0,-5.6443073E-2,2E0,2.5556883E-2,8.8839054E-2,8.5195545E-3,-1.7751766E-2],"split_indices":[7,5,0,5,8,0,7,0,1,0,0,0,0],"split_type":[0,0,0,0,0,0,0,0,0,0,0,0,0],"sum_hessian":[2.8E1,2.5E1,3E0,1.3E1,1.2E1,1E0,1.2E1,3E0,9E0,5E0,7E0,2E0,7E0],"tree_param":{"num_deleted":"0","num_feature":"11","num_nodes":"13","size_leaf_vector":"1"}},{"base_weights":[3.9695525E-1,-4.816762E-1,2.0479193E0,1.5322227E0,-9.862982E-1,1.0215247E0,3.8453274E0,8.959913E-2,1.2329578E-2,-2.5180702E0,-5.4171157E-1,1.2427979E0,1.6471227E-1,2.215093E-1,5.2268792E-2,-3.3810236E-2,-1.4533119E-1,-5.0479777E-2,1.020407E-2,7.154935E-2,2.841568E-3,-7.0972444E-4,1.3063145E-2],"categories":[],"categories_nodes":[],"categories_segments":[],"categories_sizes":[],"default_left":[0,0,0,0,0,0,0,0,0,0,0,0,0,0,0,0,0,0,0,0,0,0,0],"id":55,"left_children":[1,3,5,7,9,11,13,-1,-1,15,17,19,21,-1,-1,-1,-1,-1,-1,-1,-1,-1,-1],"loss_changes":[5.0306458E1,2.4885157E1,1.8210098E1,1.2278891E0,1.1575035E1,1.5016031E0,1.9190903E0,0E0,0E0,8.9717865E-1,5.789153E0,1.480977E0,5.5529177E-2,0E0,0E0,0E0,0E0,0E0,0E0,0E0,0E0,0E0,0E0],"parents":[2147483647,0,0,1,1,2,2,3,3,4,4,5,5,6,6,9,9,10,10,11,11,12,12],"right_children":[2,4,6,8,10,12,14,-1,-1,16,18,20,22,-1,-1,-1,-1,-1,-1,-1,-1,-1,-1],"split_conditions":[3.8E0,6E-1,4E0,1E0,1.4E-1,3.8E0,2.2E1,8.959913E-2,1.2329578E-2,8E-2,1E1,2.64E1,1.2E-1,2.215093E-1,5.2268792E-2,-3.3810236E-2,-1.4533119E-1,-5.0479777E-2,1.020407E-2,7.154935E-2,2.841568E-3,-7.0972444E-4,1.3063145E-2],"split_indices":[8,5,2,6,0,5,3,0,0,0,3,6,0,0,0,0,0,0,0,0,0,0,0],"split_type":[0,0,0,0,0,0,0,0,0,0,0,0,0,0,0,0,0,0,0,0,0,0,0],"sum_hessian":[3.3E1,2.2E1,1.1E1,4E0,1.8E1,8E0,3E0,3E0,1E0,3E0,1.5E1,6E0,2E0,2E0,1E0,1E0,2E0,9E0,6E0,5E0,1E0,1E0,1E0],"tree_param":{"num_deleted":"0","num_feature":"11","num_nodes":"23","size_leaf_vector":"1"}},{"base_weights":[3.180505E-1,-6.842658E-1,2.2126524E0,-1.7437207E0,1.21363774E-1,1.7990533E-1,1.0701623E0,-1.1286314E-1,-4.0909195E-1,-1.7326196E-1,6.297061E-2,-4.102898E-3,1.2464877E0,-3.0106355E-2,-7.2018947E-3,2.566269E-2,-2.9033829E-2,1.2021351E-2,6.870467E-2],"categories":[],"categories_nodes":[],"categories_segments":[],"categories_sizes":[],"default_left":[0,0,0,0,0,0,0,0,0,0,0,0,0,0,0,0,0,0,0],"id":56,"left_children":[1,3,5,7,9,-1,11,-1,13,15,-1,-1,17,-1,-1,-1,-1,-1,-1],"loss_changes":[6.607972E1,1.9842772E1,1.5143856E1,5.930456E0,4.912385E0,0E0,1.7276096E0,0E0,1.17929876E-1,3.654393E0,0E0,0E0,5.6828403E-1,0E0,0E0,0E0,0E0,0E0,0E0],"parents":[2147483647,0,0,1,1,2,2,3,3,4,4,6,6,8,8,9,9,12,12],"right_children":[2,4,6,8,10,-1,12,-1,14,16,-1,-1,18,-1,-1,-1,-1,-1,-1],"split_conditions":[3E0,2.5E0,2E-1,3E0,4.3E0,1.7990533E-1,2E0,-1.1286314E-1,2.1E0,2.1E0,6.297061E-2,-4.102898E-3,2.2E0,-3.0106355E-2,-7.2018947E-3,2.566269E-2,-2.9033829E-2,1.2021351E-2,6.870467E-2],"split_indices":[1,8,0,2,8,0,2,0,8,5,0,0,8,0,0,0,0,0,0],"split_type":[0,0,0,0,0,0,0,0,0,0,0,0,0,0,0,0,0,0,0],"sum_hessian":[3.3E1,2.2E1,1.1E1,9E0,1.3E1,4E0,7E0,6E0,3E0,1.1E1,2E0,1E0,6E0,1E0,2E0,4E0,7E0,1E0,5E0],"tree_param":{"num_deleted":"0","num_feature":"11","num_nodes":"19","size_leaf_vector":"1"}},{"base_weights":[2.443747E-1,-4.2253295E-1,2.0697432E0,-1.1268198E0,5.7627034E-1,2.0673351E-1,1.2947936E0,-1.3404461E0,-2.0423603E-1,-6.0214996E-3,7.953825E-1,-5.4489137E-3,1.5109007E0,-7.3557265E-2,-2.2898357E-2,-4.6036433E-2,1.7075222E-2,-4.0002824E-3,2.2654214E-3,5.3799212E-2,1.2289238E-2,5.935669E-4,8.7938026E-2],"categories":[],"categories_nodes":[],"categories_segments":[],"categories_sizes":[],"default_left":[0,0,0,0,0,0,0,0,0,0,0,0,0,0,0,0,0,0,0,0,0,0,0],"id":57,"left_children":[1,3,5,7,9,-1,11,13,15,17,19,-1,21,-1,-1,-1,-1,-1,-1,-1,-1,-1,-1],"loss_changes":[4.104716E1,1.8235455E1,9.048386E0,2.6825562E0,1.4082489E0,0E0,2.5915785E0,7.103329E-1,1.878509E0,1.8815335E-2,9.6928406E-1,0E0,2.5799646E0,0E0,0E0,0E0,0E0,0E0,0E0,0E0,0E0,0E0,0E0],"parents":[2147483647,0,0,1,1,2,2,3,3,4,4,6,6,7,7,8,8,9,9,10,10,12,12],"right_children":[2,4,6,8,10,-1,12,14,16,18,20,-1,22,-1,-1,-1,-1,-1,-1,-1,-1,-1,-1],"split_conditions":[4E0,3.6E0,1.1E0,9E0,2E0,2.0673351E-1,2E0,3E0,1.54E1,1.5E0,2.64E1,-5.4489137E-3,2E0,-7.3557265E-2,-2.2898357E-2,-4.6036433E-2,1.7075222E-2,-4.0002824E-3,2.2654214E-3,5.3799212E-2,1.2289238E-2,5.935669E-4,8.7938026E-2],"split_indices":[2,8,7,3,2,0,4,2,6,7,6,0,1,0,0,0,0,0,0,0,0,0,0],"split_type":[0,0,0,0,0,0,0,0,0,0,0,0,0,0,0,0,0,0,0,0,0,0,0],"sum_hessian":[3.2E1,2.4E1,8E0,1.4E1,1E1,1E0,7E0,1.1E1,3E0,3E0,7E0,1E0,6E0,9E0,2E0,1E0,2E0,1E0,2E0,4E0,3E0,1E0,5E0],"tree_param":{"num_deleted":"0","num_feature":"11","num_nodes":"23","size_leaf_vector":"1"}},{"base_weights":[-1.7669566E-1,-9.316035E-1,2.023782E0,-1.5710561E0,4.508133E-1,2.9376693E0,7.051384E-1,-2.705529E0,-1.053669E0,7.810974E-2,5.850919E-2,2.0156518E-1,8.282175E-2,8.483467E-1,3.3076287E-3,-1.5355144E-1,-3.1088257E-2,-1.4337445E-2,-6.183805E-2,-7.0440928E-3,9.694138E-3,9.522438E-3,5.020816E-2],"categories":[],"categories_nodes":[],"categories_segments":[],"categories_sizes":[],"default_left":[0,0,0,0,0,0,0,0,0,0,0,0,0,0,0,0,0,0,0,0,0,0,0],"id":58,"left_children":[1,3,5,7,9,11,13,15,17,19,-1,-1,-1,21,-1,-1,-1,-1,-1,-1,-1,-1,-1],"loss_changes":[5.8364735E1,2.3691996E1,8.774357E0,7.7145767E0,2.321605E0,3.2841873E-1,4.0142012E-1,1.8986168E0,1.6111975E0,2.0478778E-1,0E0,0E0,0E0,2.1880388E-1,0E0,0E0,0E0,0E0,0E0,0E0,0E0,0E0,0E0],"parents":[2147483647,0,0,1,1,2,2,3,3,4,4,5,5,6,6,7,7,8,8,9,9,13,13],"right_children":[2,4,6,8,10,12,14,16,18,20,-1,-1,-1,22,-1,-1,-1,-1,-1,-1,-1,-1,-1],"split_conditions":[3E0,3.6E0,2.6E-1,1.4E-1,4.3E0,1.6E-1,4.4E-1,3E0,2E0,3E0,5.850919E-2,2.0156518E-1,8.282175E-2,2.9E-1,3.3076287E-3,-1.5355144E-1,-3.1088257E-2,-1.4337445E-2,-6.183805E-2,-7.0440928E-3,9.694138E-3,9.522438E-3,5.020816E-2],"split_indices":[1,8,0,0,8,0,0,2,4,2,0,0,0,0,0,0,0,0,0,0,0,0,0],"split_type":[0,0,0,0,0,0,0,0,0,0,0,0,0,0,0,0,0,0,0,0,0,0,0],"sum_hessian":[3.3E1,2.5E1,8E0,1.7E1,8E0,4E0,4E0,4E0,1.3E1,6E0,2E0,1E0,3E0,3E0,1E0,3E0,1E0,3E0,1E1,2E0,4E0,1E0,2E0],"tree_param":{"num_deleted":"0","num_feature":"11","num_nodes":"23","size_leaf_vector":"1"}},{"base_weights":[9.192555E-2,-6.842841E-1,1.9888104E0,-2.0425377E0,1.08317055E-1,2.98201E0,6.641426E-1,-1.7448603E-1,-9.237851E-1,-3.2107544E-1,6.4447634E-2,1.964985E-1,7.6276876E-2,4.6664238E-2,6.3303314E-2,-1.9974137E-2,-7.44847E-2,-3.6288045E-2,3.657937E-3,9.284401E-3,-3.0786514E-3],"categories":[],"categories_nodes":[],"categories_segments":[],"categories_sizes":[],"default_left":[0,0,0,0,0,0,0,0,0,0,0,0,0,0,0,0,0,0,0,0,0],"id":59,"left_children":[1,3,5,7,9,11,13,-1,15,17,-1,-1,-1,19,-1,-1,-1,-1,-1,-1,-1],"loss_changes":[5.583898E1,2.928818E1,1.2491772E1,1.2966644E1,9.539061E0,2.2887497E0,2.1709692E0,0E0,1.4818444E0,2.2866673E0,0E0,0E0,0E0,7.1623586E-2,0E0,0E0,0E0,0E0,0E0,0E0,0E0],"parents":[2147483647,0,0,1,1,2,2,3,3,4,4,5,5,6,6,8,8,9,9,13,13],"right_children":[2,4,6,8,10,12,14,-1,16,18,-1,-1,-1,20,-1,-1,-1,-1,-1,-1,-1],"split_conditions":[4E0,2.5E0,1E0,6.2E0,4.1E0,1.6E-1,3E0,-1.7448603E-1,6.1E-1,6.8E0,6.4447634E-2,1.964985E-1,7.6276876E-2,2.9E-1,6.3303314E-2,-1.9974137E-2,-7.44847E-2,-3.6288045E-2,3.657937E-3,9.284401E-3,-3.0786514E-3],"split_indices":[2,8,6,6,8,0,4,0,0,5,0,0,0,0,0,0,0,0,0,0,0],"split_type":[0,0,0,0,0,0,0,0,0,0,0,0,0,0,0,0,0,0,0,0,0],"sum_hessian":[3.6E1,2.6E1,1E1,9E0,1.7E1,5E0,5E0,3E0,6E0,1.3E1,4E0,2E0,3E0,3E0,2E0,4E0,2E0,6E0,7E0,1E0,2E0],"tree_param":{"num_deleted":"0","num_feature":"11","num_nodes":"21","size_leaf_vector":"1"}},{"base_weights":[1.179841E-2,-8.2274896E-1,1.8315564E0,-1.3733883E-1,-3.0060464E-1,3.852745E-1,2.6029642E0,-1.0783501E0,3.0775484E-1,7.937527E-2,4.0221788E-2,1.4640847E-1,1.6293336E-2,-6.945828E-2,3.1681062E-4,6.464519E-2,-8.214208E-3,-4.2482377E-3,8.123843E-3],"categories":[],"categories_nodes":[],"categories_segments":[],"categories_sizes":[],"default_left":[0,0,0,0,0,0,0,0,0,0,0,0,0,0,0,0,0,0,0],"id":60,"left_children":[1,3,5,-1,7,9,11,13,15,17,-1,-1,-1,-1,-1,-1,-1,-1,-1],"loss_changes":[5.3141834E1,2.3285189E1,1.126955E1,0E0,9.794844E0,5.7725316E-1,4.229477E0,3.0430384E0,5.792749E0,6.843248E-2,0E0,0E0,0E0,0E0,0E0,0E0,0E0,0E0,0E0],"parents":[2147483647,0,0,1,1,2,2,4,4,5,5,6,6,7,7,8,8,9,9],"right_children":[2,4,6,-1,8,10,12,14,16,18,-1,-1,-1,-1,-1,-1,-1,-1,-1],"split_conditions":[3E0,3E0,1.2E1,-1.3733883E-1,1.82E1,5E0,3E0,1.5E1,4.02E1,1E0,4.0221788E-2,1.4640847E-1,1.6293336E-2,-6.945828E-2,3.1681062E-4,6.464519E-2,-8.214208E-3,-4.2482377E-3,8.123843E-3],"split_indices":[1,3,3,0,6,2,6,3,6,6,0,0,0,0,0,0,0,0,0],"split_type":[0,0,0,0,0,0,0,0,0,0,0,0,0,0,0,0,0,0,0],"sum_hessian":[3.3E1,2.3E1,1E1,4E0,1.9E1,4E0,6E0,8E0,1.1E1,3E0,1E0,5E0,1E0,6E0,2E0,3E0,8E0,1E0,2E0],"tree_param":{"num_deleted":"0","num_feature":"11","num_nodes":"19","size_leaf_vector":"1"}},{"base_weights":[8.0942154E-2,-6.370969E-1,1.8679454E0,2.489169E-1,-1.6176882E0,2.7991726E0,3.768837E-1,-2.3283882E-1,5.813225E-2,-9.242439E-1,-1.386758E-1,1.8506838E-1,7.113667E-2,4.2527962E-2,4.5825005E-2,-2.6263079E-2,8.231811E-3,-1.6907196E-2,-6.6274755E-2,8.849144E-3,-2.844429E-3],"categories":[],"categories_nodes":[],"categories_segments":[],"categories_sizes":[],"default_left":[0,0,0,0,0,0,0,0,0,0,0,0,0,0,0,0,0,0,0,0,0],"id":61,"left_children":[1,3,5,7,9,11,13,15,-1,17,-1,-1,-1,-1,19,-1,-1,-1,-1,-1,-1],"loss_changes":[4.4816757E1,2.2123102E1,1.2830208E1,6.433421E0,7.0546207E0,2.1848412E0,7.4509513E-1,1.2487845E0,0E0,1.6683521E0,0E0,0E0,0E0,0E0,6.395509E-2,0E0,0E0,0E0,0E0,0E0,0E0],"parents":[2147483647,0,0,1,1,2,2,3,3,4,4,5,5,6,6,7,7,9,9,14,14],"right_children":[2,4,6,8,10,12,14,16,-1,18,-1,-1,-1,-1,20,-1,-1,-1,-1,-1,-1],"split_conditions":[4E0,2.2E0,1E0,2.9E1,4.7E0,1.6E-1,1.5E-1,3E0,5.813225E-2,5.2E1,-1.386758E-1,1.8506838E-1,7.113667E-2,4.2527962E-2,2.9E-1,-2.6263079E-2,8.231811E-3,-1.6907196E-2,-6.6274755E-2,8.849144E-3,-2.844429E-3],"split_indices":[2,7,6,3,7,0,0,2,0,6,0,0,0,0,0,0,0,0,0,0,0],"split_type":[0,0,0,0,0,0,0,0,0,0,0,0,0,0,0,0,0,0,0,0,0],"sum_hessian":[3.3E1,2.4E1,9E0,1.3E1,1.1E1,5E0,4E0,9E0,4E0,8E0,3E0,2E0,3E0,1E0,3E0,5E0,4E0,4E0,4E0,1E0,2E0],"tree_param":{"num_deleted":"0","num_feature":"11","num_nodes":"21","size_leaf_vector":"1"}},{"base_weights":[1.1356455E-1,-4.6884835E-1,2.0650125E0,-2.2154732E0,-6.876257E-2,2.862378E0,5.520525E-1,-1.4769574E-1,-3.6927033E-2,-3.9896032E-1,9.3329114E-1,4.1464806E-2,3.1633244E0,1.2139257E-1,4.6100806E-2,-3.58668E-2,-3.6263086E-3,4.7664644E-4,5.5806812E-2,1.7889951E-1,4.798317E-2,8.627892E-3,4.7655107E-4],"categories":[],"categories_nodes":[],"categories_segments":[],"categories_sizes":[],"default_left":[0,0,0,0,0,0,0,0,0,0,0,0,0,0,0,0,0,0,0,0,0,0,0],"id":62,"left_children":[1,3,5,7,9,11,13,-1,-1,15,17,-1,19,21,-1,-1,-1,-1,-1,-1,-1,-1,-1],"loss_changes":[3.9610825E1,1.8715252E1,8.070873E0,3.271555E0,7.982491E0,4.359131E-1,5.2538824E-1,0E0,0E0,1.818691E0,1.0027876E0,0E0,2.2146225E-1,1.5525624E-2,0E0,0E0,0E0,0E0,0E0,0E0,0E0,0E0,0E0],"parents":[2147483647,0,0,1,1,2,2,3,3,4,4,5,5,6,6,9,9,10,10,12,12,13,13],"right_children":[2,4,6,8,10,12,14,-1,-1,16,18,-1,20,22,-1,-1,-1,-1,-1,-1,-1,-1,-1],"split_conditions":[4E0,2E0,2E-1,1.4E-1,2.9E1,3E0,3E0,-1.4769574E-1,-3.6927033E-2,7.2E0,1.2E-1,4.1464806E-2,1.6E-1,2.9E-1,4.6100806E-2,-3.58668E-2,-3.6263086E-3,4.7664644E-4,5.5806812E-2,1.7889951E-1,4.798317E-2,8.627892E-3,4.7655107E-4],"split_indices":[2,3,0,0,3,1,4,0,0,5,0,0,0,0,0,0,0,0,0,0,0,0,0],"split_type":[0,0,0,0,0,0,0,0,0,0,0,0,0,0,0,0,0,0,0,0,0,0,0],"sum_hessian":[3.3E1,2.6E1,7E0,4E0,2.2E1,4E0,3E0,2E0,2E0,1.7E1,5E0,1E0,3E0,2E0,1E0,8E0,9E0,1E0,4E0,2E0,1E0,1E0,1E0],"tree_param":{"num_deleted":"0","num_feature":"11","num_nodes":"23","size_leaf_vector":"1"}},{"base_weights":[1.0982561E-1,-5.56716E-1,2.17904E0,-1.0366514E0,5.9272814E-1,2.4876764E0,4.6463014E-4,-1.9934298E0,-5.1531893E-1,1.7180634E-1,8.1091994E-1,3.72221E-2,1.3270709E-1,-1.8442536E-2,-1.3567534E-1,-2.43632E-3,-2.9786214E-2,8.644104E-4,1.0877482E-2,5.8575314E-2,9.001351E-3],"categories":[],"categories_nodes":[],"categories_segments":[],"categories_sizes":[],"default_left":[0,0,0,0,0,0,0,0,0,0,0,0,0,0,0,0,0,0,0,0,0],"id":63,"left_children":[1,3,5,7,9,11,-1,13,15,17,19,-1,-1,-1,-1,-1,-1,-1,-1,-1,-1],"loss_changes":[4.5348064E1,1.4405926E1,5.3341866E0,7.9511414E0,5.9541225E-1,5.5461884E-2,0E0,6.018051E0,4.586873E-1,2.4511628E-2,9.265537E-1,0E0,0E0,0E0,0E0,0E0,0E0,0E0,0E0,0E0,0E0],"parents":[2147483647,0,0,1,1,2,2,3,3,4,4,5,5,7,7,8,8,9,9,10,10],"right_children":[2,4,6,8,10,12,-1,14,16,18,20,-1,-1,-1,-1,-1,-1,-1,-1,-1,-1],"split_conditions":[4E0,1.6E1,3.2E-1,3.4E0,2.9E1,4E0,4.6463014E-4,1.8E0,2.2E-1,2.6E-1,1.8E0,3.72221E-2,1.3270709E-1,-1.8442536E-2,-1.3567534E-1,-2.43632E-3,-2.9786214E-2,8.644104E-4,1.0877482E-2,5.8575314E-2,9.001351E-3],"split_indices":[2,3,0,5,3,3,0,7,0,0,7,0,0,0,0,0,0,0,0,0,0],"split_type":[0,0,0,0,0,0,0,0,0,0,0,0,0,0,0,0,0,0,0,0,0],"sum_hessian":[3.1E1,2.4E1,7E0,1.7E1,7E0,6E0,1E0,5E0,1.2E1,3E0,4E0,1E0,5E0,2E0,3E0,2E0,1E1,1E0,2E0,2E0,2E0],"tree_param":{"num_deleted":"0","num_feature":"11","num_nodes":"21","size_leaf_vector":"1"}},{"base_weights":[2.3037371E-1,-5.3513485E-1,1.567014E0,-1.8475524E-1,-1.404707E-1,1.7553654E-1,1.1124767E0,5.2308494E-1,-5.027636E-1,3.627327E-1,7.2100356E-2,-1.6107304E-2,4.628033E-2,-5.4423142E-2,-1.328168E-2,3.694582E-3,3.7952423E-2],"categories":[],"categories_nodes":[],"categories_segments":[],"categories_sizes":[],"default_left":[0,0,0,0,0,0,0,0,0,0,0,0,0,0,0,0,0],"id":64,"left_children":[1,3,5,7,-1,-1,9,11,13,15,-1,-1,-1,-1,-1,-1,-1],"loss_changes":[3.6650898E1,1.7808748E1,7.5797863E0,4.990069E0,0E0,0E0,2.4416971E0,2.6797466E0,1.7941709E0,5.16274E-1,0E0,0E0,0E0,0E0,0E0,0E0,0E0],"parents":[2147483647,0,0,1,1,2,2,3,3,6,6,7,7,8,8,9,9],"right_children":[2,4,6,8,-1,-1,10,12,14,16,-1,-1,-1,-1,-1,-1,-1],"split_conditions":[3E0,4.7E0,1.1E0,2.5E0,-1.404707E-1,1.7553654E-1,1.7E0,3E0,1.8E0,1.2E1,7.2100356E-2,-1.6107304E-2,4.628033E-2,-5.4423142E-2,-1.328168E-2,3.694582E-3,3.7952423E-2],"split_indices":[1,7,7,5,0,0,7,4,8,3,0,0,0,0,0,0,0],"split_type":[0,0,0,0,0,0,0,0,0,0,0,0,0,0,0,0,0],"sum_hessian":[3.4E1,2.2E1,1.2E1,2E1,2E0,1E0,1.1E1,6E0,1.4E1,4E0,7E0,2E0,4E0,3E0,1.1E1,3E0,1E0],"tree_param":{"num_deleted":"0","num_feature":"11","num_nodes":"17","size_leaf_vector":"1"}},{"base_weights":[3.8103394E-2,1.8582263E0,-5.2339995E-1,1.145698E0,1.711481E-1,-1.7121713E0,1.0006353E-1,6.516501E-2,5.0021173E-3,-1.4872208E-1,-5.85296E-1,-4.3577768E-2,2.759881E-1,-4.1146424E-2,-3.6677045E-3,5.0862074E-2,1.3340143E-3],"categories":[],"categories_nodes":[],"categories_segments":[],"categories_sizes":[],"default_left":[0,0,0,0,0,0,0,0,0,0,0,0,0,0,0,0,0],"id":65,"left_children":[1,3,5,7,-1,9,11,-1,-1,-1,13,-1,15,-1,-1,-1,-1],"loss_changes":[3.469876E1,4.9976673E0,1.9441372E1,1.0231972E0,0E0,1.106086E1,3.3173082E0,0E0,0E0,0E0,6.69559E-1,0E0,2.9296641E0,0E0,0E0,0E0,0E0],"parents":[2147483647,0,0,1,1,2,2,3,3,5,5,6,6,10,10,12,12],"right_children":[2,4,6,8,-1,10,12,-1,-1,-1,14,-1,16,-1,-1,-1,-1],"split_conditions":[9E-1,4.5E0,2.5E0,4.02E1,1.711481E-1,6.2E0,1.1E-1,6.516501E-2,5.0021173E-3,-1.4872208E-1,2.2E0,-4.3577768E-2,2.2E-1,-4.1146424E-2,-3.6677045E-3,5.0862074E-2,1.3340143E-3],"split_indices":[5,8,8,6,0,6,0,0,0,0,8,0,0,0,0,0,0],"split_type":[0,0,0,0,0,0,0,0,0,0,0,0,0,0,0,0,0],"sum_hessian":[3.2E1,7E0,2.5E1,6E0,1E0,8E0,1.7E1,5E0,1E0,3E0,5E0,2E0,1.5E1,3E0,2E0,3E0,1.2E1],"tree_param":{"num_deleted":"0","num_feature":"11","num_nodes":"17","size_leaf_vector":"1"}},{"base_weights":[-1.3218127E-2,-6.689202E-1,1.2992028E0,-3.513638E-1,-1.1638198E-1,5.875553E-1,2.753521E0,-6.2477535E-1,5.274315E-1,7.996543E-1,6.9493294E-2,1.606851E-1,3.4324456E-2,6.769524E-3,-4.258182E-2,5.174408E-2,7.493019E-4,-6.998062E-4,4.687977E-2,-4.670398E-3,1.3954925E-2],"categories":[],"categories_nodes":[],"categories_segments":[],"categories_sizes":[],"default_left":[0,0,0,0,0,0,0,0,0,0,0,0,0,0,0,0,0,0,0,0,0],"id":66,"left_children":[1,3,5,7,-1,9,11,13,15,17,19,-1,-1,-1,-1,-1,-1,-1,-1,-1,-1],"loss_changes":[3.3570236E1,1.2877313E1,1.183666E1,5.8557997E0,0E0,1.0432332E0,1.5986652E0,3.2194386E0,1.5447341E0,7.9877377E-1,1.6264981E-1,0E0,0E0,0E0,0E0,0E0,0E0,0E0,0E0,0E0,0E0],"parents":[2147483647,0,0,1,1,2,2,3,3,5,5,6,6,7,7,8,8,9,9,10,10],"right_children":[2,4,6,8,-1,10,12,14,16,18,20,-1,-1,-1,-1,-1,-1,-1,-1,-1,-1],"split_conditions":[3.8E0,4.8E0,4E0,4E0,-1.1638198E-1,2.64E1,2.2E1,1.7E0,1E0,1.2E-1,4E-1,1.606851E-1,3.4324456E-2,6.769524E-3,-4.258182E-2,5.174408E-2,7.493019E-4,-6.998062E-4,4.687977E-2,-4.670398E-3,1.3954925E-2],"split_indices":[8,7,2,2,0,6,3,7,6,0,0,0,0,0,0,0,0,0,0,0,0],"split_type":[0,0,0,0,0,0,0,0,0,0,0,0,0,0,0,0,0,0,0,0,0],"sum_hessian":[3.7E1,2.5E1,1.2E1,2.2E1,3E0,9E0,3E0,1.7E1,5E0,6E0,3E0,2E0,1E0,4E0,1.3E1,2E0,3E0,1E0,5E0,2E0,1E0],"tree_param":{"num_deleted":"0","num_feature":"11","num_nodes":"21","size_leaf_vector":"1"}},{"base_weights":[2.3384264E-1,-5.2585465E-1,1.4557252E0,-8.249486E-1,4.1677934E-1,2.4794526E0,5.165307E-1,-7.31185E-2,-5.9684753E-1,2.2726694E-2,3.3595275E-2,5.129204E-2,1.55329E-1,2.2173157E-1,4.1784286E-2,-3.587246E-3,-3.8195502E-2,-2.4227144E-3,4.1272165E-3,2.468424E-2,1.5161037E-3],"categories":[],"categories_nodes":[],"categories_segments":[],"categories_sizes":[],"default_left":[0,0,0,0,0,0,0,0,0,0,0,0,0,0,0,0,0,0,0,0,0],"id":67,"left_children":[1,3,5,7,9,11,13,-1,15,17,-1,-1,-1,19,-1,-1,-1,-1,-1,-1,-1],"loss_changes":[2.6756805E1,5.418672E0,9.295555E0,1.1627378E0,4.8739552E-1,1.3711452E0,4.7330832E-1,0E0,9.9789333E-1,1.6773257E-2,0E0,0E0,0E0,2.4530259E-1,0E0,0E0,0E0,0E0,0E0,0E0,0E0],"parents":[2147483647,0,0,1,1,2,2,3,3,4,4,5,5,6,6,8,8,9,9,13,13],"right_children":[2,4,6,8,10,12,14,-1,16,18,-1,-1,-1,20,-1,-1,-1,-1,-1,-1,-1],"split_conditions":[1.2E1,3E0,3E0,1.5E0,2E0,4E0,3.3E1,-7.31185E-2,2E0,1E0,3.3595275E-2,5.129204E-2,1.55329E-1,1.4E1,4.1784286E-2,-3.587246E-3,-3.8195502E-2,-2.4227144E-3,4.1272165E-3,2.468424E-2,1.5161037E-3],"split_indices":[3,1,6,4,2,2,3,0,4,6,0,0,0,3,0,0,0,0,0,0,0],"split_type":[0,0,0,0,0,0,0,0,0,0,0,0,0,0,0,0,0,0,0,0,0],"sum_hessian":[2.7E1,1.7E1,1E1,1.3E1,4E0,4E0,6E0,2E0,1.1E1,2E0,2E0,2E0,2E0,4E0,2E0,3E0,8E0,1E0,1E0,1E0,3E0],"tree_param":{"num_deleted":"0","num_feature":"11","num_nodes":"21","size_leaf_vector":"1"}},{"base_weights":[5.9537217E-2,1.5756594E0,-4.1303647E-1,2.5518773E0,9.321861E-1,-9.818077E-1,2.664904E-1,3.2421686E-2,1.5896912E-1,5.3038027E-2,4.0184977E-3,-2.062165E0,-4.498415E-1,5.812166E-1,-2.5001398E-1,-1.1777272E-1,-2.222519E-2,-4.013863E-2,-4.153306E-3,-9.3259814E-4,4.421298E-2,5.5007933E-4,-3.8877297E-2],"categories":[],"categories_nodes":[],"categories_segments":[],"categories_sizes":[],"default_left":[0,0,0,0,0,0,0,0,0,0,0,0,0,0,0,0,0,0,0,0,0,0,0],"id":68,"left_children":[1,3,5,7,9,11,13,-1,-1,-1,-1,15,17,19,21,-1,-1,-1,-1,-1,-1,-1,-1],"loss_changes":[2.7160545E1,3.2747078E0,1.1470006E1,1.5216427E0,6.8139887E-1,8.267768E0,2.4211168E0,0E0,0E0,0E0,0E0,1.3252068E0,1.4866736E0,1.6525664E0,8.347186E-1,0E0,0E0,0E0,0E0,0E0,0E0,0E0,0E0],"parents":[2147483647,0,0,1,1,2,2,3,3,4,4,5,5,6,6,11,11,12,12,13,13,14,14],"right_children":[2,4,6,8,10,12,14,-1,-1,-1,-1,16,18,20,22,-1,-1,-1,-1,-1,-1,-1,-1],"split_conditions":[9E-1,1.6E-1,1E1,1.5E-1,1E0,3.4E0,3.8E0,3.2421686E-2,1.5896912E-1,5.3038027E-2,4.0184977E-3,2E0,8.5E0,1.9E0,5.2E-1,-1.1777272E-1,-2.222519E-2,-4.013863E-2,-4.153306E-3,-9.3259814E-4,4.421298E-2,5.5007933E-4,-3.8877297E-2],"split_indices":[5,0,3,0,6,5,5,0,0,0,0,1,5,5,0,0,0,0,0,0,0,0,0],"split_type":[0,0,0,0,0,0,0,0,0,0,0,0,0,0,0,0,0,0,0,0,0,0,0],"sum_hessian":[3.6E1,8E0,2.8E1,2E0,6E0,1.5E1,1.3E1,1E0,1E0,5E0,1E0,4E0,1.1E1,8E0,5E0,3E0,1E0,5E0,6E0,3E0,5E0,4E0,1E0],"tree_param":{"num_deleted":"0","num_feature":"11","num_nodes":"23","size_leaf_vector":"1"}},{"base_weights":[1.7910983E-2,-1.323404E0,5.6370926E-1,-1.3483803E-1,-4.7130013E-1,4.0635683E-2,1.8009295E0,-6.492742E-2,-5.6347277E-2,-4.9566948E-1,4.3947825E-1,6.372137E-1,2.3717163E0,7.486788E-3,-1.0484648E-2,-3.529505E-2,8.004698E-3,6.9787437E-3,3.5805956E-2,4.195493E-2,7.8897475E-4,1.4751753E-1,5.0125506E-2],"categories":[],"categories_nodes":[],"categories_segments":[],"categories_sizes":[],"default_left":[0,0,0,0,0,0,0,0,0,0,0,0,0,0,0,0,0,0,0,0,0,0,0],"id":69,"left_children":[1,3,5,-1,7,9,11,13,-1,15,17,19,21,-1,-1,-1,-1,-1,-1,-1,-1,-1,-1],"loss_changes":[2.783325E1,1.1601685E1,1.7400063E1,0E0,2.0583215E0,4.4958625E0,3.8025799E0,2.1785355E-1,0E0,1.3537698E0,8.956342E-1,4.8859227E-1,1.0035896E0,0E0,0E0,0E0,0E0,0E0,0E0,0E0,0E0,0E0,0E0],"parents":[2147483647,0,0,1,1,2,2,4,4,5,5,6,6,7,7,9,9,10,10,11,11,12,12],"right_children":[2,4,6,-1,8,10,12,14,-1,16,18,20,22,-1,-1,-1,-1,-1,-1,-1,-1,-1,-1],"split_conditions":[2.5E0,6.2E0,4E0,-1.3483803E-1,6.1E-1,3.6E0,3E0,5.4E1,-5.6347277E-2,1.65E1,4.1E0,2.5E-1,1E0,7.486788E-3,-1.0484648E-2,-3.529505E-2,8.004698E-3,6.9787437E-3,3.5805956E-2,4.195493E-2,7.8897475E-4,1.4751753E-1,5.0125506E-2],"split_indices":[8,6,2,0,0,8,4,6,0,5,8,0,6,0,0,0,0,0,0,0,0,0,0],"split_type":[0,0,0,0,0,0,0,0,0,0,0,0,0,0,0,0,0,0,0,0,0,0,0],"sum_hessian":[3.6E1,1E1,2.6E1,3E0,7E0,1.9E1,7E0,5E0,2E0,8E0,1.1E1,3E0,4E0,2E0,3E0,6E0,2E0,6E0,5E0,2E0,1E0,2E0,2E0],"tree_param":{"num_deleted":"0","num_feature":"11","num_nodes":"23","size_leaf_vector":"1"}},{"base_weights":[1.487635E-1,-4.4439492E-1,1.3721132E0,-1.10664E0,7.0877835E-2,1.4260039E-1,7.909336E-1,-1.2684126E-1,-5.0695163E-1,-4.1289848E-1,4.39273E-1,3.7308694E-3,8.6223346E-1,-7.963022E-3,-4.5087527E-2,-4.268203E-2,6.5534115E-3,3.7123952E-2,-2.073161E-2,5.3124394E-2,2.4476623E-2],"categories":[],"categories_nodes":[],"categories_segments":[],"categories_sizes":[],"default_left":[0,0,0,0,0,0,0,0,0,0,0,0,0,0,0,0,0,0,0,0,0],"id":70,"left_children":[1,3,5,7,9,-1,11,-1,13,15,17,-1,19,-1,-1,-1,-1,-1,-1,-1,-1],"loss_changes":[2.6732805E1,8.609357E0,8.065264E0,8.1482725E0,2.8546877E0,0E0,4.4639492E-1,0E0,1.0918E0,1.7901284E0,2.6380386E0,0E0,1.5159273E-1,0E0,0E0,0E0,0E0,0E0,0E0,0E0,0E0],"parents":[2147483647,0,0,1,1,2,2,3,3,4,4,6,6,8,8,9,9,10,10,12,12],"right_children":[2,4,6,8,10,-1,12,-1,14,16,18,-1,20,-1,-1,-1,-1,-1,-1,-1,-1],"split_conditions":[3E0,2.5E0,1.6E-1,3.4E0,2E0,1.4260039E-1,2.2E0,-1.2684126E-1,6.1E-1,3.6E0,3.8E-1,3.7308694E-3,6E-1,-7.963022E-3,-4.5087527E-2,-4.268203E-2,6.5534115E-3,3.7123952E-2,-2.073161E-2,5.3124394E-2,2.4476623E-2],"split_indices":[1,8,0,5,1,0,8,0,0,8,0,0,5,0,0,0,0,0,0,0,0],"split_type":[0,0,0,0,0,0,0,0,0,0,0,0,0,0,0,0,0,0,0,0,0],"sum_hessian":[3.5E1,2.4E1,1.1E1,1E1,1.4E1,2E0,9E0,2E0,8E0,6E0,8E0,1E0,8E0,5E0,3E0,3E0,3E0,6E0,2E0,4E0,4E0],"tree_param":{"num_deleted":"0","num_feature":"11","num_nodes":"21","size_leaf_vector":"1"}},{"base_weights":[-8.124722E-3,1.4408107E0,-4.7356382E-1,1.4774208E-1,8.822017E-1,-1.0706313E0,1.9997732E-1,3.6376E-3,4.937221E-2,-1.515085E0,-1.514365E-1,-2.9730225E-1,5.0927734E-1,-9.507603E-2,-2.3002578E-2,7.617426E-3,-2.5300218E-2,-3.8140427E-2,6.30765E-3,3.6091104E-2,3.1570436E-3],"categories":[],"categories_nodes":[],"categories_segments":[],"categories_sizes":[],"default_left":[0,0,0,0,0,0,0,0,0,0,0,0,0,0,0,0,0,0,0,0,0],"id":71,"left_children":[1,3,5,-1,7,9,11,-1,-1,13,15,17,19,-1,-1,-1,-1,-1,-1,-1,-1],"loss_changes":[2.49604E1,5.0049953E0,1.1474288E1,0E0,6.096697E-1,5.898655E0,2.3047295E0,0E0,0E0,3.2022285E0,7.233634E-1,1.2789569E0,8.0783916E-1,0E0,0E0,0E0,0E0,0E0,0E0,0E0,0E0],"parents":[2147483647,0,0,1,1,2,2,4,4,5,5,6,6,9,9,10,10,11,11,12,12],"right_children":[2,4,6,-1,8,10,12,-1,-1,14,16,18,20,-1,-1,-1,-1,-1,-1,-1,-1],"split_conditions":[9E-1,1.1E0,3.1E0,1.4774208E-1,2.2E0,1.25E1,2E0,3.6376E-3,4.937221E-2,3E0,6.2E-1,3.6E0,3.3E-1,-9.507603E-2,-2.3002578E-2,7.617426E-3,-2.5300218E-2,-3.8140427E-2,6.30765E-3,3.6091104E-2,3.1570436E-3],"split_indices":[5,7,8,0,8,5,1,0,0,2,0,8,0,0,0,0,0,0,0,0,0],"split_type":[0,0,0,0,0,0,0,0,0,0,0,0,0,0,0,0,0,0,0,0,0],"sum_hessian":[3.5E1,8E0,2.7E1,1E0,7E0,1.4E1,1.3E1,1E0,6E0,9E0,5E0,5E0,8E0,6E0,3E0,3E0,2E0,2E0,3E0,5E0,3E0],"tree_param":{"num_deleted":"0","num_feature":"11","num_nodes":"21","size_leaf_vector":"1"}},{"base_weights":[-1.4132182E-3,-4.93476E-1,1.201564E0,-1.0887642E0,-7.554245E-2,1.440485E-1,6.3151693E-1,-9.5257446E-2,-5.833473E-1,-4.2435026E-1,3.3388683E-1,4.1615646E-2,1.9419352E-2,-7.476171E-4,-4.038574E-2,-1.6784192E-3,-3.2605287E-2,-1.5892506E-3,3.080435E-2,-2.090168E-3,3.5466196E-3],"categories":[],"categories_nodes":[],"categories_segments":[],"categories_sizes":[],"default_left":[0,0,0,0,0,0,0,0,0,0,0,0,0,0,0,0,0,0,0,0,0],"id":72,"left_children":[1,3,5,7,9,-1,11,-1,13,15,17,-1,19,-1,-1,-1,-1,-1,-1,-1,-1],"loss_changes":[1.8351152E1,5.3911514E0,6.7966824E0,2.6021671E0,2.1410546E0,0E0,9.670913E-1,0E0,8.8062835E-1,6.901314E-1,7.419309E-1,0E0,1.2426516E-2,0E0,0E0,0E0,0E0,0E0,0E0,0E0,0E0],"parents":[2147483647,0,0,1,1,2,2,3,3,4,4,6,6,8,8,9,9,10,10,12,12],"right_children":[2,4,6,8,10,-1,12,-1,14,16,18,-1,20,-1,-1,-1,-1,-1,-1,-1,-1],"split_conditions":[4E0,2.5E0,1.1E0,6.2E0,1.54E1,1.440485E-1,4.02E1,-9.5257446E-2,5.2E1,2E0,2.1E0,4.1615646E-2,4E0,-7.476171E-4,-4.038574E-2,-1.6784192E-3,-3.2605287E-2,-1.5892506E-3,3.080435E-2,-2.090168E-3,3.5466196E-3],"split_indices":[2,8,7,6,6,0,6,0,6,2,7,0,3,0,0,0,0,0,0,0,0],"split_type":[0,0,0,0,0,0,0,0,0,0,0,0,0,0,0,0,0,0,0,0,0],"sum_hessian":[2.9E1,2.1E1,8E0,8E0,1.3E1,1E0,7E0,2E0,6E0,7E0,6E0,5E0,2E0,2E0,4E0,3E0,4E0,3E0,3E0,1E0,1E0],"tree_param":{"num_deleted":"0","num_feature":"11","num_nodes":"21","size_leaf_vector":"1"}},{"base_weights":[1.398722E-1,-3.4789643E-1,1.4250472E0,-8.573851E-1,3.3217067E-1,2.2468796E0,6.39651E-1,-9.4229275E-1,6.1603547E-3,-3.2309532E-2,4.7288942E-1,2.7155114E-2,1.3168857E-1,7.7232283E-1,-5.927086E-4,-6.3219234E-2,-2.9146863E-2,-4.278628E-3,3.1869889E-3,3.24572E-2,6.7174435E-3,3.4579278E-3,4.6541214E-2],"categories":[],"categories_nodes":[],"categories_segments":[],"categories_sizes":[],"default_left":[0,0,0,0,0,0,0,0,0,0,0,0,0,0,0,0,0,0,0,0,0,0,0],"id":73,"left_children":[1,3,5,7,9,11,13,15,-1,17,19,-1,-1,21,-1,-1,-1,-1,-1,-1,-1,-1,-1],"loss_changes":[2.0555544E1,8.600473E0,4.371958E0,1.2817345E0,5.7946014E-1,1.2063026E0,5.277736E-1,7.676344E-1,0E0,2.5917886E-2,3.9014268E-1,0E0,0E0,4.9288845E-1,0E0,0E0,0E0,0E0,0E0,0E0,0E0,0E0,0E0],"parents":[2147483647,0,0,1,1,2,2,3,3,4,4,5,5,6,6,7,7,9,9,10,10,13,13],"right_children":[2,4,6,8,10,12,14,16,-1,18,20,-1,-1,22,-1,-1,-1,-1,-1,-1,-1,-1,-1],"split_conditions":[4E0,3.3E0,1.6E-1,1.5E1,2E0,3E0,3.3E-1,2.4E0,6.1603547E-3,3.1E-1,2.6E-1,2.7155114E-2,1.3168857E-1,1.4E0,-5.927086E-4,-6.3219234E-2,-2.9146863E-2,-4.278628E-3,3.1869889E-3,3.24572E-2,6.7174435E-3,3.4579278E-3,4.6541214E-2],"split_indices":[2,8,0,3,2,1,0,7,0,0,0,0,0,7,0,0,0,0,0,0,0,0,0],"split_type":[0,0,0,0,0,0,0,0,0,0,0,0,0,0,0,0,0,0,0,0,0,0,0],"sum_hessian":[3.1E1,2.3E1,8E0,1.3E1,1E1,3E0,5E0,1.2E1,1E0,3E0,7E0,1E0,2E0,4E0,1E0,5E0,7E0,2E0,1E0,4E0,3E0,1E0,3E0],"tree_param":{"num_deleted":"0","num_feature":"11","num_nodes":"23","size_leaf_vector":"1"}},{"base_weights":[1.3291709E-1,-9.472388E-1,6.8928146E-1,-1.6438296E0,-1.1532811E-1,1.3221105E0,-1.064593E-1,-1.1785462E-1,-5.1960945E-1,1.2448196E-1,-4.7656885E-1,1.3715497E-1,1.0017961E0,1.5389824E-2,-2.200901E-1,-3.3090338E-2,-2.3254396E-3,1.0266877E-2,-4.973507E-3,-7.507515E-3,-2.823515E-2,3.3715249E-3,5.3702038E-2,7.635069E-3,-2.008362E-2],"categories":[],"categories_nodes":[],"categories_segments":[],"categories_sizes":[],"default_left":[0,0,0,0,0,0,0,0,0,0,0,0,0,0,0,0,0,0,0,0,0,0,0,0,0],"id":74,"left_children":[1,3,5,7,9,11,13,-1,15,17,19,-1,21,-1,23,-1,-1,-1,-1,-1,-1,-1,-1,-1,-1],"loss_changes":[2.2888445E1,7.343938E0,1.2729948E1,4.388281E0,6.6572845E-1,3.62426E0,6.326096E-1,0E0,2.3831463E-1,1.1096382E-1,1.5155077E-3,0E0,8.051138E-1,0E0,7.382591E-1,0E0,0E0,0E0,0E0,0E0,0E0,0E0,0E0,0E0,0E0],"parents":[2147483647,0,0,1,1,2,2,3,3,4,4,5,5,6,6,8,8,9,9,10,10,12,12,14,14],"right_children":[2,4,6,8,10,12,14,-1,16,18,20,-1,22,-1,24,-1,-1,-1,-1,-1,-1,-1,-1,-1,-1],"split_conditions":[2E0,6.2E0,3.3E-1,2.5E0,2.9E0,1.1E0,1E0,-1.1785462E-1,1.1E-1,4.9E-1,2.8E-1,1.3715497E-1,2.2E0,1.5389824E-2,1.7E0,-3.3090338E-2,-2.3254396E-3,1.0266877E-2,-4.973507E-3,-7.507515E-3,-2.823515E-2,3.3715249E-3,5.3702038E-2,7.635069E-3,-2.008362E-2],"split_indices":[1,6,0,8,7,7,6,0,0,0,0,0,8,0,7,0,0,0,0,0,0,0,0,0,0],"split_type":[0,0,0,0,0,0,0,0,0,0,0,0,0,0,0,0,0,0,0,