{"learner":{"attributes":{},"feature_names":["vegetation_index","flood_proximity_score","extreme_wind_count","infrastructure_hazard","urbanization_index","slope_gradient","snowfall_risk","soil_drainage_ratio","crime_risk_index","is_soil_fallback","is_crime_fallback"],"feature_types":[],"gradient_booster":{"model":{"gbtree_model_param":{"num_parallel_tree":"1","num_trees":"120"},"iteration_indptr":[0,1,2,3,4,5,6,7,8,9,10,11,12,13,14,15,16,17,18,19,20,21,22,23,24,25,26,27,28,29,30,31,32,33,34,35,36,37,38,39,40,41,42,43,44,45,46,47,48,49,50,51,52,53,54,55,56,57,58,59,60,61,62,63,64,65,66,67,68,69,70,71,72,73,74,75,76,77,78,79,80,81,82,83,84,85,86,87,88,89,90,91,92,93,94,95,96,97,98,99,100,101,102,103,104,105,106,107,108,109,110,111,112,113,114,115,116,117,118,119,120],"tree_info":[0,0,0,0,0,0,0,0,0,0,0,0,0,0,0,0,0,0,0,0,0,0,0,0,0,0,0,0,0,0,0,0,0,0,0,0,0,0,0,0,0,0,0,0,0,0,0,0,0,0,0,0,0,0,0,0,0,0,0,0,0,0,0,0,0,0,0,0,0,0,0,0,0,0,0,0,0,0,0,0,0,0,0,0,0,0,0,0,0,0,0,0,0,0,0,0,0,0,0,0,0,0,0,0,0,0,0,0,0,0,0,0,0,0,0,0,0,0,0,0],"trees":[{"base_weights":[1.1255859E-1,-1.1503636E1,1.1723637E1,1.2768E0,-1.5559999E1,1.7362501E1,-2.8399997E0,-2.376E0,-1.0378666E0,2.5112727E0,9.52E-1,-4.5407996E-1,-3.839996E-2],"categories":[],"categories_nodes":[],"categories_segments":[],"categories_sizes":[],"default_left":[0,0,0,0,0,0,0,0,0,0,0,0,0],"id":0,"left_children":[1,3,5,-1,7,9,11,-1,-1,-1,-1,-1,-1],"loss_changes":[5.9345557E3,2.1416565E3,1.856001E3,0E0,3.8551123E2,3.7178223E2,1.544128E1,0E0,0E0,0E0,0E0,0E0,0E0],"parents":[2147483647,0,0,1,1,2,2,4,4,5,5,6,6],"right_children":[2,4,6,-1,8,10,12,-1,-1,-1,-1,-1,-1],"split_conditions":[9E0,6E-1,3.5E0,1.2768E0,3E0,2.9E-1,1.5E1,-2.376E0,-1.0378666E0,2.5112727E0,9.52E-1,-4.5407996E-1,-3.839996E-2],"split_indices":[3,5,5,0,2,0,3,0,0,0,0,0,0],"split_type":[0,0,0,0,0,0,0,0,0,0,0,0,0],"sum_hessian":[4.2E1,2.1E1,2.1E1,3E0,1.8E1,1.5E1,6E0,1E1,8E0,1E1,5E0,4E0,2E0],"tree_param":{"num_deleted":"0","num_feature":"11","num_nodes":"13","size_leaf_vector":"1"}},{"base_weights":[2.3960787E-1,-1.0514227E1,1.191814E1,-1.2797482E1,1.2594562E0,1.5643295E1,1.1687464E0,-2.189632E0,-8.642382E-1,1.5408005E-1,1.97526E0,-2.7543487E-2,5.735039E-1],"categories":[],"categories_nodes":[],"categories_segments":[],"categories_sizes":[],"default_left":[0,0,0,0,0,0,0,0,0,0,0,0,0],"id":1,"left_children":[1,3,5,7,-1,9,11,-1,-1,-1,-1,-1,-1],"loss_changes":[6.0279937E3,1.3335776E3,9.027095E2,5.6991064E2,0E0,1.7835156E2,3.643582E1,0E0,0E0,0E0,0E0,0E0,0E0],"parents":[2147483647,0,0,1,1,2,2,3,3,5,5,6,6],"right_children":[2,4,6,8,-1,10,12,-1,-1,-1,-1,-1,-1],"split_conditions":[3.5E0,3E0,3.5E0,2.2E0,1.2594562E0,2E0,1.18E1,-2.189632E0,-8.642382E-1,1.5408005E-1,1.97526E0,-2.7543487E-2,5.735039E-1],"split_indices":[8,1,5,8,0,1,5,0,0,0,0,0,0],"split_type":[0,0,0,0,0,0,0,0,0,0,0,0,0],"sum_hessian":[4.6E1,2.4E1,2.2E1,2.2E1,2E0,1.6E1,6E0,1E1,1.2E1,1E0,1.5E1,5E0,1E0],"tree_param":{"num_deleted":"0","num_feature":"11","num_nodes":"13","size_leaf_vector":"1"}},{"base_weights":[9.256986E-1,-8.344031E0,9.38438E0,-1.2052336E1,6.674669E0,1.3385399E1,-2.908311E-1,-1.8065904E0,-8.852378E-1,1.0485371E0,-9.467354E-2,2.0545597E0,6.722934E-1,-3.8702178E-1,2.5377786E-1],"categories":[],"categories_nodes":[],"categories_segments":[],"categories_sizes":[],"default_left":[0,0,0,0,0,0,0,0,0,0,0,0,0,0,0],"id":2,"left_children":[1,3,5,7,9,11,13,-1,-1,-1,-1,-1,-1,-1,-1],"loss_changes":[3.60674E3,1.3057113E3,9.329497E2,1.4162695E2,8.388609E1,3.9838086E2,6.3292747E1,0E0,0E0,0E0,0E0,0E0,0E0,0E0,0E0],"parents":[2147483647,0,0,1,1,2,2,3,3,4,4,5,5,6,6],"right_children":[2,4,6,8,10,12,14,-1,-1,-1,-1,-1,-1,-1,-1],"split_conditions":[1E1,4E0,3.5E0,3E0,3.2E-1,2.9E-1,3.3E0,-1.8065904E0,-8.852378E-1,1.0485371E0,-9.467354E-2,2.0545597E0,6.722934E-1,-3.8702178E-1,2.5377786E-1],"split_indices":[3,2,5,2,0,0,8,0,0,0,0,0,0,0,0],"split_type":[0,0,0,0,0,0,0,0,0,0,0,0,0,0,0],"sum_hessian":[4.4E1,2.1E1,2.3E1,1.7E1,4E0,1.6E1,7E0,9E0,8E0,3E0,1E0,1E1,6E0,3E0,4E0],"tree_param":{"num_deleted":"0","num_feature":"11","num_nodes":"15","size_leaf_vector":"1"}},{"base_weights":[-5.2232736E-1,-9.314039E0,8.674343E0,-1.1018517E1,7.548166E-1,3.9196517E0,1.4463476E1,-1.7737825E0,-7.9810625E-1,6.9711864E-2,9.929347E-1,3.5363555E-1,2.036908E0],"categories":[],"categories_nodes":[],"categories_segments":[],"categories_sizes":[],"default_left":[0,0,0,0,0,0,0,0,0,0,0,0,0],"id":3,"left_children":[1,3,5,7,-1,9,11,-1,-1,-1,-1,-1,-1],"loss_changes":[3.800099E3,7.07635E2,5.763955E2,2.632688E2,0E0,1.9874567E2,2.391294E2,0E0,0E0,0E0,0E0,0E0,0E0],"parents":[2147483647,0,0,1,1,2,2,3,3,5,5,6,6],"right_children":[2,4,6,8,-1,10,12,-1,-1,-1,-1,-1,-1],"split_conditions":[1E1,3E0,3E0,2.2E0,7.548166E-1,4.1E0,1.2E1,-1.7737825E0,-7.9810625E-1,6.9711864E-2,9.929347E-1,3.5363555E-1,2.036908E0],"split_indices":[3,1,1,8,0,8,3,0,0,0,0,0,0],"split_type":[0,0,0,0,0,0,0,0,0,0,0,0,0],"sum_hessian":[4.5E1,2.3E1,2.2E1,2.1E1,2E0,1.3E1,9E0,1E1,1.1E1,8E0,5E0,2E0,7E0],"tree_param":{"num_deleted":"0","num_feature":"11","num_nodes":"13","size_leaf_vector":"1"}},{"base_weights":[4.4712725E-1,-4.5305862E0,1.3814269E1,-9.407447E0,2.5990572E0,1.4617092E1,2.5082335E-1,-1.5989618E0,-7.796479E-1,6.923513E-1,-1.0756341E-1,1.8200542E0,5.1400864E-1],"categories":[],"categories_nodes":[],"categories_segments":[],"categories_sizes":[],"default_left":[0,0,0,0,0,0,0,0,0,0,0,0,0],"id":4,"left_children":[1,3,5,7,9,11,-1,-1,-1,-1,-1,-1,-1],"loss_changes":[3.1898633E3,1.2414102E3,9.180835E1,1.5284216E2,1.7140695E2,3.2382812E0,0E0,0E0,0E0,0E0,0E0,0E0,0E0],"parents":[2147483647,0,0,1,1,2,2,3,3,4,4,5,5],"right_children":[2,4,6,8,10,12,-1,-1,-1,-1,-1,-1,-1],"split_conditions":[3E0,1E1,1.8E1,3E0,2.5E0,3.6E-1,2.5082335E-1,-1.5989618E0,-7.796479E-1,6.923513E-1,-1.0756341E-1,1.8200542E0,5.1400864E-1],"split_indices":[1,3,6,3,5,0,0,0,0,0,0,0,0],"split_type":[0,0,0,0,0,0,0,0,0,0,0,0,0],"sum_hessian":[4.6E1,3.4E1,1.2E1,2E1,1.4E1,1.1E1,1E0,7E0,1.3E1,7E0,7E0,1E1,1E0],"tree_param":{"num_deleted":"0","num_feature":"11","num_nodes":"13","size_leaf_vector":"1"}},{"base_weights":[1.3669918E-1,-8.4541855E0,5.286673E0,-1.0836546E1,-1.883372E0,8.946357E0,-1.8479046E0,6.290428E-2,-1.419235E0,-3.794942E-1,5.3983E-2,1.2166904E0,1.9688015E-1,-3.9013276E-1,3.5732025E-1],"categories":[],"categories_nodes":[],"categories_segments":[],"categories_sizes":[],"default_left":[0,0,0,0,0,0,0,0,0,0,0,0,0,0,0],"id":5,"left_children":[1,3,5,7,9,11,13,-1,-1,-1,-1,-1,-1,-1,-1],"loss_changes":[2.1241077E3,2.6136365E2,7.9984094E2,1.5247351E2,1.9328981E1,1.576394E2,8.41645E1,0E0,0E0,0E0,0E0,0E0,0E0,0E0,0E0],"parents":[2147483647,0,0,1,1,2,2,3,3,4,4,5,5,6,6],"right_children":[2,4,6,8,10,12,14,-1,-1,-1,-1,-1,-1,-1,-1],"split_conditions":[2E0,9E0,3.6E-1,2.2E0,1.5E1,3.5E0,3E0,6.290428E-2,-1.419235E0,-3.794942E-1,5.3983E-2,1.2166904E0,1.9688015E-1,-3.9013276E-1,3.5732025E-1],"split_indices":[1,3,0,7,3,5,1,0,0,0,0,0,0,0,0],"split_type":[0,0,0,0,0,0,0,0,0,0,0,0,0,0,0],"sum_hessian":[4.6E1,1.7E1,2.9E1,1.2E1,5E0,1.9E1,1E1,1E0,1.1E1,3E0,2E0,1.6E1,3E0,8E0,2E0],"tree_param":{"num_deleted":"0","num_feature":"11","num_nodes":"15","size_leaf_vector":"1"}},{"base_weights":[4.5841047E-1,-4.2834654E0,9.595477E0,-7.586209E0,2.7503676E0,-9.823494E-1,1.12984E1,-1.296696E0,-4.7635835E-1,1.2016427E-2,8.0408156E-1,-2.0819595E-1,3.137306E-2,1.4416633E0,1.6277252E-1],"categories":[],"categories_nodes":[],"categories_segments":[],"categories_sizes":[],"default_left":[0,0,0,0,0,0,0,0,0,0,0,0,0,0,0],"id":6,"left_children":[1,3,5,7,9,11,13,-1,-1,-1,-1,-1,-1,-1,-1],"loss_changes":[1.9041559E3,6.945624E2,2.8129736E2,1.8998132E2,1.040214E2,3.261889E0,7.617395E1,0E0,0E0,0E0,0E0,0E0,0E0,0E0,0E0],"parents":[2147483647,0,0,1,1,2,2,3,3,4,4,5,5,6,6],"right_children":[2,4,6,8,10,12,14,-1,-1,-1,-1,-1,-1,-1,-1],"split_conditions":[3E0,3.5E0,2E0,2.2E0,4.1E0,3.1E-1,1.8E1,-1.296696E0,-4.7635835E-1,1.2016427E-2,8.0408156E-1,-2.0819595E-1,3.137306E-2,1.4416633E0,1.6277252E-1],"split_indices":[1,8,2,8,8,0,6,0,0,0,0,0,0,0,0],"split_type":[0,0,0,0,0,0,0,0,0,0,0,0,0,0,0],"sum_hessian":[4.2E1,2.8E1,1.4E1,1.9E1,9E0,2E0,1.2E1,9E0,1E1,6E0,3E0,1E0,1E0,1.1E1,1E0],"tree_param":{"num_deleted":"0","num_feature":"11","num_nodes":"15","size_leaf_vector":"1"}},{"base_weights":[4.9746224E-1,9.015349E0,-3.0245342E0,-1.9570427E-1,9.959741E0,-6.8498936E0,1.707113E0,1.5300614E-1,1.2692652E0,-1.0509614E0,-4.5079798E-1,-4.7309875E-2,7.690751E-1],"categories":[],"categories_nodes":[],"categories_segments":[],"categories_sizes":[],"default_left":[0,0,0,0,0,0,0,0,0,0,0,0,0],"id":7,"left_children":[1,3,5,-1,7,9,11,-1,-1,-1,-1,-1,-1],"loss_changes":[1.4372659E3,1.5700171E2,6.2710205E2,0E0,5.6226562E1,7.924243E1,1.606112E2,0E0,0E0,0E0,0E0,0E0,0E0],"parents":[2147483647,0,0,1,1,2,2,4,4,5,5,6,6],"right_children":[2,4,6,-1,8,10,12,-1,-1,-1,-1,-1,-1],"split_conditions":[1.4E0,2E0,1E1,-1.9570427E-1,2.2E0,3E0,4.1E0,1.5300614E-1,1.2692652E0,-1.0509614E0,-4.5079798E-1,-4.7309875E-2,7.690751E-1],"split_indices":[5,2,3,0,8,2,8,0,0,0,0,0,0],"split_type":[0,0,0,0,0,0,0,0,0,0,0,0,0],"sum_hessian":[4.6E1,1.3E1,3.3E1,1E0,1.2E1,1.8E1,1.5E1,1E0,1.1E1,1E1,8E0,1.1E1,4E0],"tree_param":{"num_deleted":"0","num_feature":"11","num_nodes":"13","size_leaf_vector":"1"}},{"base_weights":[-7.608575E-1,-8.068277E0,2.5638113E0,-1.4320452E0,-5.3287334E0,7.1372676E0,4.610534E-2,-7.8029007E-1,-2.3311237E-1,3.78815E-1,1.0753025E0,-1.976491E-1,6.95244E-1],"categories":[],"categories_nodes":[],"categories_segments":[],"categories_sizes":[],"default_left":[0,0,0,0,0,0,0,0,0,0,0,0,0],"id":8,"left_children":[1,3,5,-1,7,9,11,-1,-1,-1,-1,-1,-1],"loss_changes":[1.0896545E3,8.466174E1,3.5662405E2,0E0,2.711084E1,5.1558655E1,2.1390878E2,0E0,0E0,0E0,0E0,0E0,0E0],"parents":[2147483647,0,0,1,1,2,2,4,4,5,5,6,6],"right_children":[2,4,6,-1,8,10,12,-1,-1,-1,-1,-1,-1],"split_conditions":[2.5E0,6.2E0,1.4E0,-1.4320452E0,2.2E0,1.2E1,4.2E0,-7.8029007E-1,-2.3311237E-1,3.78815E-1,1.0753025E0,-1.976491E-1,6.95244E-1],"split_indices":[8,6,5,0,8,3,8,0,0,0,0,0,0],"split_type":[0,0,0,0,0,0,0,0,0,0,0,0,0],"sum_hessian":[4.3E1,1.3E1,3E1,4E0,9E0,1E1,2E1,6E0,3E0,4E0,6E0,1.6E1,4E0],"tree_param":{"num_deleted":"0","num_feature":"11","num_nodes":"13","size_leaf_vector":"1"}},{"base_weights":[3.4958968E-1,-2.4414485E0,7.3022146E0,-5.371238E0,1.3733792E0,-9.027913E-1,8.744948E0,-8.489049E-1,-3.0045697E-1,-1.071476E-2,5.530931E-1,-2.0669082E-1,4.4188384E-2,1.1101308E0,1.90643E-1],"categories":[],"categories_nodes":[],"categories_segments":[],"categories_sizes":[],"default_left":[0,0,0,0,0,0,0,0,0,0,0,0,0,0,0],"id":9,"left_children":[1,3,5,7,9,11,13,-1,-1,-1,-1,-1,-1,-1,-1],"loss_changes":[9.4926996E2,3.9855927E2,1.7362177E2,7.995044E1,7.613637E1,3.7595856E0,2.8767883E1,0E0,0E0,0E0,0E0,0E0,0E0,0E0,0E0],"parents":[2147483647,0,0,1,1,2,2,3,3,4,4,5,5,6,6],"right_children":[2,4,6,8,10,12,14,-1,-1,-1,-1,-1,-1,-1,-1],"split_conditions":[3E0,9E0,2E0,3E0,4.2E0,1.1E0,1.8E1,-8.489049E-1,-3.0045697E-1,-1.071476E-2,5.530931E-1,-2.0669082E-1,4.4188384E-2,1.1101308E0,1.90643E-1],"split_indices":[1,3,2,2,8,5,6,0,0,0,0,0,0,0,0],"split_type":[0,0,0,0,0,0,0,0,0,0,0,0,0,0,0],"sum_hessian":[4.7E1,3.4E1,1.3E1,1.9E1,1.5E1,2E0,1.1E1,1.1E1,8E0,1.1E1,4E0,1E0,1E0,1E1,1E0],"tree_param":{"num_deleted":"0","num_feature":"11","num_nodes":"15","size_leaf_vector":"1"}},{"base_weights":[1.12384416E-1,-5.90203E0,3.2268074E0,-1.0095261E0,-2.1895251E0,6.466422E-1,6.398127E0,-3.662683E-1,1.792044E-1,2.8955993E-1,-2.362923E-1,1.4144431E-1,1.0632601E0],"categories":[],"categories_nodes":[],"categories_segments":[],"categories_sizes":[],"default_left":[0,0,0,0,0,0,0,0,0,0,0,0,0],"id":10,"left_children":[1,3,5,-1,7,9,11,-1,-1,-1,-1,-1,-1],"loss_changes":[7.6830194E2,1.1207333E2,2.1679095E2,0E0,2.6799034E1,7.867688E1,1.4378226E2,0E0,0E0,0E0,0E0,0E0,0E0],"parents":[2147483647,0,0,1,1,2,2,4,4,5,5,6,6],"right_children":[2,4,6,-1,8,10,12,-1,-1,-1,-1,-1,-1],"split_conditions":[3.1E0,2E0,3E0,-1.0095261E0,3E0,2.7E0,1.2E1,-3.662683E-1,1.792044E-1,2.8955993E-1,-2.362923E-1,1.4144431E-1,1.0632601E0],"split_indices":[8,8,1,0,1,7,3,0,0,0,0,0,0],"split_type":[0,0,0,0,0,0,0,0,0,0,0,0,0],"sum_hessian":[3.9E1,1.3E1,2.6E1,7E0,6E0,1.5E1,1.1E1,5E0,1E0,9E0,6E0,4E0,7E0],"tree_param":{"num_deleted":"0","num_feature":"11","num_nodes":"13","size_leaf_vector":"1"}},{"base_weights":[-2.1349458E-1,-2.6993668E0,6.30444E0,-5.054856E0,1.4944892E0,1.1981399E0,3.5594685E0,-4.693804E-1,-1.1066478E0,3.8865555E-2,4.856869E-1,5.2780837E-2,4.6733305E-1],"categories":[],"categories_nodes":[],"categories_segments":[],"categories_sizes":[],"default_left":[0,0,0,0,0,0,0,0,0,0,0,0,0],"id":11,"left_children":[1,3,5,7,9,-1,11,-1,-1,-1,-1,-1,-1],"loss_changes":[7.623446E2,3.4342624E2,9.5782104E1,6.874878E1,3.7538994E1,0E0,7.6920013E0,0E0,0E0,0E0,0E0,0E0,0E0],"parents":[2147483647,0,0,1,1,2,2,3,3,4,4,6,6],"right_children":[2,4,6,8,10,-1,12,-1,-1,-1,-1,-1,-1],"split_conditions":[4E0,3.5E0,2E-1,4.7E0,4.2E0,1.1981399E0,2E0,-4.693804E-1,-1.1066478E0,3.8865555E-2,4.856869E-1,5.2780837E-2,4.6733305E-1],"split_indices":[2,8,0,7,8,0,1,0,0,0,0,0,0],"split_type":[0,0,0,0,0,0,0,0,0,0,0,0,0],"sum_hessian":[4.5E1,3.3E1,1.2E1,2.1E1,1.2E1,4E0,8E0,1.8E1,3E0,9E0,3E0,1E0,7E0],"tree_param":{"num_deleted":"0","num_feature":"11","num_nodes":"13","size_leaf_vector":"1"}},{"base_weights":[5.8960706E-2,-2.0920248E0,5.68008E0,-3.7044563E0,2.7985578E0,1.0831183E0,3.1901233E0,-8.857683E-1,-2.972997E-1,4.362525E-1,1.012318E-1,4.9614027E-2,4.182631E-1],"categories":[],"categories_nodes":[],"categories_segments":[],"categories_sizes":[],"default_left":[0,0,0,0,0,0,0,0,0,0,0,0,0],"id":12,"left_children":[1,3,5,7,9,-1,11,-1,-1,-1,-1,-1,-1],"loss_changes":[5.680664E2,2.7848193E2,7.951108E1,9.901059E1,1.1657745E1,0E0,5.9410477E0,0E0,0E0,0E0,0E0,0E0,0E0],"parents":[2147483647,0,0,1,1,2,2,3,3,4,4,6,6],"right_children":[2,4,6,8,10,-1,12,-1,-1,-1,-1,-1,-1],"split_conditions":[4E0,3.7E0,2E-1,2E0,2.5E-1,1.0831183E0,2E0,-8.857683E-1,-2.972997E-1,4.362525E-1,1.012318E-1,4.9614027E-2,4.182631E-1],"split_indices":[2,8,0,3,0,0,1,0,0,0,0,0,0],"split_type":[0,0,0,0,0,0,0,0,0,0,0,0,0],"sum_hessian":[4.5E1,3.3E1,1.2E1,2.5E1,8E0,4E0,8E0,5E0,2E1,5E0,3E0,1E0,7E0],"tree_param":{"num_deleted":"0","num_feature":"11","num_nodes":"13","size_leaf_vector":"1"}},{"base_weights":[-3.7075838E-1,-4.7538705E0,1.6954117E0,-9.697436E-1,-2.8092797E0,2.7577782E-2,4.1308937E0,3.1633757E-2,-4.2257228E-1,-1.5501091E-1,2.1403529E-1,1.939576E-1,6.6005605E-1],"categories":[],"categories_nodes":[],"categories_segments":[],"categories_sizes":[],"default_left":[0,0,0,0,0,0,0,0,0,0,0,0,0],"id":13,"left_children":[1,3,5,-1,7,9,11,-1,-1,-1,-1,-1,-1],"loss_changes":[4.2464752E2,7.435196E1,1.2986942E2,0E0,2.5000488E1,4.8640385E1,3.5880264E1,0E0,0E0,0E0,0E0,0E0,0E0],"parents":[2147483647,0,0,1,1,2,2,4,4,5,5,6,6],"right_children":[2,4,6,-1,8,10,12,-1,-1,-1,-1,-1,-1],"split_conditions":[2.5E0,6.2E0,3E0,-9.697436E-1,1.9E0,1.6E1,1.2E1,3.1633757E-2,-4.2257228E-1,-1.5501091E-1,2.1403529E-1,1.939576E-1,6.6005605E-1],"split_indices":[8,6,1,0,7,3,3,0,0,0,0,0,0],"split_type":[0,0,0,0,0,0,0,0,0,0,0,0,0],"sum_hessian":[4.5E1,1.4E1,3.1E1,4E0,1E1,1.9E1,1.2E1,2E0,8E0,1.1E1,8E0,5E0,7E0],"tree_param":{"num_deleted":"0","num_feature":"11","num_nodes":"13","size_leaf_vector":"1"}},{"base_weights":[1.2706792E-1,-2.5135944E0,3.2895093E0,-5.9804206E0,-1.0257401E0,6.4362774E0,1.0999976E0,-8.2010555E-1,-3.0767518E-1,-2.104021E-1,2.3510821E-1,9.2647827E-1,3.8660866E-1,-5.593821E-3,3.5326812E-1],"categories":[],"categories_nodes":[],"categories_segments":[],"categories_sizes":[],"default_left":[0,0,0,0,0,0,0,0,0,0,0,0,0,0,0],"id":14,"left_children":[1,3,5,7,9,11,13,-1,-1,-1,-1,-1,-1,-1,-1],"loss_changes":[3.6735895E2,1.1766083E2,1.3071782E2,2.8959808E0,4.2529427E1,8.155487E0,2.7622395E1,0E0,0E0,0E0,0E0,0E0,0E0,0E0,0E0],"parents":[2147483647,0,0,1,1,2,2,3,3,4,4,5,5,6,6],"right_children":[2,4,6,8,10,12,14,-1,-1,-1,-1,-1,-1,-1,-1],"split_conditions":[1.2E1,3E0,1.4E0,1.25E1,4E0,2E-1,4.2E0,-8.2010555E-1,-3.0767518E-1,-2.104021E-1,2.3510821E-1,9.2647827E-1,3.8660866E-1,-5.593821E-3,3.5326812E-1],"split_indices":[3,3,5,5,2,0,8,0,0,0,0,0,0,0,0],"split_type":[0,0,0,0,0,0,0,0,0,0,0,0,0,0,0],"sum_hessian":[4.2E1,2.3E1,1.9E1,6E0,1.7E1,7E0,1.2E1,4E0,2E0,1.4E1,3E0,4E0,3E0,8E0,4E0],"tree_param":{"num_deleted":"0","num_feature":"11","num_nodes":"15","size_leaf_vector":"1"}},{"base_weights":[2.4566531E-1,-1.6203611E0,4.085742E0,-4.153241E0,1.9794424E-1,8.909787E-1,2.196547E0,-8.388266E-1,-3.1237495E-1,-1.08256616E-1,1.824595E-1,-9.116012E-2,3.5254693E-1],"categories":[],"categories_nodes":[],"categories_segments":[],"categories_sizes":[],"default_left":[0,0,0,0,0,0,0,0,0,0,0,0,0],"id":15,"left_children":[1,3,5,7,9,-1,11,-1,-1,-1,-1,-1,-1],"loss_changes":[3.2907617E2,1.4359415E2,7.8313644E1,3.8973038E1,2.9015106E1,0E0,2.6339115E1,0E0,0E0,0E0,0E0,0E0,0E0],"parents":[2147483647,0,0,1,1,2,2,3,3,4,4,6,6],"right_children":[2,4,6,8,10,-1,12,-1,-1,-1,-1,-1,-1],"split_conditions":[3E0,3.1E0,2E-1,4.2E0,1.6E1,8.909787E-1,2E0,-8.388266E-1,-3.1237495E-1,-1.08256616E-1,1.824595E-1,-9.116012E-2,3.5254693E-1],"split_indices":[1,8,0,5,3,0,2,0,0,0,0,0,0],"split_type":[0,0,0,0,0,0,0,0,0,0,0,0,0],"sum_hessian":[4.4E1,3E1,1.4E1,1.2E1,1.8E1,4E0,1E1,3E0,9E0,1E1,8E0,2E0,8E0],"tree_param":{"num_deleted":"0","num_feature":"11","num_nodes":"13","size_leaf_vector":"1"}},{"base_weights":[2.83476E-1,-1.2353228E0,4.350744E0,-2.7031572E0,9.020002E-1,8.054451E-1,2.5554953E0,-5.4409444E-1,-1.7565717E-1,1.6205221E-1,-1.6102615E-1,3.5622737E-1,8.8781126E-2],"categories":[],"categories_nodes":[],"categories_segments":[],"categories_sizes":[],"default_left":[0,0,0,0,0,0,0,0,0,0,0,0,0],"id":16,"left_children":[1,3,5,7,9,-1,11,-1,-1,-1,-1,-1,-1],"loss_changes":[2.9571057E2,1.12241516E2,3.7955902E1,4.1016098E1,1.6905672E1,0E0,4.553589E0,0E0,0E0,0E0,0E0,0E0,0E0],"parents":[2147483647,0,0,1,1,2,2,3,3,4,4,6,6],"right_children":[2,4,6,8,10,-1,12,-1,-1,-1,-1,-1,-1],"split_conditions":[3E0,1E1,2E-1,4.5E0,3.9E-1,8.054451E-1,2E-1,-5.4409444E-1,-1.7565717E-1,1.6205221E-1,-1.6102615E-1,3.5622737E-1,8.8781126E-2],"split_indices":[1,3,0,5,0,0,6,0,0,0,0,0,0],"split_type":[0,0,0,0,0,0,0,0,0,0,0,0,0],"sum_hessian":[4.6E1,3.4E1,1.2E1,2E1,1.4E1,4E0,8E0,7E0,1.3E1,1.2E1,2E0,6E0,2E0],"tree_param":{"num_deleted":"0","num_feature":"11","num_nodes":"13","size_leaf_vector":"1"}},{"base_weights":[-1.4609201E-2,-2.9165628E0,1.6181962E0,-3.8652916E0,3.231903E-1,3.015766E-1,4.1043267E0,-6.4543855E-1,-2.4695246E-1,-1.5783347E-2,1.2852378E-1,-1.09190896E-1,2.215644E-1,7.8432745E-1,2.8505018E-1],"categories":[],"categories_nodes":[],"categories_segments":[],"categories_sizes":[],"default_left":[0,0,0,0,0,0,0,0,0,0,0,0,0,0,0],"id":17,"left_children":[1,3,5,7,9,11,13,-1,-1,-1,-1,-1,-1,-1,-1],"loss_changes":[2.3689754E2,5.657489E1,1.03507454E2,2.7223633E1,1.8411559E0,4.285346E1,3.0720856E1,0E0,0E0,0E0,0E0,0E0,0E0,0E0,0E0],"parents":[2147483647,0,0,1,1,2,2,3,3,4,4,5,5,6,6],"right_children":[2,4,6,8,10,12,14,-1,-1,-1,-1,-1,-1,-1,-1],"split_conditions":[2E0,3.5E0,4E0,6.2E0,3.5E-1,3.7E0,2E-1,-6.4543855E-1,-2.4695246E-1,-1.5783347E-2,1.2852378E-1,-1.09190896E-1,2.215644E-1,7.8432745E-1,2.8505018E-1],"split_indices":[1,8,2,6,0,8,0,0,0,0,0,0,0,0,0],"split_type":[0,0,0,0,0,0,0,0,0,0,0,0,0,0,0],"sum_hessian":[4.8E1,1.7E1,3.1E1,1.3E1,4E0,2.1E1,1E1,6E0,7E0,3E0,1E0,1.2E1,9E0,3E0,7E0],"tree_param":{"num_deleted":"0","num_feature":"11","num_nodes":"15","size_leaf_vector":"1"}},{"base_weights":[-1.1860148E-1,-1.3685355E0,3.3518777E0,-2.3534422E0,1.083838E0,5.265259E0,1.9164573E0,-4.02828E-1,-1.0835995E-1,1.7434616E-2,2.2100975E-1,1.5210113E-1,7.1373826E-1,1.4406967E-2,2.5511998E-1],"categories":[],"categories_nodes":[],"categories_segments":[],"categories_sizes":[],"default_left":[0,0,0,0,0,0,0,0,0,0,0,0,0,0,0],"id":18,"left_children":[1,3,5,7,9,11,13,-1,-1,-1,-1,-1,-1,-1,-1],"loss_changes":[2.1280493E2,8.950368E1,2.5613937E1,3.481064E1,7.5571117E0,6.1046143E0,3.132553E0,0E0,0E0,0E0,0E0,0E0,0E0,0E0,0E0],"parents":[2147483647,0,0,1,1,2,2,3,3,4,4,5,5,6,6],"right_children":[2,4,6,8,10,12,14,-1,-1,-1,-1,-1,-1,-1,-1],"split_conditions":[4E0,3.7E0,2E-1,2E0,4.2E0,3E0,2E0,-4.02828E-1,-1.0835995E-1,1.7434616E-2,2.2100975E-1,1.5210113E-1,7.1373826E-1,1.4406967E-2,2.5511998E-1],"split_indices":[2,8,0,1,8,1,1,0,0,0,0,0,0,0,0],"split_type":[0,0,0,0,0,0,0,0,0,0,0,0,0,0,0],"sum_hessian":[4.7E1,3.5E1,1.2E1,2.5E1,1E1,4E0,8E0,1.4E1,1.1E1,5E0,5E0,1E0,3E0,1E0,7E0],"tree_param":{"num_deleted":"0","num_feature":"11","num_nodes":"15","size_leaf_vector":"1"}},{"base_weights":[1.6990063E-1,-2.5316648E0,1.3228601E0,-4.03967E0,-2.3113468E-1,3.3869308E-1,3.4393432E0,-5.581049E-1,-1.5203643E-1,2.3491897E-2,-1.6755226E-1,-3.8531493E-2,2.1370576E-1,5.767915E-1,2.3656788E-1],"categories":[],"categories_nodes":[],"categories_segments":[],"categories_sizes":[],"default_left":[0,0,0,0,0,0,0,0,0,0,0,0,0,0,0],"id":19,"left_children":[1,3,5,7,9,11,13,-1,-1,-1,-1,-1,-1,-1,-1],"loss_changes":[1.5597401E2,5.1104454E1,7.173917E1,9.359665E0,3.7551162E0,2.4360329E1,1.2601852E1,0E0,0E0,0E0,0E0,0E0,0E0,0E0,0E0],"parents":[2147483647,0,0,1,1,2,2,3,3,4,4,5,5,6,6],"right_children":[2,4,6,8,10,12,14,-1,-1,-1,-1,-1,-1,-1,-1],"split_conditions":[2.5E0,3E0,4E0,1.25E1,5.9E-1,4.1E0,2E-1,-5.581049E-1,-1.5203643E-1,2.3491897E-2,-1.6755226E-1,-3.8531493E-2,2.1370576E-1,5.767915E-1,2.3656788E-1],"split_indices":[8,2,2,5,0,8,0,0,0,0,0,0,0,0,0],"split_type":[0,0,0,0,0,0,0,0,0,0,0,0,0,0,0],"sum_hessian":[4.8E1,1.4E1,3.4E1,8E0,6E0,2.4E1,1E1,6E0,2E0,5E0,1E0,1.7E1,7E0,4E0,6E0],"tree_param":{"num_deleted":"0","num_feature":"11","num_nodes":"15","size_leaf_vector":"1"}},{"base_weights":[-1.359893E-1,-2.1026845E0,1.253018E0,-3.7294757E0,-1.2552965E0,2.0359378E0,-1.2747438E0,-5.2405447E-1,-1.9633484E-1,-1.9839256E-1,9.0604246E-2,5.5257773E-1,1.6223621E-1,5.740982E-2,-2.4860284E-1],"categories":[],"categories_nodes":[],"categories_segments":[],"categories_sizes":[],"default_left":[0,0,0,0,0,0,0,0,0,0,0,0,0,0,0],"id":20,"left_children":[1,3,5,7,9,11,13,-1,-1,-1,-1,-1,-1,-1,-1],"loss_changes":[1.2556362E2,2.1510345E1,5.6029232E1,8.63739E-1,1.2449144E1,3.067212E1,1.0771347E1,0E0,0E0,0E0,0E0,0E0,0E0,0E0,0E0],"parents":[2147483647,0,0,1,1,2,2,3,3,4,4,5,5,6,6],"right_children":[2,4,6,8,10,12,14,-1,-1,-1,-1,-1,-1,-1,-1],"split_conditions":[2E0,2E0,3.9E-1,1.3E-1,6.54E1,1.6E-1,4E0,-5.2405447E-1,-1.9633484E-1,-1.9839256E-1,9.0604246E-2,5.5257773E-1,1.6223621E-1,5.740982E-2,-2.4860284E-1],"split_indices":[1,3,0,0,6,0,6,0,0,0,0,0,0,0,0],"split_type":[0,0,0,0,0,0,0,0,0,0,0,0,0,0,0],"sum_hessian":[4.4E1,1.8E1,2.6E1,5E0,1.3E1,2E1,6E0,3E0,2E0,1.1E1,2E0,3E0,1.7E1,2E0,4E0],"tree_param":{"num_deleted":"0","num_feature":"11","num_nodes":"15","size_leaf_vector":"1"}},{"base_weights":[7.976536E-2,-2.1304383E0,1.148962E0,-3.2849905E0,-1.7672947E-1,2.7140394E-1,2.8794053E0,-4.6268466E-1,-1.7579898E-1,2.2785492E-2,-1.4258285E-1,-8.479916E-2,1.683149E-1,6.452394E-1,2.510336E-1],"categories":[],"categories_nodes":[],"categories_segments":[],"categories_sizes":[],"default_left":[0,0,0,0,0,0,0,0,0,0,0,0,0,0,0],"id":21,"left_children":[1,3,5,7,9,11,13,-1,-1,-1,-1,-1,-1,-1,-1],"loss_changes":[1.1587863E2,3.5509987E1,4.9331146E1,4.738434E0,2.8212843E0,2.6438505E1,1.0385841E1,0E0,0E0,0E0,0E0,0E0,0E0,0E0,0E0],"parents":[2147483647,0,0,1,1,2,2,3,3,4,4,5,5,6,6],"right_children":[2,4,6,8,10,12,14,-1,-1,-1,-1,-1,-1,-1,-1],"split_conditions":[2.5E0,3E0,4E0,1.25E1,5.9E-1,3.7E0,1.1E0,-4.6268466E-1,-1.7579898E-1,2.2785492E-2,-1.4258285E-1,-8.479916E-2,1.683149E-1,6.452394E-1,2.510336E-1],"split_indices":[8,2,2,5,0,8,7,0,0,0,0,0,0,0,0],"split_type":[0,0,0,0,0,0,0,0,0,0,0,0,0,0,0],"sum_hessian":[4.7E1,1.5E1,3.2E1,9E0,6E0,2.2E1,1E1,6E0,3E0,5E0,1E0,1.2E1,1E1,1E0,9E0],"tree_param":{"num_deleted":"0","num_feature":"11","num_nodes":"15","size_leaf_vector":"1"}},{"base_weights":[-9.7459406E-2,-9.7125596E-1,2.3136027E0,-3.1120615E0,-4.778242E-1,4.7274062E-1,5.894574E-1,-9.492302E-2,-4.1016763E-1,-1.12356395E-1,7.1293175E-2,-1.0903793E-1,1.644516E-1],"categories":[],"categories_nodes":[],"categories_segments":[],"categories_sizes":[],"default_left":[0,0,0,0,0,0,0,0,0,0,0,0,0],"id":22,"left_children":[1,3,5,7,9,-1,11,-1,-1,-1,-1,-1,-1],"loss_changes":[9.494533E1,3.3372253E1,3.1317345E1,1.5576744E0,1.4317129E1,0E0,9.435102E0,0E0,0E0,0E0,0E0,0E0,0E0],"parents":[2147483647,0,0,1,1,2,2,3,3,4,4,6,6],"right_children":[2,4,6,8,10,-1,12,-1,-1,-1,-1,-1,-1],"split_conditions":[3E0,2E0,2.6E-1,2.8E0,1.6E1,4.7274062E-1,3.1E-1,-9.492302E-2,-4.1016763E-1,-1.12356395E-1,7.1293175E-2,-1.0903793E-1,1.644516E-1],"split_indices":[1,3,0,7,3,0,0,0,0,0,0,0,0],"split_type":[0,0,0,0,0,0,0,0,0,0,0,0,0],"sum_hessian":[4.3E1,3.2E1,1.1E1,5E0,2.7E1,5E0,6E0,1E0,4E0,1.9E1,8E0,2E0,4E0],"tree_param":{"num_deleted":"0","num_feature":"11","num_nodes":"13","size_leaf_vector":"1"}},{"base_weights":[1.4817168E-1,-1.6081345E0,1.1120589E0,-2.8479419E0,-5.79456E-1,2.329607E0,2.38579E-1,-6.0228653E-2,-3.7863564E-1,-1.0243515E-1,1.132846E-1,3.800973E-1,6.277111E-2,7.349511E-2,-1.4677402E-1],"categories":[],"categories_nodes":[],"categories_segments":[],"categories_sizes":[],"default_left":[0,0,0,0,0,0,0,0,0,0,0,0,0,0,0],"id":23,"left_children":[1,3,5,7,9,11,13,-1,-1,-1,-1,-1,-1,-1,-1],"loss_changes":[7.627511E1,1.8755558E1,3.0285812E1,3.4638023E0,4.9828253E0,1.6506615E1,1.0586096E1,0E0,0E0,0E0,0E0,0E0,0E0,0E0,0E0],"parents":[2147483647,0,0,1,1,2,2,3,3,4,4,5,5,6,6],"right_children":[2,4,6,8,10,12,14,-1,-1,-1,-1,-1,-1,-1,-1],"split_conditions":[2E0,6.2E0,2.6E-1,2.4E0,3.8E0,3E0,5.9E-1,-6.0228653E-2,-3.7863564E-1,-1.0243515E-1,1.132846E-1,3.800973E-1,6.277111E-2,7.349511E-2,-1.4677402E-1],"split_indices":[1,6,0,5,8,6,0,0,0,0,0,0,0,0,0],"split_type":[0,0,0,0,0,0,0,0,0,0,0,0,0,0,0],"sum_hessian":[4.3E1,1.5E1,2.8E1,6E0,9E0,1.1E1,1.7E1,1E0,5E0,8E0,1E0,7E0,4E0,1.4E1,3E0],"tree_param":{"num_deleted":"0","num_feature":"11","num_nodes":"15","size_leaf_vector":"1"}},{"base_weights":[-9.763515E-3,-7.1702236E-1,2.1128266E0,-1.9640408E0,7.320719E-2,5.553548E-1,1.4634552E0,-3.0730462E-1,-4.5308437E-2,-5.9816282E-2,7.6653935E-2,-1.9416045E-3,1.935644E-1],"categories":[],"categories_nodes":[],"categories_segments":[],"categories_sizes":[],"default_left":[0,0,0,0,0,0,0,0,0,0,0,0,0],"id":24,"left_children":[1,3,5,7,9,-1,11,-1,-1,-1,-1,-1,-1],"loss_changes":[7.207232E1,3.5619293E1,1.2826241E1,1.2289055E1,7.7549148E0,0E0,2.4606857E0,0E0,0E0,0E0,0E0,0E0,0E0],"parents":[2147483647,0,0,1,1,2,2,3,3,4,4,6,6],"right_children":[2,4,6,8,10,-1,12,-1,-1,-1,-1,-1,-1],"split_conditions":[4E0,2.5E0,1.1E0,3E0,3.7E0,5.553548E-1,2E0,-3.0730462E-1,-4.5308437E-2,-5.9816282E-2,7.6653935E-2,-1.9416045E-3,1.935644E-1],"split_indices":[2,8,7,2,8,0,1,0,0,0,0,0,0],"split_type":[0,0,0,0,0,0,0,0,0,0,0,0,0],"sum_hessian":[4.6E1,3.5E1,1.1E1,1.3E1,2.2E1,1E0,1E1,9E0,4E0,1.1E1,1.1E1,1E0,9E0],"tree_param":{"num_deleted":"0","num_feature":"11","num_nodes":"13","size_leaf_vector":"1"}},{"base_weights":[4.5771364E-2,-1.7823697E0,7.645612E-1,-4.105906E-1,-9.484453E-1,4.415161E-1,4.5782632E-1,1.6678618E-2,-1.4852127E-1,1.2415001E-1,-1.94369E-3],"categories":[],"categories_nodes":[],"categories_segments":[],"categories_sizes":[],"default_left":[0,0,0,0,0,0,0,0,0,0,0],"id":25,"left_children":[1,3,5,-1,7,-1,9,-1,-1,-1,-1],"loss_changes":[6.049494E1,1.4525608E1,2.7819246E1,0E0,3.3172302E0,0E0,8.492052E0,0E0,0E0,0E0,0E0],"parents":[2147483647,0,0,1,1,2,2,4,4,6,6],"right_children":[2,4,6,-1,8,-1,10,-1,-1,-1,-1],"split_conditions":[2.5E0,4.2E0,1.2E0,-4.105906E-1,7.2E0,4.415161E-1,2E0,1.6678618E-2,-1.4852127E-1,1.2415001E-1,-1.94369E-3],"split_indices":[8,5,7,0,5,0,5,0,0,0,0],"split_type":[0,0,0,0,0,0,0,0,0,0,0],"sum_hessian":[4.4E1,1.2E1,3.2E1,3E0,9E0,2E0,3E1,2E0,7E0,1.3E1,1.7E1],"tree_param":{"num_deleted":"0","num_feature":"11","num_nodes":"11","size_leaf_vector":"1"}},{"base_weights":[-1.3782029E-1,-1.6981993E0,4.011045E-1,-3.736374E-1,-8.804234E-1,4.251304E-2,1.2933319E0,-1.4452621E-1,2.027542E-2,-6.2192652E-2,7.7179834E-2,2.0065266E-1,3.6857415E-2],"categories":[],"categories_nodes":[],"categories_segments":[],"categories_sizes":[],"default_left":[0,0,0,0,0,0,0,0,0,0,0,0,0],"id":26,"left_children":[1,3,5,-1,7,9,11,-1,-1,-1,-1,-1,-1],"loss_changes":[3.9363796E1,1.1148884E1,1.1143096E1,0E0,3.2631426E0,9.091094E0,3.221836E0,0E0,0E0,0E0,0E0,0E0,0E0],"parents":[2147483647,0,0,1,1,2,2,4,4,5,5,6,6],"right_children":[2,4,6,-1,8,10,12,-1,-1,-1,-1,-1,-1],"split_conditions":[2.5E0,5E0,4E0,-3.736374E-1,3E0,3.7E0,1.6E1,-1.4452621E-1,2.027542E-2,-6.2192652E-2,7.7179834E-2,2.0065266E-1,3.6857415E-2],"split_indices":[8,6,2,0,2,8,3,0,0,0,0,0,0],"split_type":[0,0,0,0,0,0,0,0,0,0,0,0,0],"sum_hessian":[4.5E1,1.1E1,3.4E1,3E0,8E0,2.5E1,9E0,6E0,2E0,1.3E1,1.2E1,6E0,3E0],"tree_param":{"num_deleted":"0","num_feature":"11","num_nodes":"13","size_leaf_vector":"1"}},{"base_weights":[1.5030921E-2,-5.111681E-1,1.7836068E0,-9.7054887E-1,5.267541E-1,4.9333143E-1,1.1397483E0,-1.453412E-1,7.868385E-2,1.41764255E-2,1.290229E-1,1.6612546E-1,1.28981015E-2],"categories":[],"categories_nodes":[],"categories_segments":[],"categories_sizes":[],"default_left":[0,0,0,0,0,0,0,0,0,0,0,0,0],"id":27,"left_children":[1,3,5,7,9,-1,11,-1,-1,-1,-1,-1,-1],"loss_changes":[4.4651E1,1.8152893E1,1.1798687E1,1.0968504E1,2.5621874E0,0E0,2.3764353E0,0E0,0E0,0E0,0E0,0E0,0E0],"parents":[2147483647,0,0,1,1,2,2,3,3,4,4,6,6],"right_children":[2,4,6,8,10,-1,12,-1,-1,-1,-1,-1,-1],"split_conditions":[4E0,3.7E0,1.1E0,1E0,3E0,4.9333143E-1,1.6E1,-1.453412E-1,7.868385E-2,1.41764255E-2,1.290229E-1,1.6612546E-1,1.28981015E-2],"split_indices":[2,8,7,9,1,0,3,0,0,0,0,0,0],"split_type":[0,0,0,0,0,0,0,0,0,0,0,0,0],"sum_hessian":[4.6E1,3.6E1,1E1,2.5E1,1.1E1,1E0,9E0,2.2E1,3E0,7E0,4E0,7E0,2E0],"tree_param":{"num_deleted":"0","num_feature":"11","num_nodes":"13","size_leaf_vector":"1"}},{"base_weights":[6.870984E-2,-1.0158261E0,7.171411E-1,-1.3956405E0,2.5081939E-1,4.6373153E-1,4.753577E-1,-2.7382642E-1,-7.796863E-2,-1.0639E-2,9.6523814E-2,-6.3430175E-2,8.478441E-2],"categories":[],"categories_nodes":[],"categories_segments":[],"categories_sizes":[],"default_left":[0,0,0,0,0,0,0,0,0,0,0,0,0],"id":28,"left_children":[1,3,5,7,9,-1,11,-1,-1,-1,-1,-1,-1],"loss_changes":[3.37811E1,9.009678E0,2.099187E1,7.77211E0,1.010896E0,0E0,7.1040883E0,0E0,0E0,0E0,0E0,0E0,0E0],"parents":[2147483647,0,0,1,1,2,2,3,3,4,4,6,6],"right_children":[2,4,6,8,10,-1,12,-1,-1,-1,-1,-1,-1],"split_conditions":[2E0,3.6E0,3E-1,4.2E0,3.5E-1,4.6373153E-1,2.3E0,-2.7382642E-1,-7.796863E-2,-1.0639E-2,9.6523814E-2,-6.3430175E-2,8.478441E-2],"split_indices":[1,8,5,5,0,0,8,0,0,0,0,0,0],"split_type":[0,0,0,0,0,0,0,0,0,0,0,0,0],"sum_hessian":[4.6E1,1.7E1,2.9E1,1.3E1,4E0,1E0,2.8E1,5E0,8E0,3E0,1E0,5E0,2.3E1],"tree_param":{"num_deleted":"0","num_feature":"11","num_nodes":"13","size_leaf_vector":"1"}},{"base_weights":[1.8180279E-3,2.9566574E0,-1.9521166E-1,4.3590772E-1,9.629059E-2,-1.4598181E0,7.615843E-2,-2.96536E-1,-8.530288E-2,-6.1719164E-2,4.0293053E-2],"categories":[],"categories_nodes":[],"categories_segments":[],"categories_sizes":[],"default_left":[0,0,0,0,0,0,0,0,0,0,0],"id":29,"left_children":[1,3,5,-1,-1,7,9,-1,-1,-1,-1],"loss_changes":[2.7940157E1,1.4533405E0,1.5554113E1,0E0,0E0,4.3028603E0,5.998095E0,0E0,0E0,0E0,0E0],"parents":[2147483647,0,0,1,1,2,2,5,5,6,6],"right_children":[2,4,6,-1,-1,8,10,-1,-1,-1,-1],"split_conditions":[1.2E0,1.6E-1,2E0,4.3590772E-1,9.629059E-2,1.3E-1,2E0,-2.96536E-1,-8.530288E-2,-6.1719164E-2,4.0293053E-2],"split_indices":[7,0,8,0,0,0,1,0,0,0,0],"split_type":[0,0,0,0,0,0,0,0,0,0,0],"sum_hessian":[4.6E1,2E0,4.4E1,1E0,1E0,7E0,3.7E1,2E0,5E0,1.1E1,2.6E1],"tree_param":{"num_deleted":"0","num_feature":"11","num_nodes":"11","size_leaf_vector":"1"}},{"base_weights":[1.9759984E-1,-3.2627738E-1,1.1347773E0,-2.4939148E-1,-1.19528025E-1,4.097534E-1,7.551476E-1,-4.819924E-2,7.208925E-2,1.7220005E-1,5.5872116E-2],"categories":[],"categories_nodes":[],"categories_segments":[],"categories_sizes":[],"default_left":[0,0,0,0,0,0,0,0,0,0,0],"id":30,"left_children":[1,3,5,-1,7,-1,9,-1,-1,-1,-1],"loss_changes":[2.1972752E1,1.0256021E1,1.1269352E1,0E0,5.7280183E0,0E0,2.2845993E0,0E0,0E0,0E0,0E0],"parents":[2147483647,0,0,1,1,2,2,4,4,6,6],"right_children":[2,4,6,-1,8,-1,10,-1,-1,-1,-1],"split_conditions":[3.8E0,8E-2,3E-1,-2.4939148E-1,4E0,4.097534E-1,3.9E0,-4.819924E-2,7.208925E-2,1.7220005E-1,5.5872116E-2],"split_indices":[8,0,5,0,2,0,8,0,0,0,0],"split_type":[0,0,0,0,0,0,0,0,0,0,0],"sum_hessian":[4.3E1,2.8E1,1.5E1,2E0,2.6E1,1E0,1.4E1,1.9E1,7E0,3E0,1.1E1],"tree_param":{"num_deleted":"0","num_feature":"11","num_nodes":"11","size_leaf_vector":"1"}},{"base_weights":[-4.8239037E-2,-4.6753043E-1,1.3664901E0,-1.0372965E0,-1.1568642E-1,3.6351287E-1,6.603966E-1,-2.7226752E-1,-5.94171E-2,1.0424011E-1,-2.9358964E-2,-1.2243347E-2,9.2214376E-2],"categories":[],"categories_nodes":[],"categories_segments":[],"categories_sizes":[],"default_left":[0,0,0,0,0,0,0,0,0,0,0,0,0],"id":31,"left_children":[1,3,5,7,9,-1,11,-1,-1,-1,-1,-1,-1],"loss_changes":[2.851851E1,7.297345E0,1.091437E1,8.2246065E0,3.259416E0,0E0,8.198681E-1,0E0,0E0,0E0,0E0,0E0,0E0],"parents":[2147483647,0,0,1,1,2,2,3,3,4,4,6,6],"right_children":[2,4,6,8,10,-1,12,-1,-1,-1,-1,-1,-1],"split_conditions":[4E0,2.5E0,1.6E-1,4.2E0,8E-1,3.6351287E-1,2E0,-2.7226752E-1,-5.94171E-2,1.0424011E-1,-2.9358964E-2,-1.2243347E-2,9.2214376E-2],"split_indices":[2,8,0,5,5,0,1,0,0,0,0,0,0],"split_type":[0,0,0,0,0,0,0,0,0,0,0,0,0],"sum_hessian":[4.6E1,3.6E1,1E1,1.3E1,2.3E1,2E0,8E0,3E0,1E1,2E0,2.1E1,1E0,7E0],"tree_param":{"num_deleted":"0","num_feature":"11","num_nodes":"13","size_leaf_vector":"1"}},{"base_weights":[2.5597413E-3,2.4681346E0,-1.5829426E-1,3.633577E-1,8.0906525E-2,-8.901421E-1,1.8970609E-1,-2.4776344E-1,-5.093349E-2,-1.2413605E-1,3.6695983E-2],"categories":[],"categories_nodes":[],"categories_segments":[],"categories_sizes":[],"default_left":[0,0,0,0,0,0,0,0,0,0,0],"id":32,"left_children":[1,3,5,-1,-1,7,9,-1,-1,-1,-1],"loss_changes":[1.9427376E1,9.714184E-1,1.1884297E1,0E0,0E0,7.3284245E0,4.8641443E0,0E0,0E0,0E0,0E0],"parents":[2147483647,0,0,1,1,2,2,5,5,6,6],"right_children":[2,4,6,-1,-1,8,10,-1,-1,-1,-1],"split_conditions":[1.2E0,1.9E1,2.5E0,3.633577E-1,8.0906525E-2,5E0,1.5E0,-2.4776344E-1,-5.093349E-2,-1.2413605E-1,3.6695983E-2],"split_indices":[7,3,8,0,0,6,7,0,0,0,0],"split_type":[0,0,0,0,0,0,0,0,0,0,0],"sum_hessian":[4.7E1,2E0,4.5E1,1E0,1E0,1.4E1,3.1E1,3E0,1.1E1,2E0,2.9E1],"tree_param":{"num_deleted":"0","num_feature":"11","num_nodes":"11","size_leaf_vector":"1"}},{"base_weights":[1.3274264E-1,3.4155625E-1,1.444772E-2,-1.0660686E0,2.301898E-1,-2.193071E-1,-6.0917437E-2,-2.7038611E-2,4.9288772E-2],"categories":[],"categories_nodes":[],"categories_segments":[],"categories_sizes":[],"default_left":[0,0,0,0,0,0,0,0,0],"id":33,"left_children":[1,-1,3,5,7,-1,-1,-1,-1],"loss_changes":[1.5366894E1,0E0,1.1201702E1,2.474121E0,3.3822525E0,0E0,0E0,0E0,0E0],"parents":[2147483647,0,0,2,2,3,3,4,4],"right_children":[2,-1,4,6,8,-1,-1,-1,-1],"split_conditions":[1.1E0,3.4155625E-1,2E0,1.3E-1,2E0,-2.193071E-1,-6.0917437E-2,-2.7038611E-2,4.9288772E-2],"split_indices":[7,0,8,0,1,0,0,0,0],"split_type":[0,0,0,0,0,0,0,0,0],"sum_hessian":[4.7E1,1E0,4.6E1,7E0,3.9E1,2E0,5E0,1.1E1,2.8E1],"tree_param":{"num_deleted":"0","num_feature":"11","num_nodes":"9","size_leaf_vector":"1"}},{"base_weights":[1.5060385E-1,-2.9705682E-1,9.761968E-1,-8.78279E-1,3.4689957E-1,3.2106307E-1,6.637072E-1,-1.5197003E-1,1.8153625E-2,6.0538672E-2,-4.789093E-2,-3.1178284E-3,9.3698464E-2],"categories":[],"categories_nodes":[],"categories_segments":[],"categories_sizes":[],"default_left":[0,0,0,0,0,0,0,0,0,0,0,0,0],"id":34,"left_children":[1,3,5,7,9,-1,11,-1,-1,-1,-1,-1,-1],"loss_changes":[1.5812576E1,1.0784563E1,6.1895733E0,6.185748E0,1.84718E0,0E0,1.151092E0,0E0,0E0,0E0,0E0,0E0,0E0],"parents":[2147483647,0,0,1,1,2,2,3,3,4,4,6,6],"right_children":[2,4,6,8,10,-1,12,-1,-1,-1,-1,-1,-1],"split_conditions":[3.8E0,1.82E1,3E-1,4E0,5.9E-1,3.2106307E-1,1.2E-1,-1.5197003E-1,1.8153625E-2,6.0538672E-2,-4.789093E-2,-3.1178284E-3,9.3698464E-2],"split_indices":[8,6,5,2,0,0,0,0,0,0,0,0,0],"split_type":[0,0,0,0,0,0,0,0,0,0,0,0,0],"sum_hessian":[4.1E1,2.7E1,1.4E1,1.4E1,1.3E1,1E0,1.3E1,1E1,4E0,1.1E1,2E0,2E0,1.1E1],"tree_param":{"num_deleted":"0","num_feature":"11","num_nodes":"13","size_leaf_vector":"1"}},{"base_weights":[-2.6002673E-3,-5.006132E-1,2.6309332E-1,-9.9813557E-1,-2.7474298E-3,6.38353E-1,-1.05155945E-1,-1.8706787E-1,-5.717697E-3,-2.0286826E-2,7.9663694E-2,2.2767486E-2,1.3487542E-1,-1.1544559E-1,1.9990997E-2],"categories":[],"categories_nodes":[],"categories_segments":[],"categories_sizes":[],"default_left":[0,0,0,0,0,0,0,0,0,0,0,0,0,0,0],"id":35,"left_children":[1,3,5,7,9,11,13,-1,-1,-1,-1,-1,-1,-1,-1],"loss_changes":[6.086056E0,3.9604468E0,4.212799E0,4.1897135E0,1.1100051E0,3.0545878E0,3.8859966E0,0E0,0E0,0E0,0E0,0E0,0E0,0E0,0E0],"parents":[2147483647,0,0,1,1,2,2,3,3,4,4,5,5,6,6],"right_children":[2,4,6,8,10,12,14,-1,-1,-1,-1,-1,-1,-1,-1],"split_conditions":[2E0,1.5E0,4E0,3.5E0,3.8E0,1.1E0,1.8E1,-1.8706787E-1,-5.717697E-3,-2.0286826E-2,7.9663694E-2,2.2767486E-2,1.3487542E-1,-1.1544559E-1,1.9990997E-2],"split_indices":[1,6,6,8,8,5,6,0,0,0,0,0,0,0,0],"split_type":[0,0,0,0,0,0,0,0,0,0,0,0,0,0,0],"sum_hessian":[4.4E1,1.5E1,2.9E1,7E0,8E0,1.4E1,1.5E1,4E0,3E0,7E0,1E0,8E0,6E0,3E0,1.2E1],"tree_param":{"num_deleted":"0","num_feature":"11","num_nodes":"15","size_leaf_vector":"1"}},{"base_weights":[7.125895E-2,-8.54415E-2,1.7771492E0,-6.103056E-1,3.0139923E-1,2.9633788E-2,2.64588E-1,-9.434027E-2,7.076263E-2,5.482038E-2,-5.3136565E-2],"categories":[],"categories_nodes":[],"categories_segments":[],"categories_sizes":[],"default_left":[0,0,0,0,0,0,0,0,0,0,0],"id":36,"left_children":[1,3,5,7,9,-1,-1,-1,-1,-1,-1],"loss_changes":[1.27155905E1,9.117653E0,2.0736837E0,4.473259E0,3.2098927E0,0E0,0E0,0E0,0E0,0E0,0E0],"parents":[2147483647,0,0,1,1,2,2,3,3,4,4],"right_children":[2,4,6,8,10,-1,-1,-1,-1,-1,-1],"split_conditions":[4.5E0,3E0,3E0,1E0,5.2E-1,2.9633788E-2,2.64588E-1,-9.434027E-2,7.076263E-2,5.482038E-2,-5.3136565E-2],"split_indices":[8,2,1,9,0,0,0,0,0,0,0],"split_type":[0,0,0,0,0,0,0,0,0,0,0],"sum_hessian":[4.6E1,4.3E1,3E0,1.8E1,2.5E1,1E0,2E0,1.6E1,2E0,2.1E1,4E0],"tree_param":{"num_deleted":"0","num_feature":"11","num_nodes":"11","size_leaf_vector":"1"}},{"base_weights":[-2.6897192E-3,-3.0061758E-1,8.225482E-1,-6.500261E-1,-2.0086471E-2,2.4784756E-1,1.4517244E0,-1.2763317E-1,2.5985792E-2,3.4190916E-2,-5.5011086E-2,-1.52494805E-2,3.8347516E-2,2.1233945E-1,-8.227844E-3],"categories":[],"categories_nodes":[],"categories_segments":[],"categories_sizes":[],"default_left":[0,0,0,0,0,0,0,0,0,0,0,0,0,0,0],"id":37,"left_children":[1,3,5,7,9,11,13,-1,-1,-1,-1,-1,-1,-1,-1],"loss_changes":[1.2048619E1,3.5156615E0,4.3408375E0,5.9647393E0,2.9382787E0,2.557128E-1,3.019949E0,0E0,0E0,0E0,0E0,0E0,0E0,0E0,0E0],"parents":[2147483647,0,0,1,1,2,2,3,3,4,4,5,5,6,6],"right_children":[2,4,6,8,10,12,14,-1,-1,-1,-1,-1,-1,-1,-1],"split_conditions":[4E0,4.2E0,3E0,1E0,5.2E-1,2E0,1.9E1,-1.2763317E-1,2.5985792E-2,3.4190916E-2,-5.5011086E-2,-1.52494805E-2,3.8347516E-2,2.1233945E-1,-8.227844E-3],"split_indices":[2,5,4,9,0,1,3,0,0,0,0,0,0,0,0],"split_type":[0,0,0,0,0,0,0,0,0,0,0,0,0,0,0],"sum_hessian":[4.7E1,3.5E1,1.2E1,1.5E1,2E1,7E0,5E0,1E1,5E0,1.2E1,8E0,1E0,6E0,4E0,1E0],"tree_param":{"num_deleted":"0","num_feature":"11","num_nodes":"15","size_leaf_vector":"1"}},{"base_weights":[-7.295978E-2,-9.089225E-1,4.2693313E-2,-1.8390045E-1,-2.1400595E-1,-9.126304E-2,4.52859E-1,-5.30159E-3,-4.3409042E-2,-2.5997693E-2,6.359665E-2,7.8750744E-2,-8.058013E-3],"categories":[],"categories_nodes":[],"categories_segments":[],"categories_sizes":[],"default_left":[0,0,0,0,0,0,0,0,0,0,0,0,0],"id":38,"left_children":[1,3,5,-1,7,9,11,-1,-1,-1,-1,-1,-1],"loss_changes":[4.7762074E0,2.2720566E0,2.4588783E0,0E0,8.437599E-2,2.763186E0,1.2075202E0,0E0,0E0,0E0,0E0,0E0,0E0],"parents":[2147483647,0,0,1,1,2,2,4,4,5,5,6,6],"right_children":[2,4,6,-1,8,10,12,-1,-1,-1,-1,-1,-1],"split_conditions":[1.8E0,8.5E0,4E0,-1.8390045E-1,6.8E-1,1.52E1,1.6E1,-5.30159E-3,-4.3409042E-2,-2.5997693E-2,6.359665E-2,7.8750744E-2,-8.058013E-3],"split_indices":[8,5,2,0,0,5,3,0,0,0,0,0,0],"split_type":[0,0,0,0,0,0,0,0,0,0,0,0,0],"sum_hessian":[4.8E1,5E0,4.3E1,2E0,3E0,3.3E1,1E1,2E0,1E0,2.8E1,5E0,7E0,3E0],"tree_param":{"num_deleted":"0","num_feature":"11","num_nodes":"13","size_leaf_vector":"1"}},{"base_weights":[3.6417883E-2,1.9129843E0,-8.675857E-2,2.7230117E-1,7.2035976E-2,-2.3201486E-1,3.965128E-1,-4.472386E-2,4.8487376E-2,6.9091074E-2,-7.332916E-3],"categories":[],"categories_nodes":[],"categories_segments":[],"categories_sizes":[],"default_left":[0,0,0,0,0,0,0,0,0,0,0],"id":39,"left_children":[1,3,5,-1,-1,7,9,-1,-1,-1,-1],"loss_changes":[1.1261109E1,4.0516853E-2,3.3211145E0,0E0,0E0,3.3720798E0,9.37477E-1,0E0,0E0,0E0,0E0],"parents":[2147483647,0,0,1,1,2,2,5,5,6,6],"right_children":[2,4,6,-1,-1,8,10,-1,-1,-1,-1],"split_conditions":[1.2E0,1.6E-1,4E0,2.7230117E-1,7.2035976E-2,1.52E1,1.6E1,-4.472386E-2,4.8487376E-2,6.9091074E-2,-7.332916E-3],"split_indices":[7,0,2,0,0,5,3,0,0,0,0],"split_type":[0,0,0,0,0,0,0,0,0,0,0],"sum_hessian":[4.7E1,2E0,4.5E1,1E0,1E0,3.5E1,1E1,2.9E1,6E0,7E0,3E0],"tree_param":{"num_deleted":"0","num_feature":"11","num_nodes":"11","size_leaf_vector":"1"}},{"base_weights":[2.3386445E-2,2.5596312E-1,-7.762941E-2,-8.8663596E-1,3.0861704E-2,-4.9150083E-3,-1.3053788E-1,-7.036514E-2,1.705819E-2],"categories":[],"categories_nodes":[],"categories_segments":[],"categories_sizes":[],"default_left":[0,0,0,0,0,0,0,0,0],"id":40,"left_children":[1,-1,3,5,7,-1,-1,-1,-1],"loss_changes":[9.329189E0,0E0,3.713704E0,8.0611086E-1,2.6936626E0,0E0,0E0,0E0,0E0],"parents":[2147483647,0,0,2,2,3,3,4,4],"right_children":[2,-1,4,6,8,-1,-1,-1,-1],"split_conditions":[1.1E0,2.5596312E-1,2E0,2.8E0,1.6E0,-4.9150083E-3,-1.3053788E-1,-7.036514E-2,1.705819E-2],"split_indices":[7,0,3,7,7,0,0,0,0],"split_type":[0,0,0,0,0,0,0,0,0],"sum_hessian":[4.2E1,1E0,4.1E1,4E0,3.7E1,1E0,3E0,5E0,3.2E1],"tree_param":{"num_deleted":"0","num_feature":"11","num_nodes":"9","size_leaf_vector":"1"}},{"base_weights":[3.963085E-2,2.0836058E-1,-7.1885526E-2,-1.4486594E-1,-1.9828923E-2,1.2747438E-2,-6.430349E-2],"categories":[],"categories_nodes":[],"categories_segments":[],"categories_sizes":[],"default_left":[0,0,0,0,0,0,0],"id":41,"left_children":[1,-1,3,-1,5,-1,-1],"loss_changes":[9.206929E0,0E0,2.6947293E0,0E0,2.9841707E0,0E0,0E0],"parents":[2147483647,0,0,2,2,4,4],"right_children":[2,-1,4,-1,6,-1,-1],"split_conditions":[1.2E0,2.0836058E-1,4E-2,-1.4486594E-1,5.2E-1,1.2747438E-2,-6.430349E-2],"split_indices":[7,0,0,0,0,0,0],"split_type":[0,0,0,0,0,0,0],"sum_hessian":[4.7E1,2E0,4.5E1,1E0,4.4E1,3.6E1,8E0],"tree_param":{"num_deleted":"0","num_feature":"11","num_nodes":"7","size_leaf_vector":"1"}},{"base_weights":[-4.5694467E-2,-7.150052E-1,4.6613693E-2,-1.5270469E-1,-1.18103504E-1,-2.4978773E-1,1.7896874E-1,2.4523162E-3,-3.2023314E-2,-5.950528E-2,5.8728676E-2,5.4210298E-2,-8.670044E-3],"categories":[],"categories_nodes":[],"categories_segments":[],"categories_sizes":[],"default_left":[0,0,0,0,0,0,0,0,0,0,0,0,0],"id":42,"left_children":[1,3,5,-1,7,9,11,-1,-1,-1,-1,-1,-1],"loss_changes":[3.0606887E0,1.8464663E0,1.7708341E0,0E0,8.788869E-2,2.7893944E0,2.1570225E0,0E0,0E0,0E0,0E0,0E0,0E0],"parents":[2147483647,0,0,1,1,2,2,4,4,5,5,6,6],"right_children":[2,4,6,-1,8,10,12,-1,-1,-1,-1,-1,-1],"split_conditions":[1.8E0,8.5E0,2E0,-1.5270469E-1,3.24E1,1.12E1,4E0,2.4523162E-3,-3.2023314E-2,-5.950528E-2,5.8728676E-2,5.4210298E-2,-8.670044E-3],"split_indices":[8,5,1,0,5,5,6,0,0,0,0,0,0],"split_type":[0,0,0,0,0,0,0,0,0,0,0,0,0],"sum_hessian":[4.8E1,5E0,4.3E1,2E0,3E0,1.3E1,3E1,2E0,1E0,1E1,3E0,1.4E1,1.6E1],"tree_param":{"num_deleted":"0","num_feature":"11","num_nodes":"13","size_leaf_vector":"1"}},{"base_weights":[2.6130797E-2,1.5612946E0,-7.679414E-2,2.2485122E-1,5.6181792E-2,-2.0423928E-1,3.356944E-1,-4.124298E-2,3.7124805E-2,1.271177E-2,7.0826836E-2],"categories":[],"categories_nodes":[],"categories_segments":[],"categories_sizes":[],"default_left":[0,0,0,0,0,0,0,0,0,0,0],"id":43,"left_children":[1,3,5,-1,-1,7,9,-1,-1,-1,-1],"loss_changes":[7.54621E0,1.474204E-1,2.4341965E0,0E0,0E0,2.6131833E0,5.8077216E-1,0E0,0E0,0E0,0E0],"parents":[2147483647,0,0,1,1,2,2,5,5,6,6],"right_children":[2,4,6,-1,-1,8,10,-1,-1,-1,-1],"split_conditions":[1.2E0,1.6E-1,4E0,2.2485122E-1,5.6181792E-2,1E0,3E0,-4.124298E-2,3.7124805E-2,1.271177E-2,7.0826836E-2],"split_indices":[7,0,2,0,0,9,4,0,0,0,0],"split_type":[0,0,0,0,0,0,0,0,0,0,0],"sum_hessian":[4.6E1,2E0,4.4E1,1E0,1E0,3.4E1,1E1,2.7E1,7E0,6E0,4E0],"tree_param":{"num_deleted":"0","num_feature":"11","num_nodes":"11","size_leaf_vector":"1"}},{"base_weights":[3.5525706E-2,1.4676157E0,-6.073642E-2,2.1136001E-1,5.281082E-2,-4.7623062E-1,1.229403E-1,-1.321408E-1,-2.46822E-2,-8.376288E-2,3.181804E-2],"categories":[],"categories_nodes":[],"categories_segments":[],"categories_sizes":[],"default_left":[0,0,0,0,0,0,0,0,0,0,0],"id":44,"left_children":[1,3,5,-1,-1,7,9,-1,-1,-1,-1],"loss_changes":[6.568372E0,1.3026142E-1,3.4927955E0,0E0,0E0,2.1405625E0,3.9210608E0,0E0,0E0,0E0,0E0],"parents":[2147483647,0,0,1,1,2,2,5,5,6,6],"right_children":[2,4,6,-1,-1,8,10,-1,-1,-1,-1],"split_conditions":[1.2E0,1.9E1,2.5E0,2.1136001E-1,5.281082E-2,5E0,1.6E0,-1.321408E-1,-2.46822E-2,-8.376288E-2,3.181804E-2],"split_indices":[7,3,8,0,0,6,7,0,0,0,0],"split_type":[0,0,0,0,0,0,0,0,0,0,0],"sum_hessian":[4.6E1,2E0,4.4E1,1E0,1E0,1.3E1,3.1E1,3E0,1E1,4E0,2.7E1],"tree_param":{"num_deleted":"0","num_feature":"11","num_nodes":"11","size_leaf_vector":"1"}},{"base_weights":[3.7271094E-2,-1.855676E-1,4.414316E-1,-5.100362E-1,1.8391896E-2,8.616417E-1,-1.3900995E-1,-9.522268E-2,5.4658814E-3,1.4698266E-2,-5.1432494E-2,1.95092E-2,1.3656189E-1,-3.8789913E-2,6.903992E-2],"categories":[],"categories_nodes":[],"categories_segments":[],"categories_sizes":[],"default_left":[0,0,0,0,0,0,0,0,0,0,0,0,0,0,0],"id":45,"left_children":[1,3,5,7,9,11,13,-1,-1,-1,-1,-1,-1,-1,-1],"loss_changes":[4.3148575E0,2.060912E0,4.2662024E0,1.926153E0,9.830868E-1,1.7470188E0,1.2388558E0,0E0,0E0,0E0,0E0,0E0,0E0,0E0,0E0],"parents":[2147483647,0,0,1,1,2,2,3,3,4,4,5,5,6,6],"right_children":[2,4,6,8,10,12,14,-1,-1,-1,-1,-1,-1,-1,-1],"split_conditions":[3.8E0,1.5E0,3E0,4E0,5.9E-1,3E0,4E-1,-9.522268E-2,5.4658814E-3,1.4698266E-2,-5.1432494E-2,1.95092E-2,1.3656189E-1,-3.8789913E-2,6.903992E-2],"split_indices":[8,6,6,2,0,1,0,0,0,0,0,0,0,0,0],"split_type":[0,0,0,0,0,0,0,0,0,0,0,0,0,0,0],"sum_hessian":[4.6E1,3E1,1.6E1,1.1E1,1.9E1,9E0,7E0,7E0,4E0,1.6E1,3E0,3E0,6E0,6E0,1E0],"tree_param":{"num_deleted":"0","num_feature":"11","num_nodes":"15","size_leaf_vector":"1"}},{"base_weights":[5.5935435E-2,6.3410825E-1,-1.3834259E-1,1.9048508E-1,4.0314066E-1,-1.0063147E-1,-2.4604857E-2,4.414444E-3,8.42765E-2,-3.1414695E-2,4.7102164E-2],"categories":[],"categories_nodes":[],"categories_segments":[],"categories_sizes":[],"default_left":[0,0,0,0,0,0,0,0,0,0,0],"id":46,"left_children":[1,3,5,-1,7,-1,9,-1,-1,-1,-1],"loss_changes":[5.367059E0,2.00215E0,2.8465934E0,0E0,1.1797605E0,0E0,3.268677E0,0E0,0E0,0E0,0E0],"parents":[2147483647,0,0,1,1,2,2,4,4,6,6],"right_children":[2,4,6,-1,8,-1,10,-1,-1,-1,-1],"split_conditions":[1.9E0,3E-1,2.1E0,1.9048508E-1,1.5E0,-1.0063147E-1,3.5E0,4.414444E-3,8.42765E-2,-3.1414695E-2,4.7102164E-2],"split_indices":[7,5,7,0,5,0,8,0,0,0,0],"split_type":[0,0,0,0,0,0,0,0,0,0,0],"sum_hessian":[4.6E1,1.1E1,3.5E1,1E0,1E1,4E0,3.1E1,5E0,5E0,2E1,1.1E1],"tree_param":{"num_deleted":"0","num_feature":"11","num_nodes":"11","size_leaf_vector":"1"}},{"base_weights":[1.7618984E-2,-2.3263943E-1,5.336451E-1,-4.9402842E-1,7.911072E-2,1.790561E-1,3.5860062E-1,-7.0164815E-2,5.7409514E-2,2.6525345E-2,-4.397621E-2,8.9142606E-2,2.23526E-2],"categories":[],"categories_nodes":[],"categories_segments":[],"categories_sizes":[],"default_left":[0,0,0,0,0,0,0,0,0,0,0,0,0],"id":47,"left_children":[1,3,5,7,9,-1,11,-1,-1,-1,-1,-1,-1],"loss_changes":[5.935442E0,2.5652132E0,1.9815931E0,1.77878E0,1.0296471E0,0E0,7.886815E-1,0E0,0E0,0E0,0E0,0E0,0E0],"parents":[2147483647,0,0,1,1,2,2,3,3,4,4,6,6],"right_children":[2,4,6,8,10,-1,12,-1,-1,-1,-1,-1,-1],"split_conditions":[3.8E0,1.54E1,1.1E0,6.1E-1,5.9E-1,1.790561E-1,3.9E0,-7.0164815E-2,5.7409514E-2,2.6525345E-2,-4.397621E-2,8.9142606E-2,2.23526E-2],"split_indices":[8,6,7,0,0,0,8,0,0,0,0,0,0],"split_type":[0,0,0,0,0,0,0,0,0,0,0,0,0],"sum_hessian":[4.4E1,3E1,1.4E1,1.6E1,1.4E1,1E0,1.3E1,1.5E1,1E0,1.1E1,3E0,3E0,1E1],"tree_param":{"num_deleted":"0","num_feature":"11","num_nodes":"13","size_leaf_vector":"1"}},{"base_weights":[4.3896616E-2,1.1564178E0,-3.1246949E-2,1.6831283E-1,3.9842375E-2,-1.0480064E-1,7.7401074E-3,-5.7102583E-2,9.832905E-3],"categories":[],"categories_nodes":[],"categories_segments":[],"categories_sizes":[],"default_left":[0,0,0,0,0,0,0,0,0],"id":48,"left_children":[1,3,5,-1,-1,-1,7,-1,-1],"loss_changes":[3.9652784E0,1.4318037E-1,1.4841402E0,0E0,0E0,0E0,1.6178491E0,0E0,0E0],"parents":[2147483647,0,0,1,1,2,2,6,6],"right_children":[2,4,6,-1,-1,-1,8,-1,-1],"split_conditions":[1.2E0,1.6E-1,4E-2,1.6831283E-1,3.9842375E-2,-1.0480064E-1,1.6E0,-5.7102583E-2,9.832905E-3],"split_indices":[7,0,0,0,0,0,7,0,0],"split_type":[0,0,0,0,0,0,0,0,0],"sum_hessian":[4.6E1,2E0,4.4E1,1E0,1E0,1E0,4.3E1,5E0,3.8E1],"tree_param":{"num_deleted":"0","num_feature":"11","num_nodes":"9","size_leaf_vector":"1"}},{"base_weights":[-6.351106E-3,1.0870336E0,-7.9102285E-2,1.582141E-1,3.7451934E-2,-6.837492E-1,-1.9633476E-2,1.4442444E-4,-1.09496154E-1,3.678601E-2,-1.9239029E-2],"categories":[],"categories_nodes":[],"categories_segments":[],"categories_sizes":[],"default_left":[0,0,0,0,0,0,0,0,0,0,0],"id":49,"left_children":[1,3,5,-1,-1,7,9,-1,-1,-1,-1],"loss_changes":[3.8246026E0,1.2651181E-1,1.6046691E0,0E0,0E0,6.2774444E-1,1.9765841E0,0E0,0E0,0E0,0E0],"parents":[2147483647,0,0,1,1,2,2,5,5,6,6],"right_children":[2,4,6,-1,-1,8,10,-1,-1,-1,-1],"split_conditions":[1.2E0,1.6E-1,8E-2,1.582141E-1,3.7451934E-2,3.8E0,2.2E-1,1.4442444E-4,-1.09496154E-1,3.678601E-2,-1.9239029E-2],"split_indices":[7,0,0,0,0,5,0,0,0,0,0],"split_type":[0,0,0,0,0,0,0,0,0,0,0],"sum_hessian":[4.6E1,2E0,4.4E1,1E0,1E0,3E0,4.1E1,1E0,2E0,1.2E1,2.9E1],"tree_param":{"num_deleted":"0","num_feature":"11","num_nodes":"11","size_leaf_vector":"1"}},{"base_weights":[8.531813E-2,-2.141302E-1,2.817904E-1,-4.311425E-1,2.9175153E-1,-3.252964E-1,3.7123027E-1,-7.643242E-2,3.0618894E-3,5.9714753E-2,-9.599304E-3,-7.159149E-2,-4.3197633E-3,1.4872146E-1,3.3552185E-2],"categories":[],"categories_nodes":[],"categories_segments":[],"categories_sizes":[],"default_left":[0,0,0,0,0,0,0,0,0,0,0,0,0,0,0],"id":50,"left_children":[1,3,5,7,9,11,13,-1,-1,-1,-1,-1,-1,-1,-1],"loss_changes":[2.6490047E0,2.101873E0,1.5867996E0,1.2379618E0,4.9899787E-1,2.9246962E-1,1.5625403E0,0E0,0E0,0E0,0E0,0E0,0E0,0E0,0E0],"parents":[2147483647,0,0,1,1,2,2,3,3,4,4,5,5,6,6],"right_children":[2,4,6,8,10,12,14,-1,-1,-1,-1,-1,-1,-1,-1],"split_conditions":[2E0,1.12E1,4E0,3.5E0,1.65E1,3E0,3E-1,-7.643242E-2,3.0618894E-3,5.9714753E-2,-9.599304E-3,-7.159149E-2,-4.3197633E-3,1.4872146E-1,3.3552185E-2],"split_indices":[1,5,3,8,5,2,5,0,0,0,0,0,0,0,0],"split_type":[0,0,0,0,0,0,0,0,0,0,0,0,0,0,0],"sum_hessian":[4.3E1,1.7E1,2.6E1,1.2E1,5E0,3E0,2.3E1,8E0,4E0,3E0,2E0,1E0,2E0,1E0,2.2E1],"tree_param":{"num_deleted":"0","num_feature":"11","num_nodes":"15","size_leaf_vector":"1"}},{"base_weights":[3.4106255E-2,6.699203E-1,-4.2397954E-2,1.3979827E-1,2.549076E-1,-5.915866E-1,1.5016213E-2,-2.4673461E-3,4.2430114E-2,-4.8065183E-5,-9.462181E-2,3.7253264E-2,-1.1707243E-2],"categories":[],"categories_nodes":[],"categories_segments":[],"categories_sizes":[],"default_left":[0,0,0,0,0,0,0,0,0,0,0,0,0],"id":51,"left_children":[1,3,5,-1,7,9,11,-1,-1,-1,-1,-1,-1],"loss_changes":[2.265956E0,7.303283E-1,1.3331941E0,0E0,1.1599952E-1,4.653697E-1,1.3273581E0,0E0,0E0,0E0,0E0,0E0,0E0],"parents":[2147483647,0,0,1,1,2,2,4,4,5,5,6,6],"right_children":[2,4,6,-1,8,10,12,-1,-1,-1,-1,-1,-1],"split_conditions":[5E-1,1.6E-1,8E-2,1.3979827E-1,4E0,3.8E0,2.2E-1,-2.4673461E-3,4.2430114E-2,-4.8065183E-5,-9.462181E-2,3.7253264E-2,-1.1707243E-2],"split_indices":[5,0,0,0,3,5,0,0,0,0,0,0,0],"split_type":[0,0,0,0,0,0,0,0,0,0,0,0,0],"sum_hessian":[4.5E1,4E0,4.1E1,1E0,3E0,3E0,3.8E1,1E0,2E0,1E0,2E0,1E1,2.8E1],"tree_param":{"num_deleted":"0","num_feature":"11","num_nodes":"13","size_leaf_vector":"1"}},{"base_weights":[1.7904367E-2,5.384471E-1,-6.0624648E-2,2.0810242E-1,1.3141021E-1,-2.0878594E-1,1.5211038E-1,2.5845335E-3,3.903595E-2,-3.9850682E-2,9.519768E-3,4.1672096E-2,-3.1626664E-2],"categories":[],"categories_nodes":[],"categories_segments":[],"categories_sizes":[],"default_left":[0,0,0,0,0,0,0,0,0,0,0,0,0],"id":52,"left_children":[1,3,5,7,-1,9,11,-1,-1,-1,-1,-1,-1],"loss_changes":[1.8721398E0,8.754047E-1,1.2925223E0,1.0231796E-1,0E0,8.7896335E-1,1.4705669E0,0E0,0E0,0E0,0E0,0E0,0E0],"parents":[2147483647,0,0,1,1,2,2,3,3,5,5,6,6],"right_children":[2,4,6,8,-1,10,12,-1,-1,-1,-1,-1,-1],"split_conditions":[5E-1,4.2E0,6.8E0,6E0,1.3141021E-1,4E0,1.4E1,2.5845335E-3,3.903595E-2,-3.9850682E-2,9.519768E-3,4.1672096E-2,-3.1626664E-2],"split_indices":[5,8,5,3,0,2,3,0,0,0,0,0,0],"split_type":[0,0,0,0,0,0,0,0,0,0,0,0,0],"sum_hessian":[4.4E1,5E0,3.9E1,4E0,1E0,2.3E1,1.6E1,2E0,2E0,1.6E1,7E0,1.1E1,5E0],"tree_param":{"num_deleted":"0","num_feature":"11","num_nodes":"13","size_leaf_vector":"1"}},{"base_weights":[8.8877175E-3,-1.1202736E-1,3.3374465E-1,-3.579823E-1,1.4015134E-1,2.7920723E-2,6.858857E-1,-7.089656E-2,2.4735564E-2,3.4224078E-2,-3.5282042E-2,2.5565643E-2,-3.4753417E-3,1.0074253E-1,-4.9374388E-3],"categories":[],"categories_nodes":[],"categories_segments":[],"categories_sizes":[],"default_left":[0,0,0,0,0,0,0,0,0,0,0,0,0,0,0],"id":53,"left_children":[1,3,5,7,9,11,13,-1,-1,-1,-1,-1,-1,-1,-1],"loss_changes":[1.8835531E0,2.2210329E0,1.3808609E0,2.4858637E0,1.2174188E0,9.0412796E-2,7.047279E-1,0E0,0E0,0E0,0E0,0E0,0E0,0E0,0E0],"parents":[2147483647,0,0,1,1,2,2,3,3,4,4,5,5,6,6],"right_children":[2,4,6,8,10,12,14,-1,-1,-1,-1,-1,-1,-1,-1],"split_conditions":[4E0,6.8E0,3E0,2.9E1,1.4E1,2E-1,1.9E1,-7.089656E-2,2.4735564E-2,3.4224078E-2,-3.5282042E-2,2.5565643E-2,-3.4753417E-3,1.0074253E-1,-4.9374388E-3],"split_indices":[2,5,4,3,3,0,3,0,0,0,0,0,0,0,0],"split_type":[0,0,0,0,0,0,0,0,0,0,0,0,0,0,0],"sum_hessian":[4.6E1,3.4E1,1.2E1,1.7E1,1.7E1,7E0,5E0,1.2E1,5E0,1.3E1,4E0,1E0,6E0,4E0,1E0],"tree_param":{"num_deleted":"0","num_feature":"11","num_nodes":"15","size_leaf_vector":"1"}},{"base_weights":[4.3243255E-2,4.7865486E-1,-1.5772587E-2,1.17480926E-1,1.8278274E-1,-6.4188614E-2,2.0812767E-2,2.655792E-3,3.3900756E-2,1.5945086E-2,-1.9007262E-2],"categories":[],"categories_nodes":[],"categories_segments":[],"categories_sizes":[],"default_left":[0,0,0,0,0,0,0,0,0,0,0],"id":54,"left_children":[1,3,5,-1,7,-1,9,-1,-1,-1,-1],"loss_changes":[1.2923588E0,7.0929694E-1,8.6580205E-1,0E0,7.38512E-2,0E0,8.845909E-1,0E0,0E0,0E0,0E0],"parents":[2147483647,0,0,1,1,2,2,4,4,6,6],"right_children":[2,4,6,-1,8,-1,10,-1,-1,-1,-1],"split_conditions":[5E-1,1.6E-1,1.4E0,1.17480926E-1,6E0,-6.4188614E-2,1.4E1,2.655792E-3,3.3900756E-2,1.5945086E-2,-1.9007262E-2],"split_indices":[5,0,8,0,3,0,3,0,0,0,0],"split_type":[0,0,0,0,0,0,0,0,0,0,0],"sum_hessian":[4.9E1,5E0,4.4E1,1E0,4E0,2E0,4.2E1,2E0,2E0,2.6E1,1.6E1],"tree_param":{"num_deleted":"0","num_feature":"11","num_nodes":"11","size_leaf_vector":"1"}},{"base_weights":[1.6361788E-2,-1.4870173E-1,3.9248112E-1,-3.3768272E-1,-1.8428992E-2,1.0862686E-1,1.7034912E-1,-8.063369E-2,-2.0425025E-2,2.9400328E-2,-3.0748444E-2,2.6535543E-3,6.6992946E-2],"categories":[],"categories_nodes":[],"categories_segments":[],"categories_sizes":[],"default_left":[0,0,0,0,0,0,0,0,0,0,0,0,0],"id":55,"left_children":[1,3,5,7,9,-1,11,-1,-1,-1,-1,-1,-1],"loss_changes":[2.852124E0,7.8158706E-1,1.4403479E0,6.1337817E-1,1.3157024E0,0E0,6.2020534E-1,0E0,0E0,0E0,0E0,0E0,0E0],"parents":[2147483647,0,0,1,1,2,2,3,3,4,4,6,6],"right_children":[2,4,6,8,10,-1,12,-1,-1,-1,-1,-1,-1],"split_conditions":[3E0,2.5E0,1.8E-1,5E0,1.4E1,1.0862686E-1,3.6E-1,-8.063369E-2,-2.0425025E-2,2.9400328E-2,-3.0748444E-2,2.6535543E-3,6.6992946E-2],"split_indices":[1,8,0,6,3,0,0,0,0,0,0,0,0],"split_type":[0,0,0,0,0,0,0,0,0,0,0,0,0],"sum_hessian":[4.4E1,3.1E1,1.3E1,1.2E1,1.9E1,3E0,1E1,3E0,9E0,9E0,1E1,8E0,2E0],"tree_param":{"num_deleted":"0","num_feature":"11","num_nodes":"13","size_leaf_vector":"1"}},{"base_weights":[4.455215E-2,-2.439027E-2,5.871811E-1,5.904013E-2,-3.6549187E-1,1.3481648E-1,1.0125824E-1,-1.2486038E-3,6.781425E-2,-6.738312E-2,1.7808838E-2,2.0141143E-2,4.1258237E-3],"categories":[],"categories_nodes":[],"categories_segments":[],"categories_sizes":[],"default_left":[0,0,0,0,0,0,0,0,0,0,0,0,0],"id":56,"left_children":[1,3,5,7,9,11,-1,-1,-1,-1,-1,-1,-1],"loss_changes":[1.6603682E0,1.1599084E0,4.6670818E-1,1.1656556E0,8.8926804E-1,4.1802227E-3,0E0,0E0,0E0,0E0,0E0,0E0,0E0],"parents":[2147483647,0,0,1,1,2,2,3,3,4,4,5,5],"right_children":[2,4,6,8,10,12,-1,-1,-1,-1,-1,-1,-1],"split_conditions":[4.5E0,5.2E-1,3E0,4.8E-1,8.6E1,1.7E-1,1.0125824E-1,-1.2486038E-3,6.781425E-2,-6.738312E-2,1.7808838E-2,2.0141143E-2,4.1258237E-3],"split_indices":[8,0,1,0,6,0,0,0,0,0,0,0,0],"split_type":[0,0,0,0,0,0,0,0,0,0,0,0,0],"sum_hessian":[4.3E1,3.9E1,4E0,3.2E1,7E0,2E0,2E0,2.9E1,3E0,5E0,2E0,1E0,1E0],"tree_param":{"num_deleted":"0","num_feature":"11","num_nodes":"13","size_leaf_vector":"1"}},{"base_weights":[-4.0126394E-2,6.8078107E-1,-8.729519E-2,9.78392E-2,2.4701385E-2,-1.5340835E-1,2.3765421E-1,-3.9406423E-2,-1.3469488E-3,-4.7266386E-3,4.9410917E-2],"categories":[],"categories_nodes":[],"categories_segments":[],"categories_sizes":[],"default_left":[0,0,0,0,0,0,0,0,0,0,0],"id":57,"left_children":[1,3,5,-1,-1,7,9,-1,-1,-1,-1],"loss_changes":[1.6576328E0,2.3870945E-2,1.0032126E0,0E0,0E0,9.417201E-1,4.0209153E-1,0E0,0E0,0E0,0E0],"parents":[2147483647,0,0,1,1,2,2,5,5,6,6],"right_children":[2,4,6,-1,-1,8,10,-1,-1,-1,-1],"split_conditions":[1.2E0,1.6E-1,1.52E1,9.78392E-2,2.4701385E-2,3E0,2E0,-3.9406423E-2,-1.3469488E-3,-4.7266386E-3,4.9410917E-2],"split_indices":[7,0,5,0,0,2,4,0,0,0,0],"split_type":[0,0,0,0,0,0,0,0,0,0,0],"sum_hessian":[4.6E1,2E0,4.4E1,1E0,1E0,3.7E1,7E0,1.6E1,2.1E1,3E0,4E0],"tree_param":{"num_deleted":"0","num_feature":"11","num_nodes":"11","size_leaf_vector":"1"}},{"base_weights":[1.081011E-1,4.497361E-1,-2.9758165E-2,9.412478E-2,5.0851006E-2,-3.7063408E-1,1.1351339E-1,-1.2591934E-2,2.3270644E-2,-9.080347E-2,1.5427399E-3,-3.0565043E-3,3.3609968E-2],"categories":[],"categories_nodes":[],"categories_segments":[],"categories_sizes":[],"default_left":[0,0,0,0,0,0,0,0,0,0,0,0,0],"id":58,"left_children":[1,3,5,-1,7,9,11,-1,-1,-1,-1,-1,-1],"loss_changes":[2.1327732E0,1.6953764E0,1.65372E0,0E0,1.7636582E-1,1.4902362E0,5.627474E-1,0E0,0E0,0E0,0E0,0E0,0E0],"parents":[2147483647,0,0,1,1,2,2,4,4,5,5,6,6],"right_children":[2,4,6,-1,8,10,12,-1,-1,-1,-1,-1,-1],"split_conditions":[1.9E0,3.82E1,2.6E0,9.412478E-2,2.6E-1,3.3E0,2E0,-1.2591934E-2,2.3270644E-2,-9.080347E-2,1.5427399E-3,-3.0565043E-3,3.3609968E-2],"split_indices":[7,6,7,0,0,8,1,0,0,0,0,0,0],"split_type":[0,0,0,0,0,0,0,0,0,0,0,0,0],"sum_hessian":[4.4E1,1.2E1,3.2E1,6E0,6E0,9E0,2.3E1,3E0,3E0,4E0,5E0,1.3E1,1E1],"tree_param":{"num_deleted":"0","num_feature":"11","num_nodes":"13","size_leaf_vector":"1"}},{"base_weights":[1.9327082E-2,-3.823085E-2,5.104599E-1,-3.8469633E-1,1.7480299E-2,8.3290406E-2,1.8801576E-2,1.07587045E-2,-1.06672056E-1,5.7695005E-2,-8.074542E-3],"categories":[],"categories_nodes":[],"categories_segments":[],"categories_sizes":[],"default_left":[0,0,0,0,0,0,0,0,0,0,0],"id":59,"left_children":[1,3,5,7,9,-1,-1,-1,-1,-1,-1],"loss_changes":[1.348139E0,8.3671016E-1,2.1606827E-1,1.5148151E0,1.5247655E0,0E0,0E0,0E0,0E0,0E0,0E0],"parents":[2147483647,0,0,1,1,2,2,3,3,4,4],"right_children":[2,4,6,8,10,-1,-1,-1,-1,-1,-1],"split_conditions":[4.5E0,1.6E0,3E0,9E-1,1.9E0,8.3290406E-2,1.8801576E-2,1.07587045E-2,-1.06672056E-1,5.7695005E-2,-8.074542E-3],"split_indices":[8,7,6,5,7,0,0,0,0,0,0],"split_type":[0,0,0,0,0,0,0,0,0,0,0],"sum_hessian":[4.6E1,4.2E1,4E0,5E0,3.7E1,2E0,2E0,3E0,2E0,5E0,3.2E1],"tree_param":{"num_deleted":"0","num_feature":"11","num_nodes":"11","size_leaf_vector":"1"}},{"base_weights":[7.0492454E-2,-2.6384497E-1,1.37267E-1,-5.8502007E-1,4.5864105E-2,2.7911958E-1,-2.6742032E-2,-1.8627891E-2,-8.118461E-2,1.5023803E-2,-1.6288375E-2,2.6348876E-3,4.8735872E-2,5.9356384E-2,-1.8649835E-2],"categories":[],"categories_nodes":[],"categories_segments":[],"categories_sizes":[],"default_left":[0,0,0,0,0,0,0,0,0,0,0,0,0,0,0],"id":60,"left_children":[1,3,5,7,9,11,13,-1,-1,-1,-1,-1,-1,-1,-1],"loss_changes":[1.0631776E0,8.2259816E-1,9.148034E-1,5.231309E-2,8.9029714E-2,6.7700267E-1,1.3515363E0,0E0,0E0,0E0,0E0,0E0,0E0,0E0,0E0],"parents":[2147483647,0,0,1,1,2,2,3,3,4,4,5,5,6,6],"right_children":[2,4,6,8,10,12,14,-1,-1,-1,-1,-1,-1,-1,-1],"split_conditions":[3E0,8.5E0,1.4E1,2E0,6.8E-1,2.7E0,5E-1,-1.8627891E-2,-8.118461E-2,1.5023803E-2,-1.6288375E-2,2.6348876E-3,4.8735872E-2,5.9356384E-2,-1.8649835E-2],"split_indices":[3,5,3,2,0,8,5,0,0,0,0,0,0,0,0],"split_type":[0,0,0,0,0,0,0,0,0,0,0,0,0,0,0],"sum_hessian":[4.5E1,7E0,3.8E1,3E0,4E0,2E1,1.8E1,1E0,2E0,3E0,1E0,7E0,1.3E1,3E0,1.5E1],"tree_param":{"num_deleted":"0","num_feature":"11","num_nodes":"15","size_leaf_vector":"1"}},{"base_weights":[2.8627314E-2,3.1002396E-1,-7.670937E-2,6.250413E-1,3.5007954E-2,-7.6218106E-2,-4.507005E-3,8.466E-2,1.3364868E-2,-4.9653626E-3,2.113327E-2,4.8119772E-2,-7.2339997E-3],"categories":[],"categories_nodes":[],"categories_segments":[],"categories_sizes":[],"default_left":[0,0,0,0,0,0,0,0,0,0,0,0,0],"id":61,"left_children":[1,3,5,7,9,-1,11,-1,-1,-1,-1,-1,-1],"loss_changes":[1.4169271E0,1.1043712E0,1.4083652E0,1.6939998E-1,9.3513206E-2,0E0,7.4793625E-1,0E0,0E0,0E0,0E0,0E0,0E0],"parents":[2147483647,0,0,1,1,2,2,3,3,4,4,6,6],"right_children":[2,4,6,8,10,-1,12,-1,-1,-1,-1,-1,-1],"split_conditions":[1.9E0,3.82E1,2.1E0,1.9E1,3.8E-1,-7.6218106E-2,2.3E0,8.466E-2,1.3364868E-2,-4.9653626E-3,2.113327E-2,4.8119772E-2,-7.2339997E-3],"split_indices":[7,6,7,3,0,0,7,0,0,0,0,0,0],"split_type":[0,0,0,0,0,0,0,0,0,0,0,0,0],"sum_hessian":[4.6E1,1.2E1,3.4E1,5E0,7E0,3E0,3.1E1,4E0,1E0,5E0,2E0,3E0,2.8E1],"tree_param":{"num_deleted":"0","num_feature":"11","num_nodes":"13","size_leaf_vector":"1"}},{"base_weights":[-1.210816E-2,-1.1263946E-1,1.8375307E-1,-7.1253204E-1,-5.0951805E-2,3.6094454E-1,-1.3855404E-2,4.184875E-3,-1.3244064E-1,4.121776E-2,-1.91226E-2,5.563278E-2,1.4005851E-2,3.9173584E-2,-2.8609695E-2],"categories":[],"categories_nodes":[],"categories_segments":[],"categories_sizes":[],"default_left":[0,0,0,0,0,0,0,0,0,0,0,0,0,0,0],"id":62,"left_children":[1,3,5,7,9,11,13,-1,-1,-1,-1,-1,-1,-1,-1],"loss_changes":[9.8551685E-1,1.184892E0,6.0024804E-1,9.1551054E-1,1.3802278E0,1.715473E-1,7.6558936E-1,0E0,0E0,0E0,0E0,0E0,0E0,0E0,0E0],"parents":[2147483647,0,0,1,1,2,2,3,3,4,4,5,5,6,6],"right_children":[2,4,6,8,10,12,14,-1,-1,-1,-1,-1,-1,-1,-1],"split_conditions":[3.8E0,1.5E0,1.9E-1,2.9E-1,1.9E0,3.5E0,3E0,4.184875E-3,-1.3244064E-1,4.121776E-2,-1.91226E-2,5.563278E-2,1.4005851E-2,3.9173584E-2,-2.8609695E-2],"split_indices":[8,7,0,0,7,5,4,0,0,0,0,0,0,0,0],"split_type":[0,0,0,0,0,0,0,0,0,0,0,0,0,0,0],"sum_hessian":[4.8E1,3.2E1,1.6E1,2E0,3E1,8E0,8E0,1E0,1E0,6E0,2.4E1,5E0,3E0,3E0,5E0],"tree_param":{"num_deleted":"0","num_feature":"11","num_nodes":"15","size_leaf_vector":"1"}},{"base_weights":[-8.858681E-3,-8.3874494E-2,2.9218885E-1,-2.5962406E-1,8.7039545E-2,-1.33628845E-2,3.8139835E-1,-6.2968396E-2,5.927582E-4,-2.3988779E-3,3.8672406E-2,3.933792E-3,-6.3391114E-3,5.4499585E-2,-3.3114622E-3],"categories":[],"categories_nodes":[],"categories_segments":[],"categories_sizes":[],"default_left":[0,0,0,0,0,0,0,0,0,0,0,0,0,0,0],"id":63,"left_children":[1,3,5,7,9,11,13,-1,-1,-1,-1,-1,-1,-1,-1],"loss_changes":[1.0181736E0,1.103968E0,2.5041962E-1,1.2650969E0,4.8480105E-1,7.194724E-3,2.208556E-1,0E0,0E0,0E0,0E0,0E0,0E0,0E0,0E0],"parents":[2147483647,0,0,1,1,2,2,3,3,4,4,5,5,6,6],"right_children":[2,4,6,8,10,12,14,-1,-1,-1,-1,-1,-1,-1,-1],"split_conditions":[4E0,6.8E0,8E0,3.7E0,3.3E0,2.9E-1,1.9E1,-6.2968396E-2,5.927582E-4,-2.3988779E-3,3.8672406E-2,3.933792E-3,-6.3391114E-3,5.4499585E-2,-3.3114622E-3],"split_indices":[2,5,3,8,8,0,3,0,0,0,0,0,0,0,0],"split_type":[0,0,0,0,0,0,0,0,0,0,0,0,0,0,0],"sum_hessian":[4.3E1,3.5E1,8E0,1.7E1,1.8E1,2E0,6E0,8E0,9E0,1.3E1,5E0,1E0,1E0,5E0,1E0],"tree_param":{"num_deleted":"0","num_feature":"11","num_nodes":"15","size_leaf_vector":"1"}},{"base_weights":[3.8456794E-2,3.0533156E-1,-5.414189E-2,6.2941656E-2,-1.2696584E-3,-6.508438E-2,2.6351068E-2,1.6382597E-2,-1.2515487E-2,-7.5932047E-3,3.029663E-2],"categories":[],"categories_nodes":[],"categories_segments":[],"categories_sizes":[],"default_left":[0,0,0,0,0,0,0,0,0,0,0],"id":64,"left_children":[1,3,5,-1,7,-1,9,-1,-1,-1,-1],"loss_changes":[1.1532947E0,8.0708444E-1,1.3897539E0,0E0,9.941521E-2,0E0,6.442436E-1,0E0,0E0,0E0,0E0],"parents":[2147483647,0,0,1,1,2,2,4,4,6,6],"right_children":[2,4,6,-1,8,-1,10,-1,-1,-1,-1],"split_conditions":[1.9E0,3.82E1,2.1E0,6.2941656E-2,3E0,-6.508438E-2,1.12E1,1.6382597E-2,-1.2515487E-2,-7.5932047E-3,3.029663E-2],"split_indices":[7,6,7,0,2,0,5,0,0,0,0],"split_type":[0,0,0,0,0,0,0,0,0,0,0],"sum_hessian":[4.5E1,1.1E1,3.4E1,6E0,5E0,4E0,3E1,2E0,3E0,2.2E1,8E0],"tree_param":{"num_deleted":"0","num_feature":"11","num_nodes":"11","size_leaf_vector":"1"}},{"base_weights":[-2.513358E-2,-1.5427762E-1,8.510883E-2,-1.2449249E-1,-6.282061E-2,6.229843E-2,4.6980895E-2,2.9986084E-2,-1.8131668E-2,-1.9750975E-3,3.6483947E-2],"categories":[],"categories_nodes":[],"categories_segments":[],"categories_sizes":[],"default_left":[0,0,0,0,0,0,0,0,0,0,0],"id":65,"left_children":[1,3,5,-1,7,-1,9,-1,-1,-1,-1],"loss_changes":[6.8227655E-1,1.711793E0,4.058897E-1,0E0,6.1745155E-1,0E0,4.1268885E-1,0E0,0E0,0E0,0E0],"parents":[2147483647,0,0,1,1,2,2,4,4,6,6],"right_children":[2,4,6,-1,8,-1,10,-1,-1,-1,-1],"split_conditions":[3E0,1.1E0,1.1E0,-1.2449249E-1,1.8E0,6.229843E-2,6.54E1,2.9986084E-2,-1.8131668E-2,-1.9750975E-3,3.6483947E-2],"split_indices":[2,5,7,0,7,0,6,0,0,0,0],"split_type":[0,0,0,0,0,0,0,0,0,0,0],"sum_hessian":[4.6E1,2.1E1,2.5E1,1E0,2E1,1E0,2.4E1,4E0,1.6E1,2E1,4E0],"tree_param":{"num_deleted":"0","num_feature":"11","num_nodes":"11","size_leaf_vector":"1"}},{"base_weights":[-9.409268E-3,-8.680448E-2,1.5080643E-1,-1.9048817E-2,-5.732708E-1,3.4275353E-1,-8.398485E-2,3.1895217E-2,-1.0397881E-2,-1.1702293E-1,-1.3708037E-2,1.0616341E-2,5.461807E-2,-2.861267E-2,3.0350188E-2],"categories":[],"categories_nodes":[],"categories_segments":[],"categories_sizes":[],"default_left":[0,0,0,0,0,0,0,0,0,0,0,0,0,0,0],"id":66,"left_children":[1,3,5,7,9,11,13,-1,-1,-1,-1,-1,-1,-1,-1],"loss_changes":[6.082872E-1,1.0767878E0,7.498661E-1,6.0069263E-1,6.265857E-1,2.1696019E-1,4.7659397E-1,0E0,0E0,0E0,0E0,0E0,0E0,0E0,0E0],"parents":[2147483647,0,0,1,1,2,2,3,3,4,4,5,5,6,6],"right_children":[2,4,6,8,10,12,14,-1,-1,-1,-1,-1,-1,-1,-1],"split_conditions":[3.8E0,3.6E0,3E0,1.9E0,2E0,3E0,2.1E0,3.1895217E-2,-1.0397881E-2,-1.1702293E-1,-1.3708037E-2,1.0616341E-2,5.461807E-2,-2.861267E-2,3.0350188E-2],"split_indices":[8,8,6,7,2,1,7,0,0,0,0,0,0,0,0],"split_type":[0,0,0,0,0,0,0,0,0,0,0,0,0,0,0],"sum_hessian":[4.7E1,3.2E1,1.5E1,2.9E1,3E0,8E0,7E0,5E0,2.4E1,1E0,2E0,3E0,5E0,5E0,2E0],"tree_param":{"num_deleted":"0","num_feature":"11","num_nodes":"15","size_leaf_vector":"1"}},{"base_weights":[-5.7803024E-2,3.2225659E-3,-3.8082722E-1,-3.680262E-2,4.2316474E-2,-6.072134E-2,-4.5244854E-2,1.5029883E-2,-1.9752456E-2,5.5476376E-3,-1.3691711E-2],"categories":[],"categories_nodes":[],"categories_segments":[],"categories_sizes":[],"default_left":[0,0,0,0,0,0,0,0,0,0,0],"id":67,"left_children":[1,3,5,7,-1,-1,9,-1,-1,-1,-1],"loss_changes":[8.6858785E-1,5.4442275E-1,2.7117229E-1,7.454802E-1,0E0,0E0,2.4169717E-2,0E0,0E0,0E0,0E0],"parents":[2147483647,0,0,1,1,2,2,3,3,6,6],"right_children":[2,4,6,8,-1,-1,10,-1,-1,-1,-1],"split_conditions":[5.2E-1,4.8E-1,8.6E1,2.2E-1,4.2316474E-2,-6.072134E-2,5.9E-1,1.5029883E-2,-1.9752456E-2,5.5476376E-3,-1.3691711E-2],"split_indices":[0,0,6,0,0,0,0,0,0,0,0],"split_type":[0,0,0,0,0,0,0,0,0,0,0],"sum_hessian":[4.3E1,3.7E1,6E0,3.4E1,3E0,4E0,2E0,1.5E1,1.9E1,1E0,1E0],"tree_param":{"num_deleted":"0","num_feature":"11","num_nodes":"11","size_leaf_vector":"1"}},{"base_weights":[1.7254591E-2,1.5857911E-1,-5.1789254E-2,-2.3195362E-1,2.6654464E-1,8.420944E-2,-2.0155096E-1,-3.7934188E-2,-1.182312E-2,4.329365E-2,1.6107721E-2,-5.3504473E-3,4.1908033E-2,-6.1656646E-2,-1.5489059E-3],"categories":[],"categories_nodes":[],"categories_segments":[],"categories_sizes":[],"default_left":[0,0,0,0,0,0,0,0,0,0,0,0,0,0,0],"id":68,"left_children":[1,3,5,7,9,11,13,-1,-1,-1,-1,-1,-1,-1,-1],"loss_changes":[4.7657692E-1,7.3645115E-1,6.8909657E-1,1.3773665E-2,1.13664925E-1,6.299867E-1,9.3584377E-1,0E0,0E0,0E0,0E0,0E0,0E0,0E0,0E0],"parents":[2147483647,0,0,1,1,2,2,3,3,4,4,5,5,6,6],"right_children":[2,4,6,8,10,12,14,-1,-1,-1,-1,-1,-1,-1,-1],"split_conditions":[2.2E-1,3.3E0,3.2E0,8E-2,1.9E1,2.7E0,3E0,-3.7934188E-2,-1.182312E-2,4.329365E-2,1.6107721E-2,-5.3504473E-3,4.1908033E-2,-6.1656646E-2,-1.5489059E-3],"split_indices":[0,8,8,0,3,8,2,0,0,0,0,0,0,0,0],"split_type":[0,0,0,0,0,0,0,0,0,0,0,0,0,0,0],"sum_hessian":[4.7E1,1.5E1,3.2E1,3E0,1.2E1,1.7E1,1.5E1,1E0,2E0,6E0,6E0,1.2E1,5E0,5E0,1E1],"tree_param":{"num_deleted":"0","num_feature":"11","num_nodes":"15","size_leaf_vector":"1"}},{"base_weights":[-5.751928E-3,5.17836E-2,-2.4237288E-2,-3.158844E-1,1.0238825E-2,5.175819E-3,-1.05116956E-1,2.4515737E-2,-4.7945515E-3],"categories":[],"categories_nodes":[],"categories_segments":[],"categories_sizes":[],"default_left":[0,0,0,0,0,0,0,0,0],"id":69,"left_children":[1,-1,3,5,7,-1,-1,-1,-1],"loss_changes":[3.9845818E-1,0E0,4.7581264E-1,1.0431898E0,4.2700347E-1,0E0,0E0,0E0,0E0],"parents":[2147483647,0,0,2,2,3,3,4,4],"right_children":[2,-1,4,6,8,-1,-1,-1,-1],"split_conditions":[1.1E0,5.17836E-2,1.5E0,2.9E-1,1.9E0,5.175819E-3,-1.05116956E-1,2.4515737E-2,-4.7945515E-3],"split_indices":[7,0,7,0,7,0,0,0,0],"split_type":[0,0,0,0,0,0,0,0,0],"sum_hessian":[4.7E1,1E0,4.6E1,4E0,4.2E1,3E0,1E0,8E0,3.4E1],"tree_param":{"num_deleted":"0","num_feature":"11","num_nodes":"9","size_leaf_vector":"1"}},{"base_weights":[-1.2123676E-2,4.8676755E-2,-3.002374E-2,-3.8849545E-1,4.020691E-3,3.7139892E-3,-9.880989E-2,8.975372E-3,-1.5969267E-2],"categories":[],"categories_nodes":[],"categories_segments":[],"categories_sizes":[],"default_left":[0,0,0,0,0,0,0,0,0],"id":70,"left_children":[1,-1,3,5,7,-1,-1,-1,-1],"loss_changes":[3.6364436E-1,0E0,5.629444E-1,7.5518584E-1,4.271816E-1,0E0,0E0,0E0,0E0],"parents":[2147483647,0,0,2,2,3,3,4,4],"right_children":[2,-1,4,6,8,-1,-1,-1,-1],"split_conditions":[1.1E0,4.8676755E-2,1.5E0,2.6E-1,1.4E1,3.7139892E-3,-9.880989E-2,8.975372E-3,-1.5969267E-2],"split_indices":[7,0,7,0,3,0,0,0,0],"split_type":[0,0,0,0,0,0,0,0,0],"sum_hessian":[4.6E1,1E0,4.5E1,3E0,4.2E1,2E0,1E0,2.8E1,1.4E1],"tree_param":{"num_deleted":"0","num_feature":"11","num_nodes":"9","size_leaf_vector":"1"}},{"base_weights":[3.24022E-2,-4.9717024E-2,5.0721757E-2,1.9614077E-1,-2.3572803E-2,1.336174E-2,4.3249875E-2,-5.057476E-2,3.8544647E-3],"categories":[],"categories_nodes":[],"categories_segments":[],"categories_sizes":[],"default_left":[0,0,0,0,0,0,0,0,0],"id":71,"left_children":[1,-1,3,5,7,-1,-1,-1,-1],"loss_changes":[4.1382456E-1,0E0,5.1240414E-1,1.8273807E-1,7.226403E-1,0E0,0E0,0E0,0E0],"parents":[2147483647,0,0,2,2,3,3,4,4],"right_children":[2,-1,4,6,8,-1,-1,-1,-1],"split_conditions":[4E-2,-4.9717024E-2,2.2E-1,3E0,1.6E0,1.336174E-2,4.3249875E-2,-5.057476E-2,3.8544647E-3],"split_indices":[0,0,0,1,7,0,0,0,0],"split_type":[0,0,0,0,0,0,0,0,0],"sum_hessian":[4.7E1,1E0,4.6E1,1.5E1,3.1E1,1.1E1,4E0,3E0,2.8E1],"tree_param":{"num_deleted":"0","num_feature":"11","num_nodes":"9","size_leaf_vector":"1"}},{"base_weights":[2.3367988E-2,-7.8214996E-2,1.1551205E-1,-1.7024972E-1,1.9558589E-1,-2.1384685E-1,1.5517408E-1,-2.3095193E-3,-3.6280416E-2,2.6276367E-2,4.720001E-3,-3.2782746E-3,-3.5214156E-2,2.1900022E-2,-2.5120467E-2],"categories":[],"categories_nodes":[],"categories_segments":[],"categories_sizes":[],"default_left":[0,0,0,0,0,0,0,0,0,0,0,0,0,0,0],"id":72,"left_children":[1,3,5,7,9,11,13,-1,-1,-1,-1,-1,-1,-1,-1],"loss_changes":[4.302469E-1,5.876806E-1,3.4669647E-1,3.3325714E-1,1.3309881E-2,3.6528572E-2,2.5733912E-1,0E0,0E0,0E0,0E0,0E0,0E0,0E0,0E0],"parents":[2147483647,0,0,1,1,2,2,3,3,4,4,5,5,6,6],"right_children":[2,4,6,8,10,12,14,-1,-1,-1,-1,-1,-1,-1,-1],"split_conditions":[3E0,1E0,8E-2,7E0,4.2E1,5E-2,5.9E-1,-2.3095193E-3,-3.6280416E-2,2.6276367E-2,4.720001E-3,-3.2782746E-3,-3.5214156E-2,2.1900022E-2,-2.5120467E-2],"split_indices":[2,9,0,3,6,0,0,0,0,0,0,0,0,0,0],"split_type":[0,0,0,0,0,0,0,0,0,0,0,0,0,0,0],"sum_hessian":[4.4E1,2.1E1,2.3E1,1.6E1,5E0,2E0,2.1E1,8E0,8E0,4E0,1E0,1E0,1E0,2E1,1E0],"tree_param":{"num_deleted":"0","num_feature":"11","num_nodes":"15","size_leaf_vector":"1"}},{"base_weights":[-1.3909319E-2,1.9228792E-1,-5.4801036E-2,2.8717485E-1,-6.158193E-2,-8.766998E-2,-1.8740386E-2,1.4497222E-2,4.0818557E-2,-1.865387E-3,-9.219361E-3,-7.7414056E-3,2.0002497E-2],"categories":[],"categories_nodes":[],"categories_segments":[],"categories_sizes":[],"default_left":[0,0,0,0,0,0,0,0,0,0,0,0,0],"id":73,"left_children":[1,3,5,7,9,-1,11,-1,-1,-1,-1,-1,-1],"loss_changes":[4.0683025E-1,2.1039623E-1,9.6107435E-1,1.178962E-2,9.11369E-4,0E0,3.4175724E-1,0E0,0E0,0E0,0E0,0E0,0E0],"parents":[2147483647,0,0,1,1,2,2,3,3,4,4,6,6],"right_children":[2,4,6,8,10,-1,12,-1,-1,-1,-1,-1,-1],"split_conditions":[8E-1,4.1E0,1.5E0,3.6E0,2.5E-1,-8.766998E-2,1.52E1,1.4497222E-2,4.0818557E-2,-1.865387E-3,-9.219361E-3,-7.7414056E-3,2.0002497E-2],"split_indices":[5,7,7,8,0,0,5,0,0,0,0,0,0],"split_type":[0,0,0,0,0,0,0,0,0,0,0,0,0],"sum_hessian":[4.6E1,7E0,3.9E1,5E0,2E0,1E0,3.8E1,2E0,3E0,1E0,1E0,3.1E1,7E0],"tree_param":{"num_deleted":"0","num_feature":"11","num_nodes":"13","size_leaf_vector":"1"}},{"base_weights":[2.8212894E-2,-4.014923E-2,5.3454716E-2,-7.330859E-3,1.5268946E-1,1.1112598E-2,-2.609904E-2,4.4753492E-2,8.780752E-3],"categories":[],"categories_nodes":[],"categories_segments":[],"categories_sizes":[],"default_left":[0,0,0,0,0,0,0,0,0],"id":74,"left_children":[1,-1,3,5,7,-1,-1,-1,-1],"loss_changes":[4.2081368E-1,0E0,2.5446504E-1,5.872119E-1,2.5293475E-1,0E0,0E0,0E0,0E0],"parents":[2147483647,0,0,2,2,3,3,4,4],"right_children":[2,-1,4,6,8,-1,-1,-1,-1],"split_conditions":[1.4E0,-4.014923E-2,6.8E0,2.5E0,8.4E0,1.1112598E-2,-2.609904E-2,4.4753492E-2,8.780752E-3],"split_indices":[8,0,5,5,5,0,0,0,0],"split_type":[0,0,0,0,0,0,0,0,0],"sum_hessian":[4.3E1,2E0,4.1E1,2.6E1,1.5E1,1.8E1,8E0,3E0,1.2E1],"tree_param":{"num_deleted":"0","num_feature":"11","num_nodes":"9","size_leaf_vector":"1"}},{"base_weights":[-1.7627E-2,-3.1245345E-1,1.627662E-2,-5.99588E-2,-2.109909E-2,1.2980679E-1,-3.552012E-2,7.886124E-3,-1.16839595E-2,6.1039454E-3,3.7733E-2,1.3865838E-2,-1.6441617E-2],"categories":[],"categories_nodes":[],"categories_segments":[],"categories_sizes":[],"default_left":[0,0,0,0,0,0,0,0,0,0,0,0,0],"id":75,"left_children":[1,3,5,-1,7,9,11,-1,-1,-1,-1,-1,-1],"loss_changes":[4.8487854E-1,2.6217002E-1,2.6335242E-1,0E0,2.6262522E-2,1.8805815E-1,4.9113855E-1,0E0,0E0,0E0,0E0,0E0,0E0],"parents":[2147483647,0,0,1,1,2,2,4,4,5,5,6,6],"right_children":[2,4,6,-1,8,10,12,-1,-1,-1,-1,-1,-1],"split_conditions":[1.8E0,6.2E-1,7E0,-5.99588E-2,6.8E-1,6.01E1,2.2E-1,7.886124E-3,-1.16839595E-2,6.1039454E-3,3.7733E-2,1.3865838E-2,-1.6441617E-2],"split_indices":[8,0,3,0,0,6,0,0,0,0,0,0,0],"split_type":[0,0,0,0,0,0,0,0,0,0,0,0,0],"sum_hessian":[4.7E1,4E0,4.3E1,2E0,2E0,1.3E1,3E1,1E0,1E0,1E1,3E0,1.2E1,1.8E1],"tree_param":{"num_deleted":"0","num_feature":"11","num_nodes":"13","size_leaf_vector":"1"}},{"base_weights":[-1.602602E-2,-3.40715E-2,1.7943175E-3,7.362429E-2,-4.285168E-2,4.310276E-3,4.287689E-2,9.48677E-3,-1.4609171E-2],"categories":[],"categories_nodes":[],"categories_segments":[],"categories_sizes":[],"default_left":[0,0,0,0,0,0,0,0,0],"id":76,"left_children":[1,-1,3,5,7,-1,-1,-1,-1],"loss_changes":[2.2966745E-1,0E0,1.5067329E-1,1.7970048E-1,2.8853217E-1,0E0,0E0,0E0,0E0],"parents":[2147483647,0,0,2,2,3,3,4,4],"right_children":[2,-1,4,6,8,-1,-1,-1,-1],"split_conditions":[1.4E0,-3.40715E-2,7E0,3E0,2.2E-1,4.310276E-3,4.287689E-2,9.48677E-3,-1.4609171E-2],"split_indices":[8,0,3,4,0,0,0,0,0],"split_type":[0,0,0,0,0,0,0,0,0],"sum_hessian":[4.7E1,2E0,4.5E1,1.7E1,2.8E1,1.6E1,1E0,1.1E1,1.7E1],"tree_param":{"num_deleted":"0","num_feature":"11","num_nodes":"9","size_leaf_vector":"1"}},{"base_weights":[-1.6180404E-3,2.2995377E-1,-2.2633249E-2,3.7330627E-2,1.1905517E-2,-4.6147028E-1,9.25114E-3,-1.8511963E-3,-8.121345E-2,2.0843858E-2,-4.9034185E-3],"categories":[],"categories_nodes":[],"categories_segments":[],"categories_sizes":[],"default_left":[0,0,0,0,0,0,0,0,0,0,0],"id":77,"left_children":[1,3,5,-1,-1,7,9,-1,-1,-1,-1],"loss_changes":[2.339315E-1,1.1566699E-2,6.1991936E-1,0E0,0E0,2.7767056E-1,3.5321796E-1,0E0,0E0,0E0,0E0],"parents":[2147483647,0,0,1,1,2,2,5,5,6,6],"right_children":[2,4,6,-1,-1,8,10,-1,-1,-1,-1],"split_conditions":[1.4E0,1.6E-1,1.5E0,3.7330627E-2,1.1905517E-2,1.5E-1,1.9E0,-1.8511963E-3,-8.121345E-2,2.0843858E-2,-4.9034185E-3],"split_indices":[7,0,7,0,0,0,7,0,0,0,0],"split_type":[0,0,0,0,0,0,0,0,0,0,0],"sum_hessian":[4.6E1,3E0,4.3E1,1E0,2E0,2E0,4.1E1,1E0,1E0,9E0,3.2E1],"tree_param":{"num_deleted":"0","num_feature":"11","num_nodes":"11","size_leaf_vector":"1"}},{"base_weights":[3.4608233E-3,-2.5591442E-2,2.0624988E-1,1.3427838E-2,-2.619451E-1,6.2542915E-2,3.9493103E-2,-1.2095816E-3,3.3984985E-2,1.6943358E-3,-4.8420865E-2,9.062805E-3,1.4160919E-3],"categories":[],"categories_nodes":[],"categories_segments":[],"categories_sizes":[],"default_left":[0,0,0,0,0,0,0,0,0,0,0,0,0],"id":78,"left_children":[1,3,5,7,9,11,-1,-1,-1,-1,-1,-1,-1],"loss_changes":[2.8217784E-1,3.9085603E-1,8.535096E-2,2.3750544E-1,2.4017903E-1,1.7433912E-3,0E0,0E0,0E0,0E0,0E0,0E0,0E0],"parents":[2147483647,0,0,1,1,2,2,3,3,4,4,5,5],"right_children":[2,4,6,8,10,12,-1,-1,-1,-1,-1,-1,-1],"split_conditions":[1.52E1,5.1E-1,2.9E0,4.5E-1,7.2E0,2.8E0,3.9493103E-2,-1.2095816E-3,3.3984985E-2,1.6943358E-3,-4.8420865E-2,9.062805E-3,1.4160919E-3],"split_indices":[5,0,7,0,5,7,0,0,0,0,0,0,0],"split_type":[0,0,0,0,0,0,0,0,0,0,0,0,0],"sum_hessian":[4.6E1,4.1E1,5E0,3.6E1,5E0,3E0,2E0,3.4E1,2E0,2E0,3E0,2E0,1E0],"tree_param":{"num_deleted":"0","num_feature":"11","num_nodes":"13","size_leaf_vector":"1"}},{"base_weights":[2.969052E-3,1.11563966E-1,-5.6678772E-2,-9.798737E-2,1.8357879E-1,-7.6268E-2,-1.619695E-2,2.5179634E-2,-2.7287921E-2,3.045384E-2,1.0458004E-2,6.2733893E-3,-1.9005021E-2],"categories":[],"categories_nodes":[],"categories_segments":[],"categories_sizes":[],"default_left":[0,0,0,0,0,0,0,0,0,0,0,0,0],"id":79,"left_children":[1,3,5,7,9,-1,11,-1,-1,-1,-1,-1,-1],"loss_changes":[3.1076348E-1,2.7453202E-1,7.161734E-1,2.4689172E-1,6.588781E-2,0E0,3.0035E-1,0E0,0E0,0E0,0E0,0E0,0E0],"parents":[2147483647,0,0,1,1,2,2,3,3,4,4,6,6],"right_children":[2,4,6,8,10,-1,12,-1,-1,-1,-1,-1,-1],"split_conditions":[2.2E-1,3.3E0,1.5E0,6E-2,1.9E1,-7.6268E-2,1.2E1,2.5179634E-2,-2.7287921E-2,3.045384E-2,1.0458004E-2,6.2733893E-3,-1.9005021E-2],"split_indices":[0,8,7,0,3,0,3,0,0,0,0,0,0],"split_type":[0,0,0,0,0,0,0,0,0,0,0,0,0],"sum_hessian":[4.6E1,1.6E1,3E1,4E0,1.2E1,1E0,2.9E1,1E0,3E0,6E0,6E0,2E1,9E0],"tree_param":{"num_deleted":"0","num_feature":"11","num_nodes":"13","size_leaf_vector":"1"}},{"base_weights":[7.948084E-3,2.9531822E-2,-1.3882593E-2,-4.1103745E-1,1.4816148E-2,-2.2947693E-3,-7.169197E-2,2.3857625E-2,-4.1189776E-3],"categories":[],"categories_nodes":[],"categories_segments":[],"categories_sizes":[],"default_left":[0,0,0,0,0,0,0,0,0],"id":80,"left_children":[1,-1,3,5,7,-1,-1,-1,-1],"loss_changes":[2.4776879E-1,0E0,5.075951E-1,2.0772868E-1,3.865802E-1,0E0,0E0,0E0,0E0],"parents":[2147483647,0,0,2,2,3,3,4,4],"right_children":[2,-1,4,6,8,-1,-1,-1,-1],"split_conditions":[1.4E0,2.9531822E-2,1.5E0,1.5E-1,1.9E0,-2.2947693E-3,-7.169197E-2,2.3857625E-2,-4.1189776E-3],"split_indices":[7,0,7,0,7,0,0,0,0],"split_type":[0,0,0,0,0,0,0,0,0],"sum_hessian":[4.6E1,3E0,4.3E1,2E0,4.1E1,1E0,1E0,8E0,3.3E1],"tree_param":{"num_deleted":"0","num_feature":"11","num_nodes":"9","size_leaf_vector":"1"}},{"base_weights":[2.6511366E-2,1.2705879E-1,-5.498703E-2,2.959633E-1,1.3343811E-2,-1.54666E-1,1.3940515E-1,4.7040343E-2,1.2230759E-2,-2.7831297E-2,1.7774759E-2,-2.5209013E-2,9.351883E-3,2.199562E-2,4.6459576E-3],"categories":[],"categories_nodes":[],"categories_segments":[],"categories_sizes":[],"default_left":[0,0,0,0,0,0,0,0,0,0,0,0,0,0,0],"id":81,"left_children":[1,3,5,7,9,11,13,-1,-1,-1,-1,-1,-1,-1,-1],"loss_changes":[3.6754256E-1,3.8019016E-1,5.059815E-1,1.0913026E-1,4.6410087E-1,2.3546878E-1,3.2678038E-2,0E0,0E0,0E0,0E0,0E0,0E0,0E0,0E0],"parents":[2147483647,0,0,1,1,2,2,3,3,4,4,5,5,6,6],"right_children":[2,4,6,8,10,12,14,-1,-1,-1,-1,-1,-1,-1,-1],"split_conditions":[4E0,3.2E0,2.6E0,1.9E1,3.5E0,8.6E1,3E0,4.7040343E-2,1.2230759E-2,-2.7831297E-2,1.7774759E-2,-2.5209013E-2,9.351883E-3,2.199562E-2,4.6459576E-3],"split_indices":[6,7,7,3,8,6,2,0,0,0,0,0,0,0,0],"split_type":[0,0,0,0,0,0,0,0,0,0,0,0,0,0,0],"sum_hessian":[4.3E1,1.9E1,2.4E1,7E0,1.2E1,1.6E1,8E0,4E0,3E0,4E0,8E0,1.3E1,3E0,5E0,3E0],"tree_param":{"num_deleted":"0","num_feature":"11","num_nodes":"15","size_leaf_vector":"1"}},{"base_weights":[-1.6781633E-3,-3.318001E-2,1.7991928E-2,2.1383122E-1,-2.0587709E-2,2.8117828E-2,5.455627E-3,-4.1121673E-2,1.0125329E-3],"categories":[],"categories_nodes":[],"categories_segments":[],"categories_sizes":[],"default_left":[0,0,0,0,0,0,0,0,0],"id":82,"left_children":[1,-1,3,5,7,-1,-1,-1,-1],"loss_changes":[2.4282876E-1,0E0,3.2172945E-1,1.3489157E-2,3.3945194E-1,0E0,0E0,0E0,0E0],"parents":[2147483647,0,0,2,2,3,3,4,4],"right_children":[2,-1,4,6,8,-1,-1,-1,-1],"split_conditions":[1.4E0,-3.318001E-2,2.2E0,5.8E-1,2E0,2.8117828E-2,5.455627E-3,-4.1121673E-2,1.0125329E-3],"split_indices":[8,0,8,0,2,0,0,0,0],"split_type":[0,0,0,0,0,0,0,0,0],"sum_hessian":[4.3E1,2E0,4.1E1,6E0,3.5E1,5E0,1E0,2E0,3.3E1],"tree_param":{"num_deleted":"0","num_feature":"11","num_nodes":"9","size_leaf_vector":"1"}},{"base_weights":[8.848978E-3,-9.299345E-2,6.6264726E-2,-2.4970031E-1,4.1671373E-2,-3.8622208E-2,9.074639E-2,-4.5126073E-2,1.0348053E-2,-5.4656216E-3,1.6559877E-2,-7.6162717E-3,1.7123982E-2],"categories":[],"categories_nodes":[],"categories_segments":[],"categories_sizes":[],"default_left":[0,0,0,0,0,0,0,0,0,0,0,0,0],"id":83,"left_children":[1,3,5,7,9,-1,11,-1,-1,-1,-1,-1,-1],"loss_changes":[2.7514073E-1,3.691547E-1,3.1425896E-1,3.7199128E-1,9.030063E-2,0E0,2.4140555E-1,0E0,0E0,0E0,0E0,0E0,0E0],"parents":[2147483647,0,0,1,1,2,2,3,3,4,4,6,6],"right_children":[2,4,6,8,10,-1,12,-1,-1,-1,-1,-1,-1],"split_conditions":[2E0,5E0,1.8E0,3.5E0,3E0,-3.8622208E-2,1.6E0,-4.5126073E-2,1.0348053E-2,-5.4656216E-3,1.6559877E-2,-7.6162717E-3,1.7123982E-2],"split_indices":[1,6,8,8,7,0,7,0,0,0,0,0,0],"split_type":[0,0,0,0,0,0,0,0,0,0,0,0,0],"sum_hessian":[4.5E1,1.6E1,2.9E1,7E0,9E0,1E0,2.8E1,5E0,2E0,5E0,4E0,7E0,2.1E1],"tree_param":{"num_deleted":"0","num_feature":"11","num_nodes":"13","size_leaf_vector":"1"}},{"base_weights":[-2.2484867E-2,-3.2940674E-1,8.007143E-3,-4.5942232E-2,-1.0144272E-2,1.4721528E-1,-3.574562E-2,2.6707534E-2,3.2826231E-3,8.000142E-3,-2.066185E-2],"categories":[],"categories_nodes":[],"categories_segments":[],"categories_sizes":[],"default_left":[0,0,0,0,0,0,0,0,0,0,0],"id":84,"left_children":[1,3,5,-1,-1,7,9,-1,-1,-1,-1],"loss_changes":[4.1441882E-1,1.9984156E-2,2.5498265E-1,0E0,0E0,8.4223345E-2,4.5861286E-1,0E0,0E0,0E0,0E0],"parents":[2147483647,0,0,1,1,2,2,5,5,6,6],"right_children":[2,4,6,-1,-1,8,10,-1,-1,-1,-1],"split_conditions":[1.8E0,6.2E-1,2.5E0,-4.5942232E-2,-1.0144272E-2,2.3E0,2.8E-1,2.6707534E-2,3.2826231E-3,8.000142E-3,-2.066185E-2],"split_indices":[8,0,4,0,0,7,0,0,0,0,0],"split_type":[0,0,0,0,0,0,0,0,0,0,0],"sum_hessian":[4.3E1,3E0,4E1,2E0,1E0,9E0,3.1E1,5E0,4E0,1.8E1,1.3E1],"tree_param":{"num_deleted":"0","num_feature":"11","num_nodes":"11","size_leaf_vector":"1"}},{"base_weights":[9.864077E-3,-4.04675E-2,1.0991073E-1,-3.1038538E-1,-1.2126795E-2,3.3304594E-2,4.987834E-2,1.0179291E-2,-6.604866E-2,2.2943506E-2,-8.5108755E-3,2.4102936E-2,5.001276E-4],"categories":[],"categories_nodes":[],"categories_segments":[],"categories_sizes":[],"default_left":[0,0,0,0,0,0,0,0,0,0,0,0,0],"id":85,"left_children":[1,3,5,7,9,-1,11,-1,-1,-1,-1,-1,-1],"loss_changes":[2.4111657E-1,2.4102525E-1,1.4716619E-1,3.3126652E-1,3.7220433E-1,0E0,8.88806E-2,0E0,0E0,0E0,0E0,0E0,0E0],"parents":[2147483647,0,0,1,1,2,2,3,3,4,4,6,6],"right_children":[2,4,6,8,10,-1,12,-1,-1,-1,-1,-1,-1],"split_conditions":[3.8E0,1.5E0,8E-1,2.9E-1,1.9E0,3.3304594E-2,3.9E0,1.0179291E-2,-6.604866E-2,2.2943506E-2,-8.5108755E-3,2.4102936E-2,5.001276E-4],"split_indices":[8,7,5,0,7,0,8,0,0,0,0,0,0],"split_type":[0,0,0,0,0,0,0,0,0,0,0,0,0],"sum_hessian":[4.6E1,3.1E1,1.5E1,2E0,2.9E1,3E0,1.2E1,1E0,1E0,6E0,2.3E1,2E0,1E1],"tree_param":{"num_deleted":"0","num_feature":"11","num_nodes":"13","size_leaf_vector":"1"}},{"base_weights":[-7.2769634E-3,-4.274255E-2,9.422331E-2,-1.473198E-1,2.0041784E-2,2.2030869E-1,1.3706631E-2,-3.486208E-2,4.4856262E-3,-6.0017393E-3,1.9968739E-2,3.818863E-2,5.873108E-3,1.4701842E-2,-4.1860524E-3],"categories":[],"categories_nodes":[],"categories_segments":[],"categories_sizes":[],"default_left":[0,0,0,0,0,0,0,0,0,0,0,0,0,0,0],"id":86,"left_children":[1,3,5,7,9,11,13,-1,-1,-1,-1,-1,-1,-1,-1],"loss_changes":[1.8041591E-1,2.4588762E-1,1.2895602E-1,3.8113979E-1,2.5441256E-1,6.8333894E-2,5.185734E-2,0E0,0E0,0E0,0E0,0E0,0E0,0E0,0E0],"parents":[2147483647,0,0,1,1,2,2,3,3,4,4,5,5,6,6],"right_children":[2,4,6,8,10,12,14,-1,-1,-1,-1,-1,-1,-1,-1],"split_conditions":[4E0,2.1E0,1.9E0,1E0,2E0,3.82E1,2E-1,-3.486208E-2,4.4856262E-3,-6.0017393E-3,1.9968739E-2,3.818863E-2,5.873108E-3,1.4701842E-2,-4.1860524E-3],"split_indices":[2,7,7,9,1,6,0,0,0,0,0,0,0,0,0],"split_type":[0,0,0,0,0,0,0,0,0,0,0,0,0,0,0],"sum_hessian":[4.8E1,3.6E1,1.2E1,1.3E1,2.3E1,4E0,8E0,7E0,6E0,1.6E1,7E0,2E0,2E0,2E0,6E0],"tree_param":{"num_deleted":"0","num_feature":"11","num_nodes":"15","size_leaf_vector":"1"}},{"base_weights":[1.2187431E-2,-2.5097502E-2,2.6672151E-2,-3.8609345E-2,9.667596E-2,-2.4325514E-2,8.804016E-3,2.3067007E-2,1.8888033E-3],"categories":[],"categories_nodes":[],"categories_segments":[],"categories_sizes":[],"default_left":[0,0,0,0,0,0,0,0,0],"id":87,"left_children":[1,-1,3,5,7,-1,-1,-1,-1],"loss_changes":[1.5625806E-1,0E0,2.093805E-1,4.5588806E-1,1.6710822E-1,0E0,0E0,0E0,0E0],"parents":[2147483647,0,0,2,2,3,3,4,4],"right_children":[2,-1,4,6,8,-1,-1,-1,-1],"split_conditions":[1.4E0,-2.5097502E-2,2.7E0,3E0,3E0,-2.4325514E-2,8.804016E-3,2.3067007E-2,1.8888033E-3],"split_indices":[8,0,7,2,2,0,0,0,0],"split_type":[0,0,0,0,0,0,0,0,0],"sum_hessian":[4.6E1,2E0,4.4E1,2.3E1,2.1E1,9E0,1.4E1,9E0,1.2E1],"tree_param":{"num_deleted":"0","num_feature":"11","num_nodes":"9","size_leaf_vector":"1"}},{"base_weights":[-4.1318806E-3,-2.5363445E-1,2.031061E-2,-5.677185E-3,-3.679672E-2,-2.6361613E-2,9.488356E-2,-1.318415E-2,7.871528E-3,1.5692329E-3,3.2669127E-2],"categories":[],"categories_nodes":[],"categories_segments":[],"categories_sizes":[],"default_left":[0,0,0,0,0,0,0,0,0,0,0],"id":88,"left_children":[1,3,5,-1,-1,7,9,-1,-1,-1,-1],"loss_changes":[2.734839E-1,2.9237777E-2,1.4520119E-1,0E0,0E0,2.068621E-1,2.2858635E-1,0E0,0E0,0E0,0E0],"parents":[2147483647,0,0,1,1,2,2,5,5,6,6],"right_children":[2,4,6,-1,-1,8,10,-1,-1,-1,-1],"split_conditions":[8E-2,3.8E0,2.9E0,-5.677185E-3,-3.679672E-2,3E0,3E0,-1.318415E-2,7.871528E-3,1.5692329E-3,3.2669127E-2],"split_indices":[0,5,7,0,0,2,4,0,0,0,0],"split_type":[0,0,0,0,0,0,0,0,0,0,0],"sum_hessian":[4.3E1,3E0,4E1,1E0,2E0,2.5E1,1.5E1,1.3E1,1.2E1,1.1E1,4E0],"tree_param":{"num_deleted":"0","num_feature":"11","num_nodes":"11","size_leaf_vector":"1"}},{"base_weights":[-9.588401E-4,1.276946E-1,-2.6038565E-2,2.6089506E-2,-1.6376495E-2,-3.3253098E-1,-1.7945705E-3,2.8829956E-3,-4.542236E-3,-2.1121216E-3,-5.7743452E-2,1.8456114E-2,-4.169436E-3],"categories":[],"categories_nodes":[],"categories_segments":[],"categories_sizes":[],"default_left":[0,0,0,0,0,0,0,0,0,0,0,0,0],"id":89,"left_children":[1,3,5,-1,7,9,11,-1,-1,-1,-1,-1,-1],"loss_changes":[1.5820144E-1,1.06966585E-1,3.0405784E-1,0E0,4.379954E-3,1.3198715E-1,2.0529634E-1,0E0,0E0,0E0,0E0,0E0,0E0],"parents":[2147483647,0,0,1,1,2,2,4,4,5,5,6,6],"right_children":[2,4,6,-1,8,10,12,-1,-1,-1,-1,-1,-1],"split_conditions":[8E-1,3.9E0,1.5E0,2.6089506E-2,2E-1,1.5E-1,2E0,2.8829956E-3,-4.542236E-3,-2.1121216E-3,-5.7743452E-2,1.8456114E-2,-4.169436E-3],"split_indices":[5,7,7,0,0,0,2,0,0,0,0,0,0],"split_type":[0,0,0,0,0,0,0,0,0,0,0,0,0],"sum_hessian":[4.7E1,7E0,4E1,4E0,3E0,2E0,3.8E1,1E0,2E0,1E0,1E0,6E0,3.2E1],"tree_param":{"num_deleted":"0","num_feature":"11","num_nodes":"13","size_leaf_vector":"1"}},{"base_weights":[2.4942316E-3,-4.3679267E-2,9.17995E-2,-2.0612487E-1,3.2145068E-2,2.6641158E-2,4.467333E-2,-1.2182578E-2,-4.9963072E-2,1.0721232E-2,-2.162384E-2,-2.6418113E-3,1.5137481E-2],"categories":[],"categories_nodes":[],"categories_segments":[],"categories_sizes":[],"default_left":[0,0,0,0,0,0,0,0,0,0,0,0,0],"id":90,"left_children":[1,3,5,7,9,-1,11,-1,-1,-1,-1,-1,-1],"loss_changes":[1.9369242E-1,3.884631E-1,8.8262975E-2,1.7764255E-1,2.8330612E-1,0E0,7.340952E-2,0E0,0E0,0E0,0E0,0E0,0E0],"parents":[2147483647,0,0,1,1,2,2,3,3,4,4,6,6],"right_children":[2,4,6,8,10,-1,12,-1,-1,-1,-1,-1,-1],"split_conditions":[3.8E0,1.5E0,3.9E0,2.9E-1,5.9E-1,2.6641158E-2,4.5E0,-1.2182578E-2,-4.9963072E-2,1.0721232E-2,-2.162384E-2,-2.6418113E-3,1.5137481E-2],"split_indices":[8,6,8,0,0,0,8,0,0,0,0,0,0],"split_type":[0,0,0,0,0,0,0,0,0,0,0,0,0],"sum_hessian":[4.5E1,3E1,1.5E1,9E0,2.1E1,3E0,1.2E1,7E0,2E0,1.7E1,4E0,7E0,5E0],"tree_param":{"num_deleted":"0","num_feature":"11","num_nodes":"13","size_leaf_vector":"1"}},{"base_weights":[1.7803323E-2,1.2429973E-1,-3.0866131E-2,2.6619285E-1,-1.5394211E-2,-8.758281E-2,8.021719E-2,3.708435E-2,1.2726746E-2,5.473572E-3,-1.0536575E-2,-2.2867616E-2,1.2429742E-2,1.9252807E-2,1.3746643E-3],"categories":[],"categories_nodes":[],"categories_segments":[],"categories_sizes":[],"default_left":[0,0,0,0,0,0,0,0,0,0,0,0,0,0,0],"id":91,"left_children":[1,3,5,7,9,11,13,-1,-1,-1,-1,-1,-1,-1,-1],"loss_changes":[2.3189403E-1,2.816003E-1,2.0233424E-1,1.5250415E-2,3.934565E-2,4.3314898E-1,5.8840908E-2,0E0,0E0,0E0,0E0,0E0,0E0,0E0,0E0],"parents":[2147483647,0,0,1,1,2,2,3,3,4,4,5,5,6,6],"right_children":[2,4,6,8,10,12,14,-1,-1,-1,-1,-1,-1,-1,-1],"split_conditions":[1.9E0,3.82E1,3.5E0,1.9E1,5.4E1,1.24E1,3.9E0,3.708435E-2,1.2726746E-2,5.473572E-3,-1.0536575E-2,-2.2867616E-2,1.2429742E-2,1.9252807E-2,1.3746643E-3],"split_indices":[7,6,8,3,6,5,8,0,0,0,0,0,0,0,0],"split_type":[0,0,0,0,0,0,0,0,0,0,0,0,0,0,0],"sum_hessian":[4.3E1,1.3E1,3E1,6E0,7E0,2E1,1E1,4E0,2E0,4E0,3E0,1.3E1,7E0,4E0,6E0],"tree_param":{"num_deleted":"0","num_feature":"11","num_nodes":"15","size_leaf_vector":"1"}},{"base_weights":[1.8802086E-2,-4.6768613E-2,5.626888E-2,-1.3018005E-1,1.0290364E-1,-7.453489E-2,9.75256E-2,-2.7011089E-2,5.7258913E-3,2.3209533E-2,-1.5997696E-3,5.0654816E-3,-5.3505935E-2,2.1712122E-2,-2.099637E-3],"categories":[],"categories_nodes":[],"categories_segments":[],"categories_sizes":[],"default_left":[0,0,0,0,0,0,0,0,0,0,0,0,0,0,0],"id":92,"left_children":[1,3,5,7,9,11,13,-1,-1,-1,-1,-1,-1,-1,-1],"loss_changes":[1.2055435E-1,2.3811474E-1,1.7456165E-1,2.1335462E-1,7.622081E-2,3.656525E-1,2.3341915E-1,0E0,0E0,0E0,0E0,0E0,0E0,0E0,0E0],"parents":[2147483647,0,0,1,1,2,2,3,3,4,4,5,5,6,6],"right_children":[2,4,6,8,10,12,14,-1,-1,-1,-1,-1,-1,-1,-1],"split_conditions":[2E0,1.12E1,1.6E0,3.5E0,1.65E1,2.9E-1,1.4E1,-2.7011089E-2,5.7258913E-3,2.3209533E-2,-1.5997696E-3,5.0654816E-3,-5.3505935E-2,2.1712122E-2,-2.099637E-3],"split_indices":[1,5,7,8,5,0,3,0,0,0,0,0,0,0,0],"split_type":[0,0,0,0,0,0,0,0,0,0,0,0,0,0,0],"sum_hessian":[4.7E1,1.7E1,3E1,1.1E1,6E0,7E0,2.3E1,7E0,4E0,3E0,3E0,6E0,1E0,1.3E1,1E1],"tree_param":{"num_deleted":"0","num_feature":"11","num_nodes":"15","size_leaf_vector":"1"}},{"base_weights":[2.3963843E-2,-1.3751174E-2,1.17858596E-1,3.7264947E-2,-1.1917114E-1,1.7948914E-2,1.6026857E-1,-4.734711E-3,1.9319102E-2,-3.3918113E-2,-2.7041817E-3,5.0354E-6,5.374603E-3,2.2682019E-2,-4.183044E-3],"categories":[],"categories_nodes":[],"categories_segments":[],"categories_sizes":[],"default_left":[0,0,0,0,0,0,0,0,0,0,0,0,0,0,0],"id":93,"left_children":[1,3,5,7,9,11,13,-1,-1,-1,-1,-1,-1,-1,-1],"loss_changes":[1.6097657E-1,1.819188E-1,5.220653E-2,2.246793E-1,1.674094E-1,2.401184E-3,5.707501E-2,0E0,0E0,0E0,0E0,0E0,0E0,0E0,0E0],"parents":[2147483647,0,0,1,1,2,2,3,3,4,4,5,5,6,6],"right_children":[2,4,6,8,10,12,14,-1,-1,-1,-1,-1,-1,-1,-1],"split_conditions":[3E0,1.4E1,3.6E0,2.5E0,1.6E1,2E-1,4E0,-4.734711E-3,1.9319102E-2,-3.3918113E-2,-2.7041817E-3,5.0354E-6,5.374603E-3,2.2682019E-2,-4.183044E-3],"split_indices":[1,3,8,8,3,6,6,0,0,0,0,0,0,0,0],"split_type":[0,0,0,0,0,0,0,0,0,0,0,0,0,0,0],"sum_hessian":[4.4E1,3.2E1,1.2E1,2.2E1,1E1,4E0,8E0,1.4E1,8E0,3E0,7E0,3E0,1E0,7E0,1E0],"tree_param":{"num_deleted":"0","num_feature":"11","num_nodes":"15","size_leaf_vector":"1"}},{"base_weights":[9.041644E-5,-5.050498E-2,5.9880864E-2,-9.031768E-2,9.725698E-2,-1.8959045E-2,8.956776E-2,-2.3492534E-2,-1.2436735E-3,1.7695619E-2,4.2345426E-3,2.2619883E-2,9.4863883E-4],"categories":[],"categories_nodes":[],"categories_segments":[],"categories_sizes":[],"default_left":[0,0,0,0,0,0,0,0,0,0,0,0,0],"id":94,"left_children":[1,3,5,7,9,-1,11,-1,-1,-1,-1,-1,-1],"loss_changes":[1.4520498E-1,1.617369E-1,1.5644632E-1,1.7503037E-1,1.3463844E-2,0E0,1.600892E-1,0E0,0E0,0E0,0E0,0E0,0E0],"parents":[2147483647,0,0,1,1,2,2,3,3,4,4,6,6],"right_children":[2,4,6,8,10,-1,12,-1,-1,-1,-1,-1,-1],"split_conditions":[2.7E0,4.5E0,1.4E0,3E0,3E0,-1.8959045E-2,3E0,-2.3492534E-2,-1.2436735E-3,1.7695619E-2,4.2345426E-3,2.2619883E-2,9.4863883E-4],"split_indices":[7,8,8,2,6,0,2,0,0,0,0,0,0],"split_type":[0,0,0,0,0,0,0,0,0,0,0,0,0],"sum_hessian":[4.6E1,2.5E1,2.1E1,2E1,5E0,2E0,1.9E1,8E0,1.2E1,2E0,3E0,8E0,1.1E1],"tree_param":{"num_deleted":"0","num_feature":"11","num_nodes":"13","size_leaf_vector":"1"}},{"base_weights":[2.0851784E-3,9.855379E-2,-1.4435931E-2,1.0878563E-2,1.6159058E-1,-2.2194576E-1,7.7871024E-3,-1.6772461E-3,5.126724E-3,2.238922E-2,5.1979064E-3,-5.0247114E-2,-2.0132447E-3,5.8155763E-3,-7.848587E-3],"categories":[],"categories_nodes":[],"categories_segments":[],"categories_sizes":[],"default_left":[0,0,0,0,0,0,0,0,0,0,0,0,0,0,0],"id":95,"left_children":[1,3,5,7,9,11,13,-1,-1,-1,-1,-1,-1,-1,-1],"loss_changes":[7.632984E-2,3.6929473E-2,1.9079974E-1,3.7631597E-3,3.7392303E-3,1.5446758E-1,1.163018E-1,0E0,0E0,0E0,0E0,0E0,0E0,0E0,0E0],"parents":[2147483647,0,0,1,1,2,2,3,3,4,4,5,5,6,6],"right_children":[2,4,6,8,10,12,14,-1,-1,-1,-1,-1,-1,-1,-1],"split_conditions":[8E-1,8E0,1.1E0,2E-1,1.9E1,2E0,1.4E1,-1.6772461E-3,5.126724E-3,2.238922E-2,5.1979064E-3,-5.0247114E-2,-2.0132447E-3,5.8155763E-3,-7.848587E-3],"split_indices":[5,3,5,6,3,2,3,0,0,0,0,0,0,0,0],"split_type":[0,0,0,0,0,0,0,0,0,0,0,0,0,0,0],"sum_hessian":[4.6E1,6E0,4E1,3E0,3E0,3E0,3.7E1,2E0,1E0,2E0,1E0,1E0,2E0,2.4E1,1.3E1],"tree_param":{"num_deleted":"0","num_feature":"11","num_nodes":"15","size_leaf_vector":"1"}},{"base_weights":[-1.2910356E-2,-3.305602E-2,8.943176E-2,1.2151909E-2,-4.6683904E-2,6.1124167E-3,2.7151184E-2,-3.288925E-2,-3.103108E-3,6.351242E-3,-7.0013427E-3],"categories":[],"categories_nodes":[],"categories_segments":[],"categories_sizes":[],"default_left":[0,0,0,0,0,0,0,0,0,0,0],"id":96,"left_children":[1,3,5,-1,7,9,-1,-1,-1,-1,-1],"loss_changes":[9.985851E-2,7.794843E-2,8.9820445E-2,0E0,1.6812196E-1,2.1193158E-2,0E0,0E0,0E0,0E0,0E0],"parents":[2147483647,0,0,1,1,2,2,4,4,5,5],"right_children":[2,4,6,-1,8,10,-1,-1,-1,-1,-1],"split_conditions":[1.52E1,1.4E0,3E0,1.2151909E-2,1.5E0,2.8E0,2.7151184E-2,-3.288925E-2,-3.103108E-3,6.351242E-3,-7.0013427E-3],"split_indices":[5,7,7,0,7,7,0,0,0,0,0],"split_type":[0,0,0,0,0,0,0,0,0,0,0],"sum_hessian":[4.6E1,3.9E1,7E0,3E0,3.6E1,5E0,2E0,2E0,3.4E1,3E0,2E0],"tree_param":{"num_deleted":"0","num_feature":"11","num_nodes":"11","size_leaf_vector":"1"}},{"base_weights":[4.6535404E-3,-1.131897E-1,2.6239043E-2,3.382778E-2,-2.3190975E-1,1.8324606E-1,-8.926213E-3,-1.2817382E-4,5.497894E-3,-3.860611E-2,2.250824E-3,2.5913391E-2,-7.7682495E-4,-2.4247466E-2,3.1057384E-3],"categories":[],"categories_nodes":[],"categories_segments":[],"categories_sizes":[],"default_left":[0,0,0,0,0,0,0,0,0,0,0,0,0,0,0],"id":97,"left_children":[1,3,5,7,9,11,13,-1,-1,-1,-1,-1,-1,-1,-1],"loss_changes":[1.14893034E-1,1.3002245E-1,2.1144101E-1,1.722265E-3,9.608172E-2,4.4823214E-2,2.203514E-1,0E0,0E0,0E0,0E0,0E0,0E0,0E0,0E0],"parents":[2147483647,0,0,1,1,2,2,3,3,4,4,5,5,6,6],"right_children":[2,4,6,8,10,12,14,-1,-1,-1,-1,-1,-1,-1,-1],"split_conditions":[1.6E0,9E-1,1.9E0,3E0,2.9E1,4.2E1,2.1E0,-1.2817382E-4,5.497894E-3,-3.860611E-2,2.250824E-3,2.5913391E-2,-7.7682495E-4,-2.4247466E-2,3.1057384E-3],"split_indices":[7,5,7,1,3,6,7,0,0,0,0,0,0,0,0],"split_type":[0,0,0,0,0,0,0,0,0,0,0,0,0,0,0],"sum_hessian":[4.3E1,6E0,3.7E1,3E0,3E0,6E0,3.1E1,1E0,2E0,2E0,1E0,5E0,1E0,4E0,2.7E1],"tree_param":{"num_deleted":"0","num_feature":"11","num_nodes":"15","size_leaf_vector":"1"}},{"base_weights":[3.8522084E-3,3.4712758E-2,-4.901886E-2,-8.327021E-2,6.911137E-2,-1.5397808E-1,2.2229629E-2,8.432693E-3,-1.9049011E-2,-2.0115385E-3,1.6374946E-2,2.2277831E-4,-2.6001982E-2,6.712392E-3,-1.035614E-2],"categories":[],"categories_nodes":[],"categories_segments":[],"categories_sizes":[],"default_left":[0,0,0,0,0,0,0,0,0,0,0,0,0,0,0],"id":98,"left_children":[1,3,5,7,9,11,13,-1,-1,-1,-1,-1,-1,-1,-1],"loss_changes":[7.5124934E-2,1.2344997E-1,1.3055202E-1,9.227188E-2,1.3530394E-1,6.880365E-2,4.5068085E-2,0E0,0E0,0E0,0E0,0E0,0E0,0E0,0E0],"parents":[2147483647,0,0,1,1,2,2,3,3,4,4,5,5,6,6],"right_children":[2,4,6,8,10,12,14,-1,-1,-1,-1,-1,-1,-1,-1],"split_conditions":[1.4E1,1.9E0,1.8E1,2E0,3.2E-1,3E0,4.52E1,8.432693E-3,-1.9049011E-2,-2.0115385E-3,1.6374946E-2,2.2277831E-4,-2.6001982E-2,6.712392E-3,-1.035614E-2],"split_indices":[3,8,3,2,0,4,6,0,0,0,0,0,0,0,0],"split_type":[0,0,0,0,0,0,0,0,0,0,0,0,0,0,0],"sum_hessian":[4.4E1,2.8E1,1.6E1,6E0,2.2E1,6E0,1E1,2E0,4E0,1E1,1.2E1,2E0,4E0,8E0,2E0],"tree_param":{"num_deleted":"0","num_feature":"11","num_nodes":"15","size_leaf_vector":"1"}},{"base_weights":[6.897744E-3,-1.7327348E-2,1.6830614E-2,5.1995213E-3,2.1351928E-2,2.8485234E-3,-9.464664E-3],"categories":[],"categories_nodes":[],"categories_segments":[],"categories_sizes":[],"default_left":[0,0,0,0,0,0,0],"id":99,"left_children":[1,-1,3,5,-1,-1,-1],"loss_changes":[7.306028E-2,0E0,8.3395556E-2,6.8889305E-2,0E0,0E0,0E0],"parents":[2147483647,0,0,2,2,3,3],"right_children":[2,-1,4,6,-1,-1,-1],"split_conditions":[1.4E0,-1.7327348E-2,4.9E0,4E0,2.1351928E-2,2.8485234E-3,-9.464664E-3],"split_indices":[8,0,7,7,0,0,0],"split_type":[0,0,0,0,0,0,0],"sum_hessian":[4.6E1,2E0,4.4E1,4.2E1,2E0,3.5E1,7E0],"tree_param":{"num_deleted":"0","num_feature":"11","num_nodes":"7","size_leaf_vector":"1"}},{"base_weights":[-1.406934E-2,1.3735236E-3,-1.6884136E-1,9.0071574E-2,-2.2858474E-2,-3.1163177E-2,6.222839E-3,-3.972931E-3,1.5599441E-2,4.4955136E-3,-8.313277E-3],"categories":[],"categories_nodes":[],"categories_segments":[],"categories_sizes":[],"default_left":[0,0,0,0,0,0,0,0,0,0,0],"id":100,"left_children":[1,3,5,7,9,-1,-1,-1,-1,-1,-1],"loss_changes":[1.05397336E-1,9.018147E-2,9.367026E-2,4.8563913E-2,9.499646E-2,0E0,0E0,0E0,0E0,0E0,0E0],"parents":[2147483647,0,0,1,1,2,2,3,3,4,4],"right_children":[2,4,6,8,10,-1,-1,-1,-1,-1,-1],"split_conditions":[5.8E-1,5E0,6.2E-1,1.2E0,2.2E-1,-3.1163177E-2,6.222839E-3,-3.972931E-3,1.5599441E-2,4.4955136E-3,-8.313277E-3],"split_indices":[0,3,0,5,0,0,0,0,0,0,0],"split_type":[0,0,0,0,0,0,0,0,0,0,0],"sum_hessian":[4.3E1,4E1,3E0,8E0,3.2E1,2E0,1E0,2E0,6E0,1.4E1,1.8E1],"tree_param":{"num_deleted":"0","num_feature":"11","num_nodes":"11","size_leaf_vector":"1"}},{"base_weights":[-1.62179E-2,-9.0399454E-4,-1.4467391E-1,-3.7357897E-2,5.7046555E-2,-2.8670195E-2,-2.204895E-3,2.1854574E-3,-2.8186606E-2,1.3504486E-2,-7.6131434E-3,5.849533E-3,-6.246414E-3],"categories":[],"categories_nodes":[],"categories_segments":[],